lstm_12/lstm_cell_12/kernel:0
(5, 200)
[[ 0.08761157  0.02436293  0.10874648  0.07771777  0.02614631 -0.06421812
  -0.03867533  0.1563689  -0.09970398  0.05321664  0.03686897  0.09558245
   0.1585487   0.01938229  0.12995355  0.08689079 -0.13230084 -0.03767303
  -0.0952298   0.07965349 -0.11825917 -0.05960298  0.17329092 -0.14560406
  -0.00988812  0.09205323  0.16631174 -0.15035148  0.03976509  0.0685095
  -0.11645668  0.03392568  0.14634722 -0.08583228  0.08551069  0.05852813
   0.00998141 -0.06510033  0.17903441  0.16107838  0.01928623 -0.10808349
  -0.12196508 -0.02304269  0.00049033  0.08671356 -0.02778284 -0.00942514
  -0.01800005  0.05637925  0.01128173 -0.09077701  0.06000406 -0.00032484
  -0.08528284 -0.10141735 -0.09476483 -0.17672199 -0.06846408  0.09470163
  -0.15410465  0.1362898  -0.06227292 -0.08219181  0.08894829  0.14964662
  -0.13156137 -0.14287628  0.0305176  -0.0800713  -0.14950977  0.08995972
  -0.16236891 -0.17271234  0.07072703  0.10814019 -0.05059246 -0.06243178
  -0.13260257 -0.00712849 -0.03835636  0.1804267   0.12909976  0.06583484
  -0.12140907 -0.07508592 -0.08327819  0.00647325 -0.10929956 -0.1502843
  -0.0462211   0.15633787  0.06048974 -0.13648985  0.00586426  0.10210727
   0.10711557  0.1858793  -0.12509118  0.12192348  0.08127401 -0.08727153
  -0.03480899 -0.00223125  0.14524987  0.12579782  0.09907239  0.00745905
   0.05118395  0.05419996 -0.02857471  0.14778441 -0.15059732  0.00518418
   0.00758155 -0.14142422  0.04926546  0.07477688  0.14793663 -0.00182468
  -0.02527832  0.06033118  0.15468836  0.18292615  0.06524894 -0.10224501
  -0.07011316  0.06302745 -0.11811028  0.09466472  0.1623707   0.09303369
   0.14336483  0.11046857 -0.11177671  0.08286349 -0.04374418 -0.06218809
  -0.01001509 -0.01510417 -0.17221113 -0.01819513 -0.01173928 -0.03006
   0.00369745 -0.05614571  0.1674604   0.06520142  0.1358114   0.03021913
   0.06653049  0.06329152  0.07984263 -0.09566341  0.11900339 -0.16968758
   0.13496107 -0.13321444 -0.04858503 -0.04044427  0.04370461 -0.05480529
   0.153788    0.05838198  0.08369145  0.1323994   0.16399355 -0.00398338
   0.02889801  0.04037417  0.11657397  0.14220032  0.03221014  0.0689155
   0.1670725   0.17322081  0.04759287 -0.10955863  0.11671391  0.17225635
   0.04884469  0.05877374 -0.05106336  0.11741776  0.16825584  0.13973743
  -0.03428168 -0.07164115 -0.0264877  -0.15788966  0.13508643 -0.10984231
  -0.13566439 -0.05865753 -0.09495866  0.04543951  0.18178907 -0.05648875
  -0.00269122 -0.16597237]
 [-0.17825751  0.14686877  0.11587801 -0.06311341  0.09535785 -0.07270541
  -0.08414084  0.1460429  -0.07193033  0.11316384  0.13164349  0.02730647
   0.07432247  0.06708978 -0.04328138 -0.12767696  0.1087733  -0.11239156
  -0.13466439  0.09711005  0.0419022  -0.13402098  0.01420021 -0.11030283
  -0.08887621  0.03581002  0.01305371  0.01749668 -0.05486527 -0.08019599
   0.04296674 -0.02723553  0.09235692 -0.09670185 -0.10267662  0.09141783
   0.16230214 -0.08146898  0.06092415  0.17073463  0.09821039 -0.00177843
   0.03570383 -0.04124545 -0.04613436 -0.14538705  0.1222289   0.15249641
   0.04633446 -0.13105284  0.10509916  0.05877032 -0.08478321 -0.167516
   0.0720882  -0.03527684 -0.16475873  0.04304211  0.13155866  0.13541739
  -0.02497294  0.05950935  0.01097726  0.10522715 -0.16603065  0.02060985
   0.13757262  0.07166145  0.0061412   0.09047777 -0.05384208  0.08856004
   0.01404496 -0.13053699  0.04271787 -0.06934623  0.03895382 -0.1426302
  -0.03296372  0.12161903  0.10631943 -0.07582023 -0.1277026   0.10485249
  -0.02697434 -0.10080303  0.07654832  0.05112131  0.12224518 -0.14734574
  -0.06601788  0.1548032  -0.10722301  0.05928661  0.00163457  0.11268064
   0.02009127  0.01082921  0.11913367 -0.00911973 -0.04995441 -0.12047966
   0.07419634 -0.07656718  0.10012715  0.00426857 -0.04459682 -0.03902065
  -0.13427827 -0.07383901  0.11512682  0.1594608   0.00641725  0.1437142
  -0.12209176  0.10486555 -0.00281649 -0.06507144 -0.10674968 -0.0639194
  -0.12312257 -0.11888118  0.01177739 -0.00201193 -0.12170757 -0.14961626
  -0.03635377 -0.04122515  0.05300619  0.16271707  0.15303046 -0.08362009
  -0.04614944 -0.11549781  0.16620079 -0.00273428 -0.14411168  0.1194414
  -0.02774347 -0.12141267 -0.167072    0.13986374  0.10717674 -0.06321087
  -0.1172413  -0.0494833   0.15363878 -0.01074986  0.09252702  0.00773594
   0.15561737  0.02722066 -0.0316163  -0.15336627  0.11736319 -0.03054142
  -0.1432141  -0.16659199  0.14830726 -0.1639715   0.03873937  0.05328117
   0.15347745  0.09609836  0.03713316 -0.01272716  0.18808869 -0.10070203
  -0.11605096  0.03247096 -0.03996863 -0.10806575 -0.0180673  -0.14565514
   0.06520083  0.00824002 -0.05961177 -0.01679385 -0.02963288  0.08054963
  -0.14218348  0.03920408 -0.09019489  0.12463228  0.02400258  0.1475948
  -0.04406692 -0.16414718  0.18135822  0.16306944  0.17248292  0.10045068
  -0.10345358 -0.16101137  0.06195931 -0.0501745   0.02858526  0.06595551
  -0.0185108   0.1100485 ]
 [ 0.08224577  0.1396246   0.10264714 -0.02832832  0.15629259  0.087253
   0.00761995 -0.1016507  -0.04671178 -0.0921008   0.02858093  0.00068722
  -0.06315416  0.14597191  0.04003498 -0.00160378  0.00104139 -0.1335141
  -0.02695045  0.02760615 -0.12952198 -0.09827042  0.00706741 -0.13264912
   0.0828002   0.06665393 -0.01290887  0.16381688 -0.09201568 -0.03283774
  -0.029789    0.05873644  0.02433816 -0.08027966 -0.03304936 -0.02727766
  -0.10892606  0.03716687 -0.1163138   0.1457199   0.01879379 -0.07377291
   0.15720487  0.09850772 -0.02652386  0.06603613 -0.11708435  0.13127367
  -0.09465689 -0.1200142   0.02242303  0.14247003  0.14883082  0.11287733
  -0.09671342  0.06880917 -0.15401481 -0.09884385 -0.06877846 -0.17396721
  -0.02765071  0.14279708  0.02131974  0.04454343 -0.15947707  0.10996758
  -0.05000718 -0.06319073  0.09571861 -0.05819517  0.02129125 -0.07481181
   0.108095    0.05591085  0.16073553  0.0208092   0.10638343  0.1318854
  -0.05392596  0.17564496 -0.16044074 -0.09577405  0.05008936 -0.06171097
   0.11229646  0.05201977 -0.15261722  0.01723304  0.03481923  0.09858077
  -0.16214624 -0.12354659  0.06380802 -0.06828712  0.06310899 -0.03858306
   0.1646149   0.1883687  -0.07485978 -0.12723753  0.00574827 -0.03685037
  -0.14678767  0.12143164  0.07260594 -0.03186468 -0.11222179 -0.05808763
  -0.14380568 -0.11790612  0.01286912 -0.10382953 -0.17361878 -0.02528671
  -0.06715316  0.00818263 -0.1533825  -0.06449172 -0.01263401 -0.129951
   0.04947739  0.12774274 -0.14205065 -0.14583911 -0.0233064   0.0998307
  -0.08470818  0.09422349  0.08810046 -0.02837262 -0.02676481 -0.12097895
  -0.01508224 -0.02220119  0.07933622  0.12894607 -0.14301726  0.08741772
   0.14922433 -0.06477668  0.06065561  0.09817249  0.12089079 -0.05480477
   0.01891506 -0.01000933  0.00613684 -0.02683211 -0.12058873  0.0116893
  -0.17702276  0.05104095 -0.17054914  0.14409691  0.11651738 -0.05442145
   0.1568927   0.02795908  0.13877733 -0.12092412 -0.08882952  0.02706682
  -0.02939465 -0.1601486  -0.0219529  -0.02211533  0.14658338 -0.16968535
  -0.11978213 -0.00848921  0.0557133   0.08295112  0.08822139 -0.04398865
  -0.07277127 -0.0470946  -0.06595065  0.04252952 -0.00712763  0.02576484
  -0.06412434 -0.15367202  0.15429914  0.03358231 -0.0253625   0.11671406
   0.07277858  0.03928379  0.05871834  0.12774453  0.07553603 -0.07550574
  -0.0892437  -0.10567966 -0.10935169  0.04418218 -0.12443707 -0.01911695
   0.10722172  0.0536885 ]
 [-0.13152243 -0.05959846  0.04728788  0.13396645 -0.04912142  0.1451168
   0.04729296  0.10395499  0.11900006 -0.04095192  0.11381079 -0.11767816
   0.12156663  0.03023241 -0.01230734  0.04132762  0.03258362 -0.09038248
   0.00313295 -0.09300685  0.06351271  0.00473857  0.00036535 -0.15806563
   0.10428604  0.16063799  0.11926922 -0.15584712  0.1066327   0.03773449
  -0.07684395 -0.06197574  0.09813401 -0.02703947 -0.15305518  0.09860376
   0.03863671 -0.03286123  0.13130464  0.15952703  0.06083817  0.0612881
  -0.0222969   0.12827903  0.11089308  0.14950739  0.03489493  0.1441598
   0.0290917   0.09177332  0.148001    0.07102802 -0.00189482  0.07231046
  -0.15262428  0.1461277  -0.10468287  0.1333096   0.10888387  0.02086801
  -0.16704912  0.01889126 -0.06389631 -0.14480406  0.02829813  0.02561596
  -0.09217598  0.01032749 -0.0279173  -0.15185589  0.06405295 -0.10269739
  -0.09017118  0.14141251 -0.18071014  0.14690731  0.14348778  0.08020267
   0.10222306 -0.14475028 -0.1510582   0.16407777 -0.1548874  -0.10078795
  -0.09083821 -0.09326702 -0.15397552 -0.12518536  0.13405871  0.14459896
   0.09931079  0.08284714 -0.13987271  0.04906961 -0.06849141 -0.02813522
   0.03569485 -0.17456396 -0.0104237   0.11248259  0.15431139 -0.03292018
  -0.03593935  0.0748968  -0.11623193 -0.07050607 -0.01669719 -0.08345785
   0.06428076 -0.06611284  0.10620841 -0.16321631  0.05191232  0.14094153
  -0.0869989   0.07878891 -0.03233747  0.09623989  0.1449075  -0.12753676
   0.00747223 -0.05066375  0.00297127 -0.04210696  0.15632291  0.12586355
  -0.10331611  0.05680994  0.01354456 -0.02530866 -0.10744765 -0.08440573
  -0.08956306  0.01822177  0.02281239 -0.09200931 -0.09636879 -0.03441861
   0.1398339  -0.13390736 -0.03980188 -0.09916967 -0.06877415 -0.03157521
  -0.02070599 -0.05085262 -0.03906122 -0.02248766 -0.14590062  0.05910408
  -0.01121802 -0.04268578 -0.00613681 -0.03362514 -0.14361097  0.06508108
  -0.08941761  0.04618105  0.04392358 -0.13609831 -0.11443688 -0.02511133
   0.10528593  0.13569975 -0.07783157  0.1477557  -0.1359866  -0.03286781
   0.08893555 -0.03310857  0.07767112 -0.18093044 -0.17859836 -0.16733876
   0.06609313  0.06138029 -0.1510727   0.14901903 -0.14126366 -0.0177144
   0.0330669  -0.02473277  0.1357878  -0.08130874 -0.02370928  0.05235875
   0.16377665  0.14486182  0.01451214  0.02852901  0.03618442  0.01180311
  -0.08774515 -0.13922511  0.06070336 -0.01728628  0.14775103 -0.14905356
   0.122183    0.09703396]
 [ 0.11560872 -0.12059619 -0.04801573  0.1605992  -0.07752028 -0.05657929
  -0.08908809  0.09575874  0.02605526  0.03452697 -0.02619562  0.04023795
  -0.08262416 -0.04097289 -0.03350388  0.07428429  0.12214056  0.03182188
   0.1506004   0.03081726 -0.01686458  0.1694485   0.09527069  0.00595216
  -0.05234683  0.15009981 -0.11731482  0.05447672  0.12563342 -0.06044169
  -0.0448416   0.01822153  0.12818459  0.07977629  0.1592409  -0.02448454
  -0.10606239  0.11974317  0.08465984 -0.10778359  0.15186563  0.09180477
   0.10934499  0.05366327  0.13358405  0.1667304   0.11668944  0.15813741
  -0.0959852  -0.0011522   0.02292426 -0.11911564  0.02979305  0.06228484
   0.10166541  0.11875296 -0.1542735   0.1197432  -0.09846943  0.11966074
   0.14153892  0.08216879 -0.129634    0.14815962 -0.04192656  0.04781346
   0.07872982  0.02691056  0.13879728  0.14140421 -0.13515352  0.14709526
   0.1242319   0.06514372  0.07916197  0.15451199  0.01944412 -0.08671783
  -0.01744446 -0.15510248  0.13783088 -0.1133992  -0.11873659 -0.04660583
  -0.04105683 -0.04129185 -0.08211316 -0.12429126 -0.15785    -0.14818004
   0.03522022  0.0112422   0.15380818  0.02543724  0.14830148  0.15205705
  -0.0342136   0.09388879  0.0048033  -0.01724534  0.11990622 -0.05051912
   0.15741694  0.11025143  0.12326893  0.06035167 -0.14683239 -0.14403641
   0.1039156   0.05400129 -0.06906386  0.04234049  0.11437801  0.05569769
  -0.03092399 -0.09964684  0.00594412  0.09306148  0.07509235  0.10435167
   0.15499732 -0.08774354  0.13808918 -0.03774239  0.14012435 -0.00631791
   0.04641008 -0.0428924   0.03593819  0.09831667  0.05990691 -0.02073774
   0.04665208 -0.07523649  0.0352066  -0.09739306 -0.02425911  0.0217976
  -0.03645045 -0.03831346 -0.16978788  0.11775294  0.07448956 -0.16719267
  -0.04209596  0.12077346  0.1700564   0.05824184  0.06531218 -0.13395523
  -0.01271418 -0.11691701 -0.14602058 -0.09243492  0.05530281 -0.05566457
  -0.04920125 -0.10642594  0.05015162  0.03150046  0.08013904 -0.09471447
   0.16681188  0.1150333  -0.09752019 -0.01278079 -0.00519288  0.16783142
  -0.0848699  -0.13423035  0.06288514  0.07547779 -0.06190947  0.13900399
   0.0635951  -0.13273638  0.00992121 -0.00893548 -0.10703409  0.05156849
   0.00115028 -0.05586231  0.02642028 -0.06919582 -0.07989287 -0.1460229
   0.03283718 -0.14914559 -0.13647918 -0.14193115  0.02433684  0.1689224
  -0.15369478 -0.13901122 -0.03948814  0.10336062  0.12092564  0.06731388
  -0.04946116 -0.0309951 ]]
lstm_12/lstm_cell_12/recurrent_kernel:0
(50, 200)
[[-0.04352521 -0.04173211  0.00997714 ...  0.05841712  0.02018615
  -0.09278148]
 [ 0.05702194  0.01158201 -0.07532665 ... -0.03443447  0.09435594
  -0.09784131]
 [ 0.11771317  0.04580418  0.04571354 ... -0.01160535  0.07957801
  -0.1090689 ]
 ...
 [-0.14221832 -0.09921563  0.19448031 ... -0.13675289 -0.1045851
   0.02725391]
 [ 0.03924721 -0.03832624  0.05313065 ...  0.05688949  0.11021011
  -0.01209979]
 [-0.04909022  0.10952799 -0.08389186 ...  0.03282921  0.13226373
  -0.09815418]]
lstm_12/lstm_cell_12/bias:0
(200,)
[-1.06383068e-02  7.26094982e-03 -1.22071560e-02 -1.49018234e-02
  5.43855969e-03 -1.09751355e-02 -1.26768602e-02 -1.29229100e-02
  5.02987765e-03 -1.37350811e-02  5.15367649e-03  6.09495863e-03
  2.33227434e-03 -1.22158099e-02 -9.06293001e-03 -9.90603678e-03
  7.86648598e-03 -1.10498397e-02 -2.10188460e-02 -9.45713546e-04
 -1.16685862e-02 -1.13969194e-02 -4.77152038e-03 -1.21199368e-02
  8.44970997e-03 -1.05585111e-03  4.00092965e-03 -7.23916525e-03
  1.68016702e-02  3.87746887e-03 -3.46485002e-04  5.93585474e-03
 -4.88221319e-03 -1.77711733e-02  1.04756132e-02 -6.25786418e-03
 -5.25758695e-03 -1.44313322e-02  2.56475736e-03  2.30109249e-03
  3.40567459e-03  1.18938461e-02  5.00743277e-03 -1.29218008e-02
 -1.72280148e-02 -8.85793939e-03  7.78081547e-03  7.42306374e-03
  9.91291087e-03 -9.21373628e-03  9.88821805e-01  1.00573421e+00
  9.87901986e-01  9.85629976e-01  1.00374842e+00  9.88535762e-01
  9.87381518e-01  9.87350821e-01  1.00235307e+00  9.83649075e-01
  1.00371051e+00  1.00331306e+00  1.00071383e+00  9.82156694e-01
  9.89953697e-01  9.88945961e-01  1.00624716e+00  9.88966167e-01
  9.78157759e-01  9.96075630e-01  9.87888515e-01  9.88622785e-01
  9.93193388e-01  9.87948239e-01  9.99972522e-01  9.96512473e-01
  1.00251746e+00  9.89904284e-01  1.01574373e+00  1.00225627e+00
  9.95597661e-01  1.00480402e+00  9.94446695e-01  9.82360005e-01
  1.00246501e+00  9.90599751e-01  9.92437601e-01  9.85991061e-01
  1.00123489e+00  1.00181711e+00  1.00133848e+00  1.00516045e+00
  1.00301158e+00  9.85420227e-01  9.81998861e-01  9.89418030e-01
  1.00596416e+00  1.00448585e+00  1.00687897e+00  9.88903165e-01
 -1.33363251e-02  5.34614827e-03  1.03666866e-02  1.39407385e-02
 -8.66675470e-03  2.63853208e-03  1.92433465e-02  5.66491811e-03
  5.29716536e-03  1.55254388e-02  4.41095850e-04 -6.18658727e-04
  1.38228256e-02 -1.40532209e-02  2.07819231e-02  3.10871983e-03
  8.05541873e-04  1.64674353e-02 -1.66672636e-02  1.52098136e-02
  1.53613416e-02 -1.59518626e-02  1.38393743e-03  5.72725339e-03
  4.51465385e-05  9.07899626e-03  4.80729528e-03 -1.69409928e-03
 -1.29490495e-02 -8.05047061e-03 -1.51421810e-02  2.39056558e-03
 -7.85425678e-03 -1.00606335e-02  2.39845715e-03 -1.47271464e-02
  2.18530055e-02 -5.08421240e-03 -5.97937219e-03  7.30552245e-03
  1.28559079e-02 -4.97646630e-03 -9.22951289e-03  2.99636927e-02
 -1.10034749e-03  1.71475504e-02 -5.39064361e-03 -8.80742446e-03
 -6.50771253e-05 -1.91988181e-02 -1.06531894e-02  8.18469562e-03
 -1.21135497e-02 -1.51118869e-02  5.44773694e-03 -1.10195996e-02
 -1.26513727e-02 -1.30986189e-02  3.96544952e-03 -1.31859183e-02
  5.47311921e-03  7.18892412e-03  2.55775009e-03 -1.12929232e-02
 -9.07981582e-03 -9.97981988e-03  5.55058755e-03 -1.11631434e-02
 -2.09153928e-02 -5.63907612e-04 -1.17330467e-02 -1.13273840e-02
 -4.71233949e-03 -1.21050533e-02  6.90081203e-03 -1.24189921e-03
  4.28814534e-03 -6.44588424e-03  1.66151095e-02  3.44412122e-03
  1.78674163e-04  6.25964487e-03 -3.85278603e-03 -1.72463413e-02
  9.86128952e-03 -7.09202606e-03 -3.93301994e-03 -1.46746328e-02
  2.28106230e-03  3.47132259e-03  3.10987746e-03  1.17916726e-02
  5.82585484e-03 -1.28741870e-02 -1.71642341e-02 -8.99823010e-03
  8.74675345e-03  1.10578742e-02  9.61280055e-03 -9.75045282e-03]
lstm_13/lstm_cell_13/kernel:0
(50, 240)
[[-0.02623889 -0.01655183  0.06809682 ...  0.11076367  0.13284498
   0.08988184]
 [ 0.09781163 -0.12327061 -0.08779726 ... -0.01626111  0.05680311
   0.02290532]
 [ 0.02940942  0.14504528 -0.11320543 ... -0.01561154  0.0824013
  -0.05157448]
 ...
 [-0.05125716  0.08915744  0.0354716  ...  0.05199305  0.13674712
   0.13782278]
 [-0.00130457 -0.09241014  0.0328901  ...  0.02124213  0.05533718
   0.05001231]
 [-0.08889852 -0.10777561  0.02513992 ... -0.10923486  0.07303758
   0.01073432]]
lstm_13/lstm_cell_13/recurrent_kernel:0
(60, 240)
[[ 0.05118214 -0.01290991 -0.00564194 ...  0.0385421  -0.01025789
  -0.03825558]
 [ 0.11266009 -0.14313799 -0.08637258 ...  0.0277511  -0.04245773
   0.09114947]
 [ 0.17777917  0.09903181 -0.00521609 ... -0.07764814 -0.17747067
  -0.05736826]
 ...
 [ 0.07136332  0.0195615   0.0062069  ... -0.0248011  -0.09228241
  -0.0177386 ]
 [-0.05182729 -0.0572651  -0.0214171  ... -0.0085517  -0.08599239
  -0.09504071]
 [-0.06001039  0.00391573 -0.03333346 ...  0.03571571 -0.11189578
  -0.12110183]]
lstm_13/lstm_cell_13/bias:0
(240,)
[-3.55583732e-04 -8.62680376e-03  3.45790223e-03 -1.44988364e-02
 -8.71644169e-03  9.02882777e-03  3.82700865e-03  3.47382971e-03
 -1.07642943e-02 -9.62391903e-04  8.94381199e-03 -8.58359877e-03
 -1.00072995e-02 -8.09015334e-03 -1.54368756e-02  1.21450436e-03
  2.63009383e-03 -2.99192164e-02 -7.08432286e-04 -1.19911134e-02
  9.03486088e-03  4.02652053e-03  3.39642656e-03 -1.37135889e-02
  2.30486901e-03  1.21541964e-02  1.09934863e-02 -3.36695986e-04
 -1.37674548e-02 -1.35619137e-02 -1.55443531e-02  1.37849646e-02
 -1.34698190e-02 -1.05953787e-03 -4.36519645e-03  8.78338423e-03
 -1.47854525e-03 -9.98673588e-03  9.97540448e-03  7.48228282e-03
  4.75325435e-03 -4.69250465e-03 -2.15933789e-02 -1.01253542e-03
 -1.02029517e-02  3.40011995e-03  5.82414167e-03  1.48674846e-03
 -1.08743366e-02 -2.28160713e-02  9.99177690e-04 -5.96470549e-04
  4.78534773e-03  2.38108519e-03 -3.60416551e-03 -9.17874917e-04
  1.21320756e-02  3.05876322e-03  7.01925391e-03 -5.82665671e-03
  9.94767010e-01  9.91146028e-01  1.00357163e+00  9.87106562e-01
  9.89603281e-01  1.00567722e+00  1.00400651e+00  1.00494254e+00
  9.89040852e-01  9.99394238e-01  1.00804901e+00  9.89653826e-01
  9.93269503e-01  9.96042192e-01  9.86287296e-01  1.00152040e+00
  1.00454557e+00  9.76825893e-01  9.99959409e-01  9.88110304e-01
  1.00902724e+00  1.00354755e+00  1.00543714e+00  9.89787340e-01
  1.00415027e+00  1.01263797e+00  1.01063144e+00  1.00101745e+00
  9.85565245e-01  9.84892666e-01  9.84490097e-01  1.01253462e+00
  9.87483084e-01  9.97838855e-01  9.93028104e-01  1.00788593e+00
  9.99059498e-01  9.88365829e-01  1.00880563e+00  1.00748181e+00
  1.00532329e+00  9.92346108e-01  9.93561924e-01  1.00009191e+00
  9.89505231e-01  1.00339782e+00  1.00628662e+00  1.00340676e+00
  9.93679702e-01  9.78961110e-01  9.99979794e-01  9.99667406e-01
  1.00489116e+00  1.00159168e+00  9.98665392e-01  1.00609481e+00
  1.01381314e+00  1.00019205e+00  1.00720251e+00  9.94527161e-01
 -1.65116824e-02  1.46460496e-02 -4.93014650e-03 -1.65155400e-02
  2.85450909e-02 -9.98182595e-03  4.14697407e-03 -8.19212385e-03
  1.16170701e-02 -2.20835139e-03  2.76361546e-03 -7.96319637e-03
 -1.21559948e-02 -8.98711849e-03 -6.94332551e-03 -4.70622210e-03
 -2.93488405e-03  9.76997707e-03  3.46038444e-03 -1.41806211e-02
  5.73385926e-03  5.28213941e-03  5.74041344e-03  5.83299203e-03
 -5.58813568e-03  9.44202766e-03 -5.77420974e-03 -1.14031159e-03
  2.16697603e-02 -7.07513606e-03 -2.57994514e-03  4.54340782e-03
 -5.90909971e-03 -8.51501338e-03  7.01463362e-03  6.73014158e-03
  1.86607207e-03  6.84762653e-03 -4.27228678e-03  4.12501115e-03
  5.24954544e-03  5.10275923e-03 -9.42273438e-03 -6.83287391e-03
 -9.63534415e-03 -2.53077084e-03  5.31834131e-03  6.33869460e-03
  4.53805272e-03  1.60760041e-02  4.47122753e-03 -9.40088835e-03
 -3.19305295e-03 -2.04881392e-02  6.62470423e-03 -3.83279403e-03
  8.12159758e-03 -1.85875706e-02  5.06313425e-03 -1.40316971e-03
 -7.68314407e-04 -8.60372279e-03  2.50930479e-03 -1.47195077e-02
 -8.94825440e-03  9.08932555e-03  3.21858120e-03  3.80034605e-03
 -1.07213883e-02 -2.12863530e-03  7.72848446e-03 -8.62572249e-03
 -1.03766033e-02 -7.89260399e-03 -1.55788539e-02  1.01813325e-03
  2.63769319e-03 -3.02487146e-02 -2.28306651e-03 -1.20696155e-02
  9.07877833e-03  3.85018974e-03  3.20594665e-03 -1.44412732e-02
  1.31131662e-03  1.14144394e-02  1.00647872e-02 -6.84308703e-04
 -1.36276865e-02 -1.42016038e-02 -1.56973172e-02  1.28084403e-02
 -1.37396771e-02 -1.47708016e-03 -4.35418542e-03  8.33040942e-03
 -1.24291668e-03 -1.00779915e-02  1.01235891e-02  5.35971858e-03
  4.01742244e-03 -5.46628051e-03 -2.19728965e-02 -1.15950394e-03
 -1.01604080e-02  2.62405653e-03  5.49172470e-03  1.04444672e-03
 -1.06708128e-02 -2.29795966e-02 -2.58624514e-05 -6.90128480e-04
  3.38486210e-03  3.73827410e-03 -3.77689768e-03  2.66520394e-04
  1.12693058e-02  3.71442828e-03  6.16895221e-03 -5.75603172e-03]
dense_6/kernel:0
(60, 1)
[[-0.10710771]
 [ 0.08181173]
 [-0.28720278]
 [-0.06503624]
 [ 0.05046122]
 [-0.09539181]
 [ 0.11465701]
 [-0.21960276]
 [ 0.10373291]
 [-0.1834653 ]
 [ 0.11218722]
 [-0.17142154]
 [-0.11134567]
 [-0.24375525]
 [-0.28325588]
 [-0.08023092]
 [-0.07077761]
 [ 0.27264014]
 [ 0.1583364 ]
 [-0.02094764]
 [ 0.04934175]
 [ 0.09105162]
 [ 0.17940035]
 [ 0.2827432 ]
 [-0.27552918]
 [ 0.09266568]
 [-0.15250118]
 [-0.25924668]
 [ 0.05705907]
 [-0.29000604]
 [ 0.02439816]
 [ 0.05492813]
 [-0.21299994]
 [-0.21891779]
 [ 0.08062015]
 [ 0.08010904]
 [ 0.20961131]
 [ 0.1349405 ]
 [-0.05821869]
 [ 0.09829912]
 [ 0.15836006]
 [ 0.21410528]
 [-0.06413501]
 [ 0.03657496]
 [-0.20032907]
 [-0.185494  ]
 [ 0.10277712]
 [ 0.2617261 ]
 [ 0.28032523]
 [ 0.01608237]
 [ 0.2300496 ]
 [ 0.01291433]
 [-0.1466628 ]
 [-0.06112729]
 [ 0.0542325 ]
 [-0.15583067]
 [ 0.09567528]
 [-0.0571336 ]
 [ 0.13631071]
 [ 0.0660666 ]]
dense_6/bias:0
(1,)
[0.01822529]
