conv1d_1/kernel:0
(1, 5, 64)
[[[ 0.17880301  0.06439016 -0.24208382  0.08921381  0.1119925
   -0.08470293  0.23462036 -0.03326496  0.23423061  0.02697106
   -0.1750075   0.14765209  0.10074513  0.24387743  0.2369318
   -0.13608804 -0.26173452  0.13709934  0.1467018   0.25282973
    0.22965866 -0.22083125  0.02245672 -0.21034476 -0.2955095
   -0.2789      0.08715615 -0.2030151  -0.01325524  0.12449189
   -0.13510767 -0.19931984 -0.04201258 -0.28050694 -0.21739453
    0.15384609  0.21357754  0.08527705 -0.28038728 -0.05456784
    0.21237832 -0.16645087  0.22144198  0.24422365  0.08315121
    0.05979659  0.23389931  0.09577916  0.02985543  0.27873963
   -0.28749043 -0.2589684  -0.07932027 -0.26272345  0.1953055
   -0.2603681  -0.24982478 -0.00271152  0.13573626  0.01909388
   -0.10463001  0.1596539   0.28644693  0.25408602]
  [ 0.23088367  0.07284657  0.14611544 -0.1074836   0.01728957
   -0.24778935  0.10677877  0.04750204  0.09189693  0.14211953
    0.07336644 -0.25455582  0.14406902 -0.21845232 -0.03469357
    0.20054665 -0.10795202  0.11403432  0.21894626 -0.2110204
    0.14349458  0.05827015 -0.15688512  0.24094296 -0.263709
    0.25420958 -0.22088958 -0.17300746  0.2298401  -0.22732681
   -0.18610625 -0.19901405  0.26051992  0.07277191 -0.30018568
    0.03276371 -0.05213405  0.23644418  0.23118372 -0.05421548
   -0.03766518  0.07201923  0.07772862  0.24486002  0.16958192
    0.07964686 -0.02481225  0.05604977  0.26965994  0.02251038
   -0.0555083   0.15780523 -0.28933764 -0.28251776 -0.2130898
    0.11975826 -0.23821595  0.24509507  0.14875077 -0.2183342
    0.00264257  0.18320079 -0.2770808  -0.09901026]
  [-0.1051865   0.14899702  0.09608942  0.17022398  0.13958302
   -0.15755847  0.10757216 -0.17991754  0.05346843 -0.28542817
    0.13939886  0.01074584 -0.00901431 -0.11149821 -0.2626595
   -0.0304625  -0.0091176  -0.01839966 -0.11843833  0.2270838
   -0.25133473 -0.21297915  0.24802265 -0.231195   -0.2727641
   -0.11204093 -0.07175396  0.24350011 -0.2866234  -0.08865114
    0.14849587 -0.00650043 -0.1745391  -0.25836867  0.22026362
    0.01988434  0.19403985  0.19129002  0.04589425 -0.06123193
   -0.15312208 -0.28536457 -0.3010526   0.00699448  0.16098958
    0.18791361  0.10062028 -0.21491532  0.26584473  0.09363355
   -0.28070626 -0.14713858 -0.1115109   0.2776729  -0.16434713
    0.0811879  -0.287712   -0.14710696  0.00400429  0.27788067
   -0.10746622 -0.24034275 -0.13247293 -0.25247037]
  [ 0.17991297  0.16396305  0.17384756  0.2844841   0.0536067
   -0.03069409  0.20643242 -0.17634678  0.17984644  0.16895466
    0.15705197 -0.07078195  0.00954739 -0.26211253  0.0951305
    0.00959725 -0.01654372 -0.07505476 -0.02341226  0.18538558
   -0.24023001  0.08129526  0.29318428 -0.29372773  0.25708115
    0.21472238  0.05696726 -0.06019723  0.00912105  0.17274636
   -0.20703487  0.23695193  0.12899779  0.10437915 -0.17035916
   -0.0577468   0.03317561  0.13376053  0.08428197 -0.2298895
    0.1520612   0.00185869  0.12397753 -0.00866071 -0.02133277
   -0.28064823 -0.24888992  0.02122502 -0.03620172 -0.01297311
    0.16138949  0.05755347  0.18417035 -0.03652704 -0.07442705
   -0.26256633 -0.16582213  0.05476014 -0.09093287  0.17664742
    0.08365926 -0.30309305 -0.16898689 -0.22676638]
  [ 0.16658875 -0.08527073 -0.01934025 -0.2237049  -0.02590371
    0.25005877  0.13304661  0.03431451 -0.07819167  0.17073503
   -0.28557298  0.25132883 -0.16292231  0.20199233  0.281358
   -0.23427843  0.2633737  -0.16928603 -0.11368208  0.05509314
   -0.23157087  0.23449418 -0.11175685 -0.03214303  0.22431898
    0.16010591 -0.26843804 -0.26895815  0.2498512  -0.09641242
    0.19606434  0.2799563  -0.01956305  0.09256969  0.10744394
   -0.11632106 -0.29050106 -0.03684902  0.07639264  0.05377614
    0.05320248  0.09165817  0.10518797 -0.01820774 -0.09165323
    0.00996273 -0.17930931  0.22104715  0.25090668 -0.29292694
   -0.00339803  0.04990897  0.05013912 -0.10163596 -0.20093925
    0.24593668 -0.25738138 -0.07938554  0.0932209  -0.01841229
   -0.24181175 -0.02808442 -0.1413825  -0.27835447]]]
conv1d_1/bias:0
(64,)
[-0.05020876 -0.01436948 -0.01388347  0.02917506 -0.02897142 -0.00247651
 -0.03737908  0.         -0.02411361 -0.02502104  0.01932618  0.00395285
  0.04461338  0.08646537 -0.02837875 -0.01477067  0.00155798 -0.02433531
 -0.03079969 -0.02246011  0.         -0.00755285 -0.03431133  0.
 -0.00214864 -0.01693223  0.          0.         -0.00567216  0.01438247
  0.11911143  0.04649378 -0.00191074  0.03480789  0.01220904 -0.03444915
 -0.03698689 -0.01086929  0.02587105  0.         -0.01760284 -0.02105304
 -0.01169892 -0.02950384 -0.02844423 -0.03506133 -0.01123043 -0.0213763
 -0.01990194 -0.02903354  0.03010071  0.01616921  0.01355068  0.
  0.         -0.00276925  0.         -0.01877479 -0.0440189  -0.01432347
  0.         -0.00233949  0.          0.        ]
conv1d_2/kernel:0
(1, 5, 64)
[[[-9.90079343e-02  2.25823209e-01  2.44452655e-02 -2.26220235e-01
    2.40763605e-01 -3.24397981e-02  4.85354569e-03 -1.15645789e-01
   -2.82668918e-01  1.64760768e-01 -9.16564488e-04  2.20374718e-01
    1.55395091e-01 -2.45515317e-01  1.32643595e-01  1.42879710e-01
   -1.97386146e-01 -1.53279275e-01  8.80539566e-02 -9.09760371e-02
    2.04779819e-01 -2.27691114e-01  4.81068790e-02  6.78339750e-02
   -1.19657122e-01 -1.06388740e-01 -1.15439802e-01  2.10901782e-01
   -2.24429831e-01  9.56865028e-02  1.56242669e-01  2.84430683e-01
   -1.98404081e-02 -3.22399080e-01 -1.77542895e-01 -1.86998516e-01
    2.11006597e-01 -2.22997516e-01  1.76596388e-01  5.73057495e-02
   -1.72073677e-01  2.34714150e-01  1.46944046e-01  2.29076743e-01
    1.27982184e-01  9.26278755e-02  6.79695308e-02 -2.51290113e-01
    2.62331575e-01 -1.80836573e-01  2.52221912e-01  2.41877481e-01
    2.61651754e-01  2.86749303e-01 -1.19574308e-01 -2.14598835e-01
    2.14469060e-01  2.68414747e-02  1.46605045e-01  7.85153583e-02
   -4.20208573e-02  2.53072113e-01  1.67700708e-01 -5.30651622e-02]
  [-3.16972882e-02 -1.00560725e-01  3.45844924e-02 -3.85262468e-03
   -2.43771598e-01 -2.11409271e-01 -2.67460227e-01  2.33979195e-01
   -2.72599459e-02  4.28225249e-02 -1.14945978e-01 -1.62418351e-01
   -2.84046471e-01  1.51266932e-01  2.27695793e-01  1.62196025e-01
   -2.24016994e-01 -1.23299010e-01 -7.50707537e-02 -1.70525759e-02
   -1.62335947e-01  1.56325530e-02  7.79062510e-04 -1.17118597e-01
   -2.56494731e-01  2.77962297e-01  1.34012997e-01  1.66073948e-01
    1.03020698e-01  2.44810000e-01  9.01993588e-02 -1.07573234e-01
   -1.68182850e-01  2.46307869e-02 -2.66134948e-01 -4.93401699e-02
    1.07773550e-01 -7.73834065e-03  2.22096294e-01 -2.40545608e-02
   -2.19848156e-01 -7.96575919e-02  1.32110119e-02 -1.59192309e-01
   -1.89491481e-01 -2.13800911e-02  4.86782193e-03  4.06251726e-04
   -1.44507378e-01 -2.93759793e-01 -3.09551060e-01  2.52585858e-01
   -1.63998440e-01  1.93719417e-01  3.70882377e-02 -8.23077708e-02
    8.35678130e-02  2.00805038e-01 -2.06324115e-01  1.31744640e-02
    2.64135361e-01  1.83716491e-01 -2.47907534e-01 -1.07530840e-01]
  [ 2.56486773e-01 -2.01553665e-02 -2.36911222e-01 -1.66976660e-01
    1.66286677e-01 -9.01789367e-02  1.12192243e-01  1.71683252e-01
   -2.41915941e-01  2.16385290e-01  1.15844868e-01  4.44160551e-02
    5.35863638e-03  4.77487631e-02 -2.59598970e-01  7.96498209e-02
    1.67947263e-01  2.09597290e-01  1.07548200e-02  3.68246213e-02
    1.65915310e-01  2.82233860e-03 -1.33187383e-01  2.45003730e-01
   -1.96471930e-01  2.26018295e-01  1.63006261e-01 -1.39605880e-01
   -9.57798511e-02  1.69572443e-01  7.76114464e-02  4.76079658e-02
   -1.48502206e-02 -3.24380726e-01 -8.47360641e-02  1.29116029e-01
   -9.30321589e-02 -1.39270812e-01 -1.08866217e-02 -2.20514864e-01
   -2.50271618e-01 -1.82385147e-01 -2.33752593e-01 -2.93751210e-01
    9.75641757e-02  9.65405405e-02 -1.44075155e-01 -2.42372319e-01
   -1.46350205e-01  8.91739130e-03  2.13645503e-01  2.24417537e-01
   -1.87977418e-01 -1.91954210e-01  1.27349287e-01  7.84137547e-02
    1.92312434e-01 -2.51564562e-01 -1.94684774e-01  1.38472289e-01
   -1.26234844e-01 -4.10838649e-02 -1.35268778e-01  2.06448302e-01]
  [-1.57751158e-01 -9.82952937e-02 -1.87670290e-01  1.77401453e-01
   -1.30269974e-01 -1.48345038e-01  1.14904575e-01 -1.10222045e-02
   -9.72430557e-02  2.95307636e-01 -1.61601249e-02  8.12951028e-02
   -7.42003918e-02  3.06057781e-01  2.82642571e-03 -7.45358923e-03
   -2.71246314e-01  1.99985296e-01  2.13264346e-01 -2.19790488e-01
   -2.72825956e-02  2.88505614e-01 -2.72051126e-01  8.92398879e-02
    1.41499534e-01 -9.53899920e-02 -1.13496169e-01  2.27237165e-01
    7.05241859e-02 -6.92552924e-02 -2.22058088e-01  2.61335969e-01
   -2.16196850e-01 -7.20596537e-02  2.10966051e-01  1.53756693e-01
   -1.61359623e-01  5.62929474e-02  2.12028623e-01  1.80195440e-02
   -3.13557275e-02 -1.74291171e-02  7.65669644e-02 -2.21964777e-01
    3.07180136e-01  1.86337918e-01 -2.02351213e-01  2.08372191e-01
    3.53347063e-01  1.68557465e-01  1.56746849e-01  8.44857693e-02
    4.17569876e-01 -6.64999634e-02  1.19221635e-01 -6.85660839e-02
   -1.74778141e-02 -2.81085342e-01  3.35356593e-02 -1.63941160e-01
   -2.32491016e-01 -6.11091666e-02 -2.77193904e-01 -4.15439047e-02]
  [-2.37997789e-02  1.94166049e-01  2.37741172e-02  3.10338080e-01
    1.86131001e-01 -2.44839951e-01  2.64849037e-01  2.69654602e-01
   -2.86747754e-01 -2.66449928e-01  2.11844623e-01  4.69954573e-02
   -8.32165480e-02  1.77467301e-01  8.34759623e-02  1.50147662e-01
   -2.67997414e-01  2.84674197e-01 -3.12045533e-02  1.69328347e-01
   -1.82360277e-01  1.47532925e-01 -2.15687662e-01 -2.11227015e-01
    5.00239171e-02  3.51563469e-02  1.83764890e-01  1.85088798e-01
   -1.95658162e-01  2.62410581e-01  6.43184558e-02 -1.75325759e-02
    2.09540769e-01  7.23392442e-02 -2.30392113e-01  1.59273207e-01
   -1.23256691e-01  8.25725868e-02 -5.18470705e-02  1.35197118e-01
    1.98943540e-02  2.05234572e-01 -2.03995794e-01 -1.68520406e-01
    8.91333744e-02 -2.28858069e-02  8.96286964e-03  2.32732460e-01
   -4.39600311e-02 -2.55237609e-01 -2.15547115e-01  1.73237175e-01
   -1.61927734e-02 -2.42645726e-01 -3.20706069e-02 -2.60434777e-01
   -2.45223612e-01  2.11379692e-01 -2.03053981e-01  4.84137572e-02
   -2.46920586e-01  7.32602701e-02 -6.05809689e-03  1.10273242e-01]]]
conv1d_2/bias:0
(64,)
[ 0.04673522 -0.02877197  0.          0.04694005 -0.02416745  0.
  0.00349294 -0.04007186  0.         -0.02652982 -0.02108818 -0.0168957
  0.         -0.02221107 -0.03167959 -0.03241315  0.         -0.03030125
  0.00476639  0.026423    0.09814836  0.01240241  0.         -0.00194967
 -0.01760222 -0.00728231  0.00580491 -0.02402276  0.         -0.03858383
 -0.03153436 -0.01761758  0.14155948  0.01143123  0.         -0.00919404
 -0.0176209   0.00601075 -0.02006301 -0.02027691 -0.00377627 -0.01725357
  0.          0.         -0.03250907 -0.02233345  0.          0.02135671
 -0.00223224  0.         -0.02469495 -0.03456673  0.00536984  0.1015204
 -0.02668985  0.         -0.02027423 -0.01236468  0.         -0.01725075
  0.         -0.02026299  0.         -0.04285386]
conv1d/kernel:0
(1, 5, 64)
[[[ 1.07599437e-01  9.21524167e-02 -8.96012858e-02 -2.89283078e-02
   -2.45797426e-01  9.10595432e-02 -7.72992373e-02  2.11129084e-01
    1.11369222e-01 -1.32524744e-01  1.93471789e-01 -2.89136857e-01
   -1.99968472e-01 -5.71922548e-02  5.02590835e-02 -1.68869980e-02
    2.73255080e-01  1.54712155e-01 -2.93620899e-02 -9.16562974e-02
    3.36184561e-01 -6.38990700e-02 -7.92460963e-02 -1.02235630e-01
    1.87756702e-01  1.59062266e-01  2.79822826e-01  1.80430919e-01
    2.65790522e-01  2.11781319e-02 -2.61406451e-01 -1.78207144e-01
    1.29861221e-01  1.28879011e-01 -2.10783646e-01 -2.34625250e-01
   -6.04766198e-02  6.38506114e-02 -2.41260260e-01 -3.78260948e-02
    1.26803443e-01  2.03930318e-01  2.58217275e-01 -1.21159144e-01
    2.05937281e-01  2.18863398e-01 -2.27452368e-01  4.37955484e-02
    5.15824258e-02 -1.77826062e-01 -2.50601560e-01  1.08855795e-02
    2.28027642e-01 -2.37416774e-01  6.53343648e-02  2.33640462e-01
    1.70769796e-01 -2.12045193e-01  9.88693908e-03 -1.09411113e-01
    2.97865719e-01 -2.28178397e-01  3.08350027e-02  1.49112239e-01]
  [-2.16069132e-01 -8.70348513e-02  2.12685332e-01 -2.51511395e-01
    2.08047032e-01  2.47534394e-01  7.72388205e-02  2.70630807e-01
    2.29306921e-01  1.83240443e-01 -1.25111535e-01  1.92664966e-01
    3.05489842e-02 -2.16820091e-01 -1.53280914e-01  2.54557729e-01
   -2.61558592e-01 -2.90794075e-01  2.99114913e-01  2.01208830e-01
   -2.41078064e-02 -7.88770244e-02 -2.84692943e-01  2.75090128e-01
    1.92064852e-01 -1.32947922e-01  2.47709140e-01  2.70869911e-01
    2.95969337e-01  7.13099400e-03  2.39752531e-01 -1.23245344e-01
    8.52907747e-02  1.42354444e-01  7.11009651e-02  2.58499861e-01
    1.87291563e-01  2.66781271e-01 -1.78201795e-01  1.59629881e-01
   -7.54543208e-03  7.68385604e-02 -1.22106797e-03  2.45813467e-02
    2.78100461e-01  4.16435674e-02  2.34708458e-01 -3.81994471e-02
   -1.03060693e-01 -7.50820264e-02 -2.11365759e-01 -1.53777227e-01
   -1.93946004e-01 -1.57920331e-01  1.48776695e-01 -1.08053768e-02
    1.90344244e-01  2.80301571e-02  9.39439237e-02 -6.07508346e-02
    2.05859676e-01  2.09673047e-01 -1.09260350e-01 -3.19358379e-01]
  [ 1.32321924e-01  1.01632386e-01  1.64778545e-01  1.48910731e-01
    2.76958221e-04 -1.93117753e-01  2.52960682e-01  1.81919098e-01
   -7.72433430e-02 -2.74056226e-01  2.99333036e-02  2.01425508e-01
    2.84084946e-01  2.21787140e-01 -3.77734005e-02  2.43700128e-02
    4.30937447e-02  1.02057770e-01 -5.61961979e-02  1.39806733e-01
    5.16491644e-02  2.30907112e-01  1.72267869e-01 -3.03760499e-01
   -2.50716619e-02 -2.41929293e-02  3.14457752e-02  1.38016194e-01
    3.73878400e-03  2.83788852e-02 -1.49355963e-01  1.30533546e-01
   -2.68798202e-01  1.79877821e-02  2.26928711e-01 -2.60947019e-01
   -8.91263932e-02  1.63679376e-01 -1.55916125e-01  2.11852670e-01
   -1.88222118e-02  2.57198125e-01  4.60298313e-03  2.74114132e-01
    1.14103965e-02  2.41486076e-02  7.98493698e-02 -1.25698373e-01
   -1.60258692e-02 -1.83735237e-01  8.98665711e-02  9.74815860e-02
    1.57582432e-01 -2.12068528e-01  3.12850997e-02  1.56514004e-01
    1.61141887e-01 -2.81109452e-01  2.48049125e-01  1.28024131e-01
    1.72793478e-01 -2.80282170e-01 -1.11619174e-01  6.99509382e-02]
  [-1.09278142e-01 -2.93984145e-01 -2.31844299e-02  2.48020500e-01
   -2.66369164e-01 -3.07656020e-01 -2.79475957e-01  2.57334560e-01
   -7.28516355e-02 -1.31808609e-01 -8.16453323e-02  9.26410928e-02
    2.41093695e-01  1.65387481e-01 -1.32822424e-01 -5.11205830e-02
   -1.34225309e-01  2.62406915e-01  8.27163607e-02 -1.19501986e-02
   -5.89976646e-02  1.62115440e-01  2.03037515e-01  1.67972371e-01
    1.47553980e-01  2.60159343e-01  1.57787651e-01  2.65187174e-01
   -1.59141216e-02  5.54566048e-02  4.56042886e-02  1.55638769e-01
   -1.94162041e-01  1.28667699e-02 -1.87181626e-02  1.73485175e-01
   -3.21589082e-01  2.16406867e-01 -1.57260373e-01  9.35581699e-02
    1.78179488e-01  3.80644836e-02  2.61114210e-01  1.09004667e-02
    8.23184475e-02  2.23431006e-01  2.25035444e-01 -2.24554911e-01
   -2.37242952e-01  1.66292548e-01 -3.51052061e-02  1.14968359e-01
   -2.55154163e-01 -1.43539295e-01 -2.09882304e-01 -5.10839932e-02
    1.67421680e-02  2.12026834e-02 -6.71537220e-02  7.22012371e-02
   -1.08360648e-01 -4.83967513e-02 -1.08616486e-01  8.27166513e-02]
  [-1.03167787e-01 -9.65792984e-02  6.01996146e-02 -2.87210286e-01
    1.17734887e-01  2.45148093e-02 -2.70100266e-01 -2.53032058e-01
    2.72901752e-03  5.12682721e-02 -1.77140772e-01  2.10767642e-01
    2.29583401e-02 -1.32293582e-01 -2.44176120e-01  2.01866895e-01
    1.44832104e-01  1.64462104e-01 -2.41360545e-01  3.60303670e-02
   -2.22431600e-01 -2.15151563e-01  9.15682465e-02 -8.42045844e-02
   -6.16956763e-02 -2.49637349e-04 -2.07753047e-01  5.19736391e-03
    1.16566435e-01 -5.80818392e-02 -1.35839745e-01  1.72111183e-01
    1.27851501e-01 -3.58553044e-02  2.43254736e-01  2.10833162e-01
    1.25369713e-01  5.74134625e-02 -3.54754031e-02  2.46545300e-01
    1.09549150e-01 -4.31178175e-02  1.72648922e-01  1.35450602e-01
   -2.88968533e-02 -1.71589881e-01  1.93615511e-01  1.85552508e-01
    1.83509365e-01 -1.07019179e-01  3.17720175e-02  2.01380625e-01
   -2.35505179e-01  1.50247604e-01  1.89922884e-01  2.09338725e-01
   -1.11255758e-01 -2.91996032e-01  2.73564637e-01  1.13974370e-01
   -1.53301969e-01 -1.89842045e-01  3.48399580e-02  2.23384023e-01]]]
conv1d/bias:0
(64,)
[ 0.          0.         -0.00406491 -0.01444344 -0.01848321  0.01207259
 -0.01342368 -0.04233666 -0.03196848 -0.0108488  -0.0116406  -0.01804567
 -0.04806086  0.06801986  0.         -0.04141274 -0.04402559 -0.05410577
  0.07031802 -0.03346995  0.12966442  0.06630187 -0.00671886 -0.01293842
 -0.03720142 -0.02648486 -0.02384019 -0.04231471 -0.03715523 -0.0148581
  0.          0.00445383 -0.00121265 -0.02184144 -0.02484677  0.03429282
  0.00484644 -0.08803311  0.         -0.00532193 -0.03290604 -0.02178224
 -0.03868955 -0.02975519 -0.03971006 -0.01625129 -0.02842368  0.13747407
  0.09683254 -0.02804214 -0.01329294 -0.01224226  0.         -0.02501787
  0.031181   -0.01964405 -0.01856034  0.         -0.05091179  0.00019965
 -0.02666971  0.          0.         -0.0504957 ]
conv1d_3/kernel:0
(1, 5, 64)
[[[ 0.24165773 -0.03646924 -0.06497034  0.09211545  0.19367957
   -0.29106125  0.15098335  0.13525923 -0.07470525  0.26677653
   -0.12737784  0.03807136 -0.27469254  0.21991287 -0.07659162
    0.0524113   0.09864439  0.2808504   0.0922097  -0.24467309
   -0.25836328 -0.01616357  0.1103079  -0.0872355   0.17321044
   -0.08128247  0.09790199 -0.12432626 -0.22807913  0.15196282
   -0.26664156 -0.24577734  0.12218113 -0.07814355  0.04975638
    0.14828402 -0.07731073 -0.11981543  0.2550666   0.17942068
   -0.14632817  0.15289234 -0.2900784  -0.00400706  0.0621797
    0.15167424  0.2930023   0.07930765 -0.26592842 -0.16205166
   -0.01604134  0.16923192 -0.09412619 -0.05497676  0.17705053
   -0.08694924  0.03416346 -0.08773135  0.19056574  0.18798618
   -0.08103425  0.12707585  0.18660864  0.06278311]
  [-0.15639934  0.1300078   0.06462919  0.12111422  0.1570157
    0.27595323  0.1163361  -0.21984154  0.1536506   0.2676234
   -0.00767766  0.11497593 -0.31704935  0.28466707 -0.04577206
   -0.24515495 -0.11114666  0.12363058 -0.2884447   0.27340847
   -0.14303659 -0.0289031   0.19159147 -0.06778064 -0.23475242
    0.25160068  0.1618027  -0.02943343  0.02223389 -0.06167031
   -0.19970706 -0.19707489 -0.09612728  0.02600853  0.14230302
   -0.23916192 -0.2923794  -0.27968925  0.00443681  0.2643633
    0.14709675  0.12339827  0.12644817  0.13668633 -0.0618465
    0.14322904 -0.2889617  -0.1299623  -0.1236259  -0.04095133
    0.2666583   0.19002336  0.21522939  0.17824803 -0.23617274
    0.23068549  0.11115888 -0.14547227 -0.23751661  0.15950453
    0.16488709 -0.00230771  0.20293902  0.2466485 ]
  [-0.02001107  0.20304427 -0.22791952 -0.01170553 -0.1182913
   -0.175291    0.22234295  0.07953352  0.25884    -0.03744717
    0.06083311 -0.16764116  0.09634939 -0.0177153  -0.03466469
   -0.05554324 -0.05545311 -0.24648483 -0.23266758 -0.19540408
    0.09593195  0.13729061 -0.2620316   0.13736004 -0.15932503
    0.05943704  0.12109567  0.06713171  0.0019886   0.0607724
   -0.29173332  0.05643672  0.07393815 -0.17636886  0.23802744
    0.20474237 -0.06623109  0.25344455 -0.1691309  -0.08362281
   -0.13725007  0.24223188  0.26732156 -0.18294075 -0.08014496
   -0.04926014  0.19382568  0.11131887 -0.158473    0.00181006
    0.28248078 -0.02374723  0.05259005  0.2271915  -0.19195995
   -0.06781966  0.08837359  0.00401539  0.04831199 -0.23394866
    0.12753616 -0.19455324 -0.00587918 -0.02023241]
  [-0.07088786 -0.18592244 -0.01364638 -0.11862443 -0.04277518
   -0.10413991  0.12248097  0.24393554  0.15060115 -0.19147041
    0.0219268   0.09668625 -0.02480198  0.21162654  0.24193016
   -0.1096454   0.11095183 -0.2796142  -0.01842243  0.18824062
    0.24666554  0.10211791 -0.1646429   0.23663001 -0.23290119
   -0.04649706  0.05923005  0.22322048  0.2224725   0.23064506
    0.2522717   0.19857088  0.11706936  0.22622664  0.11808177
   -0.15975074 -0.11773135 -0.21688594 -0.08199733  0.11218025
   -0.27329686  0.25138575 -0.2034571   0.02410011  0.17647086
    0.14017019 -0.23948893  0.2793618   0.04608942  0.191309
    0.21003675  0.15958178 -0.01474889 -0.143009   -0.05129638
   -0.2825992   0.1263813   0.07766984 -0.08727968 -0.05959671
   -0.09128583 -0.10961644  0.09539794 -0.09412582]
  [-0.09770052  0.1201726   0.21140972 -0.0933437   0.1978629
    0.05865943 -0.11598261  0.22295754  0.17777842  0.01792397
    0.25823125  0.20231198  0.1524791  -0.2123783  -0.05478653
    0.24395096 -0.19088158  0.23298687  0.25754833 -0.07492981
    0.25130996  0.07124849 -0.15419075 -0.00953483  0.14758757
   -0.10747766 -0.05340777  0.10184602  0.21066429 -0.08496186
   -0.04571474 -0.22926265  0.00610235  0.08481965 -0.15236996
   -0.21168508 -0.14191703  0.27063498 -0.15989915 -0.13819844
   -0.22553125 -0.26256144  0.26958483  0.24997626 -0.27710602
   -0.26375386  0.26477486 -0.06443959  0.12664789  0.16480158
    0.15057091 -0.11951354 -0.07714645  0.18534286 -0.06620437
    0.04719365  0.07300364 -0.06032598  0.2107275   0.06420607
   -0.22430737 -0.12906767 -0.27072623 -0.22726734]]]
conv1d_3/bias:0
(64,)
[ 0.00000000e+00 -8.20278510e-05  6.32672310e-02 -9.75584146e-03
 -3.40698063e-02  0.00000000e+00 -3.23422812e-02 -5.23595884e-02
 -2.88269185e-02 -2.21748594e-02 -3.12637985e-02 -1.23559525e-02
 -3.55463848e-02  1.54022221e-02 -7.88364839e-03 -1.85500812e-02
 -1.02406731e-02 -2.58686710e-02 -2.35064421e-02 -2.62924414e-02
  4.42293212e-02  1.62687246e-02  0.00000000e+00  9.19203274e-03
  0.00000000e+00 -9.73722711e-03 -3.19419354e-02 -3.24614793e-02
 -3.58324759e-02 -3.94468904e-02 -1.78978406e-02  0.00000000e+00
 -7.14755571e-03 -2.46664081e-02 -2.61059031e-02  0.00000000e+00
  0.00000000e+00 -3.18812057e-02 -1.45102036e-03  2.45089526e-03
  0.00000000e+00 -1.77723318e-02 -3.08601987e-02 -2.95210425e-02
 -2.69989390e-02 -1.60950385e-02 -2.75486391e-02  2.85101477e-02
  7.75038078e-02 -2.14004219e-02 -3.85417119e-02 -1.50258346e-02
 -2.01477781e-02 -2.30650697e-02  0.00000000e+00 -1.39777912e-02
 -4.84433547e-02 -9.31198895e-03 -5.92459179e-02 -9.02205706e-03
 -5.94996163e-05  0.00000000e+00 -1.99746899e-02 -1.77205610e-03]
conv1d_4/kernel:0
(3, 64, 64)
[[[-5.83912171e-02  7.24575073e-02  9.87664312e-02 ...  5.01228087e-02
   -2.70941705e-02 -6.69670478e-02]
  [ 8.73649120e-02 -2.23806314e-02  1.01088971e-01 ... -3.56636606e-02
    2.16418542e-02 -1.28034785e-01]
  [-2.87886299e-02 -4.98508289e-02 -6.90165907e-02 ...  1.84074286e-02
    1.01974368e-01  4.73768525e-02]
  ...
  [ 6.04924373e-02 -6.88446462e-02  9.20092836e-02 ...  3.82296704e-02
    1.02392763e-01  3.95343676e-02]
  [ 5.49034476e-02  8.73125494e-02  4.41809595e-02 ... -7.44771361e-02
   -8.29332173e-02 -1.13938630e-01]
  [ 1.12471968e-01  9.42003727e-03  2.25596428e-02 ... -8.30149055e-02
    4.16115224e-02 -3.22922766e-02]]

 [[-6.95170388e-02  3.67202684e-02  1.05330888e-02 ...  2.05680411e-02
   -1.25785708e-01  5.81163727e-02]
  [-4.67064269e-02  2.39258893e-02 -6.58172294e-02 ... -2.52865423e-02
    2.93065924e-02 -8.31303969e-02]
  [ 1.18675344e-01 -1.84159204e-02  9.81589779e-02 ...  4.90115657e-02
    3.63703929e-02  9.72858965e-02]
  ...
  [ 1.25000894e-01 -5.98234013e-02 -1.27718091e-01 ...  4.09036353e-02
    4.38910425e-02  1.23143487e-01]
  [ 4.87911403e-02  4.99874651e-02  1.20809585e-01 ...  7.40131736e-03
   -1.23122603e-01  6.22877181e-02]
  [-1.76213086e-02 -1.11877024e-02 -1.50083005e-02 ... -1.03159964e-01
   -1.05384737e-01  6.74877763e-02]]

 [[-5.14830500e-02 -4.36295941e-02  5.00730313e-02 ...  1.99756976e-02
   -4.21763211e-02  5.76011129e-02]
  [-2.33179163e-02 -4.62465845e-02 -1.13132417e-01 ...  1.13099590e-01
    2.66683102e-02  6.68648034e-02]
  [ 8.63784850e-02 -7.19378814e-02 -7.66696408e-02 ... -9.59096104e-02
   -6.56211600e-02 -7.57546946e-02]
  ...
  [ 1.13084897e-01 -1.01229616e-01  3.59330699e-02 ... -4.41344790e-02
   -3.96513641e-02  1.14310803e-02]
  [-1.12736881e-01 -1.02521122e-01 -5.88335991e-02 ... -6.02304935e-05
   -1.05934560e-01 -1.22377306e-01]
  [-2.11171210e-02 -1.14590466e-01 -1.04186982e-01 ... -4.89699244e-02
    1.20326757e-01 -5.31375408e-05]]]
conv1d_4/bias:0
(64,)
[-0.01184257  0.00472064 -0.01102016 -0.01328952 -0.01392396 -0.00620739
 -0.01585013  0.         -0.00685558 -0.00494426 -0.00164953 -0.00762225
 -0.02860283  0.          0.          0.         -0.01193349 -0.00952959
 -0.00702529 -0.0095226   0.         -0.00280539 -0.01863236 -0.00456871
 -0.02911421  0.         -0.00583042 -0.00657453 -0.02563447  0.
 -0.0095467  -0.00667857 -0.01725679  0.         -0.02548539 -0.00585945
 -0.00636362 -0.02076505 -0.01540034 -0.00024271 -0.00859651 -0.00898381
 -0.02033217  0.         -0.0170835  -0.00981371  0.          0.0442259
  0.04994006 -0.01989367 -0.00980342 -0.01248357 -0.02375357 -0.02112727
  0.00565268  0.02895897 -0.02676827  0.         -0.02483928 -0.00645382
 -0.04043503 -0.00810914 -0.00560332 -0.01324292]
conv1d_5/kernel:0
(5, 64, 64)
[[[-0.06554592 -0.03345848  0.08833091 ... -0.06982733  0.05196199
   -0.05745794]
  [-0.09283491  0.00713644 -0.01365375 ...  0.08794591 -0.01093841
   -0.09262891]
  [-0.00095504  0.03448111  0.05064519 ...  0.07185456 -0.04774761
   -0.00316545]
  ...
  [-0.04215478 -0.00652969 -0.06596887 ...  0.06337105  0.03673537
   -0.09592257]
  [-0.0133428  -0.00341959 -0.09117734 ...  0.07997064 -0.05747392
   -0.08308757]
  [ 0.0580998   0.00075351 -0.05806842 ... -0.00429013 -0.06902828
    0.05674163]]

 [[ 0.01866781  0.104169   -0.03530236 ...  0.02443651 -0.02849479
   -0.06075961]
  [ 0.02646565  0.08714031  0.07279867 ... -0.00873247 -0.07537865
   -0.05746878]
  [-0.03762268  0.03029981 -0.04262503 ... -0.00890373  0.04793839
    0.08981423]
  ...
  [ 0.01191964 -0.02138863  0.06466913 ... -0.0809093  -0.09469747
    0.06768002]
  [-0.04558653  0.02176864 -0.03275846 ... -0.08771992 -0.02442991
   -0.04998758]
  [ 0.00216091  0.08052059 -0.09047039 ... -0.08925787  0.02815062
   -0.05864964]]

 [[-0.02637771  0.15308492 -0.0242965  ... -0.08800073  0.04889506
    0.00603227]
  [-0.00925643  0.06698345 -0.09327574 ...  0.09237252 -0.04818016
    0.05283656]
  [-0.01361474  0.01596183 -0.01368842 ... -0.04930644 -0.03497534
   -0.05855032]
  ...
  [ 0.09354758  0.04163093 -0.03963068 ...  0.04948556 -0.05718211
    0.00897419]
  [-0.05255303 -0.08376656 -0.04362098 ...  0.06375523  0.00349139
   -0.02397534]
  [-0.0750253   0.02871283  0.07187518 ... -0.06034739 -0.0319855
    0.01418687]]

 [[ 0.04296723  0.05642152 -0.06138035 ...  0.04609685  0.02752955
    0.02601985]
  [ 0.02514537  0.07033837 -0.07009107 ...  0.08100528  0.02937794
    0.04719225]
  [-0.06312189  0.04564685 -0.07635556 ...  0.0278619   0.07747303
    0.02658021]
  ...
  [ 0.08098526  0.00523496 -0.0703511  ...  0.0871911  -0.04272432
    0.09664007]
  [ 0.01474926  0.02817486  0.059526   ... -0.09637656 -0.09565322
    0.07048346]
  [ 0.01063869  0.01921378 -0.01262216 ... -0.02408988 -0.05100773
    0.01196646]]

 [[-0.03190517  0.06302855  0.09484841 ... -0.00076016  0.04069935
   -0.06512477]
  [-0.07174511 -0.01129966  0.05456565 ... -0.08699755  0.04045567
   -0.00305048]
  [-0.02309224  0.05207136 -0.00496314 ...  0.04937185 -0.07396661
   -0.09245379]
  ...
  [ 0.09850743 -0.01874102 -0.0904094  ...  0.05583151 -0.05204276
   -0.06095083]
  [-0.0688598  -0.03420354  0.05142666 ... -0.03633489 -0.04337376
   -0.04089536]
  [-0.00264648  0.01697974 -0.04818971 ...  0.07181691 -0.04185557
   -0.00414248]]]
conv1d_5/bias:0
(64,)
[-0.00800109 -0.0001172   0.         -0.01374131 -0.00944452 -0.00727727
 -0.01584815 -0.01185864 -0.01246161 -0.00326538 -0.00774037 -0.0145984
 -0.00758586 -0.01110035 -0.0029942  -0.00937552 -0.01088226 -0.00989463
 -0.01471487 -0.01780673  0.03776256 -0.00415336 -0.01051297  0.00270543
 -0.00507193 -0.01639257 -0.01699405 -0.01479584 -0.00807719 -0.00923086
 -0.00599734 -0.01231063 -0.00488924 -0.01209597 -0.01144398 -0.01696916
  0.         -0.02221924 -0.00618153 -0.00629395 -0.00479525 -0.00736158
 -0.00953794  0.         -0.0083328  -0.00862112  0.         -0.01000556
  0.02885441 -0.00438119 -0.02035562 -0.02123382 -0.02074384  0.
 -0.00865014 -0.00575319 -0.01125897 -0.00897285 -0.00478295  0.00280964
 -0.02700946 -0.00491318 -0.00434667 -0.03346608]
lstm/lstm_cell/kernel:0
(64, 200)
[[-0.07833707 -0.02074056 -0.00280125 ...  0.02622146 -0.10150556
  -0.14465919]
 [ 0.05373616  0.05047178 -0.0577419  ... -0.00137178 -0.07923023
   0.05746377]
 [-0.09850087  0.07132813  0.13970044 ... -0.06452802 -0.02141828
  -0.09952896]
 ...
 [ 0.08603089  0.02386048 -0.09715823 ...  0.0807851   0.10055614
  -0.08948117]
 [ 0.05240516 -0.06620266  0.13985294 ... -0.00908742 -0.15626553
  -0.08713123]
 [ 0.0716467  -0.09595701  0.04128796 ... -0.0057123  -0.07198906
   0.15579405]]
lstm/lstm_cell/recurrent_kernel:0
(50, 200)
[[-7.70373968e-04  6.08386323e-02  9.54871997e-03 ...  1.00020640e-01
  -5.62526211e-02  5.82221746e-02]
 [-9.07357112e-02  2.26607174e-02 -4.92640510e-02 ... -3.48152705e-02
  -3.50416824e-02 -1.76263954e-02]
 [-5.23772202e-02 -9.45502818e-02 -3.53758633e-02 ...  3.35500203e-02
   5.27299661e-03 -8.92103091e-02]
 ...
 [ 6.94291890e-02  1.08287916e-01  4.29105237e-02 ...  1.13732137e-01
  -5.65726422e-02 -7.97281712e-02]
 [-3.97876501e-02 -2.24010670e-04  3.47559936e-02 ... -1.57790899e-03
  -1.19354196e-01 -4.89296168e-02]
 [ 1.21000364e-01  2.41244897e-01 -7.89038986e-02 ... -6.64353594e-02
  -2.62217782e-02 -8.64094198e-02]]
lstm/lstm_cell/bias:0
(200,)
[ 5.58388303e-04 -3.68512818e-03 -8.97727255e-03 -1.08750083e-03
 -1.81499217e-02 -6.74846442e-03 -4.89904452e-03  2.55445775e-04
 -4.55047376e-03 -1.57608055e-02 -1.84810115e-03 -1.22489333e-02
 -2.31006154e-04 -6.30158838e-03 -1.15707750e-02 -2.31712498e-03
 -2.53308075e-03 -1.15435924e-02 -2.70343572e-02 -5.31045394e-03
 -2.84823775e-02 -7.07658473e-03 -6.08652458e-03 -2.50281598e-02
  1.01817993e-03 -2.14478164e-03 -1.39911135e-04 -1.69528946e-02
 -8.92966171e-04 -1.02167539e-02 -6.91107707e-03 -3.87557456e-03
 -1.48966629e-02 -5.15551260e-03 -1.63560119e-02  3.12435324e-03
  2.12912983e-03 -7.74330040e-03 -1.17006330e-02 -6.36439491e-03
 -3.49333812e-03 -8.31073895e-03 -1.13973161e-02 -6.99865073e-03
 -1.43686950e-04 -1.86331868e-02 -4.85477690e-03 -1.78619474e-02
 -1.68694220e-02 -5.07474324e-05  9.98913109e-01  9.93929684e-01
  9.90840912e-01  9.96857226e-01  1.00677073e+00  9.84651625e-01
  9.87497926e-01  9.99003947e-01  9.90717828e-01  9.80491102e-01
  9.97472525e-01  9.96576190e-01  9.98570263e-01  9.89506423e-01
  9.90004659e-01  1.00185311e+00  1.00022650e+00  9.87520456e-01
  9.77475822e-01  9.93275940e-01  9.73996341e-01  9.93441105e-01
  1.00152695e+00  9.72094774e-01  9.96949136e-01  9.74562109e-01
  9.99439776e-01  9.90636945e-01  9.98283625e-01  9.88334715e-01
  9.90517735e-01  9.99204874e-01  9.83090639e-01  9.87984598e-01
  9.80926335e-01  1.00297475e+00  1.00186431e+00  9.94025648e-01
  9.77714419e-01  9.88919616e-01  1.00067210e+00  9.90391135e-01
  9.89304125e-01  9.85580027e-01  1.00640047e+00  9.82728660e-01
  9.79939342e-01  9.84448195e-01  9.96689439e-01  9.92283165e-01
 -1.82848088e-02  1.03387386e-02  1.75925624e-02 -1.98710468e-02
  2.77615227e-02 -2.44657211e-02 -5.61389700e-03 -6.30291551e-03
  1.11215310e-02 -3.54975782e-04 -4.06475067e-02  1.50293801e-02
  2.99381949e-02 -2.65595187e-02 -2.63995063e-02 -2.17089709e-02
 -2.93168444e-02  3.31953866e-04 -2.08081547e-02 -3.69967967e-02
  2.78064851e-02  2.90211849e-02 -2.49523241e-02 -1.76012032e-02
  3.18675749e-02 -1.38003817e-02 -2.45178081e-02 -1.38071235e-02
 -3.32028531e-02 -1.93910655e-02 -8.44968203e-03  3.32761295e-02
  3.90757658e-02  1.87709008e-03  1.69212781e-02  2.78753024e-02
  1.87382419e-02 -1.22080827e-02  1.03895199e-02  5.72636072e-03
  2.51987930e-02  2.96104643e-02  2.28236001e-02  1.36704547e-02
 -2.74021067e-02  1.89949591e-02  1.02721322e-02  1.89620741e-02
 -1.92590524e-02 -3.17411646e-02  5.89532865e-05 -3.96434125e-03
 -5.41825779e-03  7.58588139e-05 -1.90145951e-02 -5.13878604e-03
 -5.10307215e-03  5.57798194e-04 -3.64848203e-03 -1.58691294e-02
 -1.99072831e-03 -1.34531995e-02 -1.18253607e-04 -5.13895508e-03
 -1.09022893e-02 -1.08438195e-03  1.22004724e-03 -1.15592238e-02
 -2.31722202e-02 -4.55032708e-03 -2.86400449e-02 -6.50797179e-03
 -1.45728479e-03 -2.45502517e-02  1.10179442e-03 -3.93508980e-03
  3.33860196e-04 -1.81851629e-02  5.71043114e-04 -1.04561197e-02
 -6.34061545e-03 -1.91214483e-03 -1.34449340e-02 -5.32474415e-03
 -1.45596163e-02  4.01929254e-03  2.88435328e-03 -7.45171634e-03
 -1.31675005e-02 -6.21821731e-03  7.08813488e-04 -8.06270167e-03
 -1.12830428e-02 -1.02526452e-02  1.81536342e-03 -1.80847757e-02
 -6.44908147e-03 -1.79327130e-02 -1.60268918e-02  2.55717477e-03]
lstm_1/lstm_cell_1/kernel:0
(50, 240)
[[-1.09911542e-02 -1.46344006e-01  5.88139407e-02 ...  4.01610918e-02
  -4.28315736e-02 -4.49932888e-02]
 [ 2.77667306e-02 -9.02544489e-05  5.54286577e-02 ...  5.48104718e-02
  -1.09272271e-01  4.93443683e-02]
 [-9.17743817e-02  3.14942710e-02 -1.60843171e-02 ... -6.03583790e-02
  -3.61554101e-02 -5.18909320e-02]
 ...
 [ 1.01635605e-01 -5.80329299e-02 -9.56680328e-02 ... -1.21044666e-01
   2.41878014e-02  1.08688176e-01]
 [-9.70900757e-04  6.28004223e-03 -1.16690382e-01 ...  2.48794854e-02
   8.10485184e-02 -1.30888820e-01]
 [-1.19585536e-01  1.40706733e-01  1.11566391e-02 ...  3.27346139e-02
   1.02789029e-01 -2.35338206e-03]]
lstm_1/lstm_cell_1/recurrent_kernel:0
(60, 240)
[[-0.05930538 -0.04067543 -0.00754156 ...  0.03505702  0.10280726
  -0.04255114]
 [-0.07989667 -0.06359344 -0.01169356 ... -0.02133243 -0.04964265
   0.02658605]
 [ 0.1115502  -0.0341649  -0.05740446 ...  0.01845952 -0.08147138
   0.02242596]
 ...
 [ 0.08826307  0.17535868  0.08210486 ...  0.08876796 -0.00061458
  -0.0460476 ]
 [ 0.06211569  0.0297932  -0.04672652 ... -0.03708131  0.02698189
   0.01262069]
 [ 0.09832625  0.16103901 -0.06408597 ... -0.04569061  0.0520043
   0.15810701]]
lstm_1/lstm_cell_1/bias:0
(240,)
[-8.32222216e-03 -1.76145565e-02 -1.18203703e-02 -1.95332952e-02
  2.85974587e-03  4.91348747e-03 -1.44787580e-02 -6.36582449e-03
 -7.05909077e-03 -1.05612492e-03  7.45946728e-03 -1.06566548e-02
 -5.40793035e-03 -1.39868597e-03  4.59807413e-03 -3.69221531e-03
 -8.24672679e-05  1.64960530e-02 -3.37351958e-04 -8.18911474e-03
  4.32912167e-03 -9.37905349e-03  9.38374957e-04 -2.71204803e-02
 -1.44807445e-02 -9.61808115e-03 -4.27336525e-03 -1.65666745e-03
  2.85670254e-03 -9.28398222e-03 -7.18106283e-03  1.28980912e-02
 -5.07391617e-03 -4.56078956e-03 -1.33123519e-02 -2.23436803e-02
 -5.37239062e-03  8.97307787e-03 -5.90966409e-03 -5.08058537e-03
 -2.48165848e-03 -4.21355851e-03 -1.53899649e-02 -1.22981993e-02
  1.59559736e-03 -1.63507201e-02  1.27066346e-03 -1.08752353e-02
 -7.74228014e-04 -2.51263268e-02 -5.11412043e-03 -2.26761005e-03
  2.14637583e-03 -5.02396701e-03  3.45825858e-04 -1.07305311e-02
 -7.79125700e-03 -1.32408142e-02 -1.02991762e-03 -7.56850874e-04
  1.00667334e+00  9.87688243e-01  9.87960160e-01  9.87408757e-01
  9.88520741e-01  1.00920057e+00  9.85898793e-01  9.98457611e-01
  1.00691867e+00  9.84865546e-01  1.01126301e+00  9.96845841e-01
  1.00118876e+00  1.00920415e+00  1.00791228e+00  1.02115107e+00
  1.00314236e+00  1.03084898e+00  1.00103331e+00  9.82043445e-01
  1.00877881e+00  9.91568983e-01  9.96147573e-01  9.99488115e-01
  1.00002551e+00  9.81186211e-01  1.01708400e+00  9.99050975e-01
  1.00455642e+00  9.91127491e-01  9.99725640e-01  1.01049018e+00
  9.99140024e-01  9.84631717e-01  9.91039097e-01  9.96022582e-01
  9.98557031e-01  9.85454500e-01  9.93482590e-01  9.99802411e-01
  1.00266623e+00  9.98674870e-01  9.92311835e-01  9.88115847e-01
  1.00551009e+00  9.93846893e-01  1.00094903e+00  9.88310754e-01
  9.91855919e-01  1.01229608e+00  9.98580694e-01  1.00716639e+00
  1.00551593e+00  9.92421448e-01  1.00651455e+00  9.91410136e-01
  9.96560574e-01  9.84276414e-01  9.99490321e-01  1.00207198e+00
  4.64021973e-03 -1.33601320e-03 -6.48451736e-04 -4.77648014e-03
 -6.80403179e-03 -8.11523106e-03  3.89403314e-03  1.34771643e-02
 -6.18677353e-04 -2.97868368e-03 -4.36840905e-03 -7.73005304e-04
  5.90882963e-03  1.36421174e-02 -2.74234801e-03  7.97722663e-04
 -1.30398455e-03 -4.80620516e-03  1.71298208e-03  3.30409035e-03
  9.35311150e-03  2.81618745e-03  7.50884938e-04  1.80964975e-03
 -5.92755387e-03  4.52747848e-03  2.11698585e-03  6.95825694e-03
  5.60866995e-03  4.37343260e-03  1.86718162e-03 -5.69930486e-03
 -7.43460725e-04 -1.73367583e-03  6.71154121e-03  3.82991019e-03
 -1.18359574e-03  3.70764965e-03  4.47553908e-03  1.28486106e-04
  2.28082412e-03  3.32774268e-03  2.55038613e-03 -7.07172742e-03
 -5.24395192e-03 -1.58889219e-03 -4.69514355e-03  2.57435418e-03
 -1.79667387e-03  2.51656771e-03 -9.58032347e-03 -4.84120985e-03
  5.75731834e-03 -2.79436680e-03 -2.54239887e-03 -2.41667149e-03
 -2.58932286e-03 -9.55544645e-04 -4.58479859e-03  3.51931923e-03
 -9.31380317e-03 -1.86423510e-02 -1.20827584e-02 -1.95025764e-02
  2.16393219e-03  2.92050769e-03 -1.48645947e-02 -7.77850812e-03
 -7.10408948e-03 -2.67533911e-03  7.38489907e-03 -1.17972353e-02
 -5.90532552e-03 -2.72631133e-03  3.49796820e-03 -4.17455193e-03
 -7.10613793e-04  1.50596872e-02 -1.22662820e-03 -1.09389583e-02
  3.82705568e-03 -1.01298140e-02  3.05999740e-04 -2.88282204e-02
 -1.47536127e-02 -1.01616941e-02 -5.63990977e-03 -1.43203384e-03
  2.69735185e-03 -9.62370727e-03 -7.72490399e-03  1.18205594e-02
 -5.24518220e-03 -4.48301248e-03 -1.29036838e-02 -2.28887107e-02
 -6.12428691e-03  9.07900557e-03 -8.07792693e-03 -5.68180066e-03
 -2.13232404e-03 -4.82104300e-03 -1.84476990e-02 -1.26027195e-02
  1.66403595e-03 -1.76130850e-02  6.79910823e-04 -1.08043551e-02
 -1.47786702e-03 -2.72232872e-02 -6.91250898e-03 -2.09910306e-03
  1.50846306e-03 -5.18194446e-03 -2.07599252e-04 -1.10231973e-02
 -8.29814840e-03 -1.29153077e-02 -2.23755022e-03 -7.05312414e-04]
dense/kernel:0
(60, 20)
[[-0.01451881  0.18058704 -0.17572969 ...  0.2292525  -0.1291578
  -0.03286492]
 [-0.1439849   0.14166214 -0.1674391  ...  0.19289076 -0.18520597
   0.22626024]
 [ 0.04119314  0.05395753 -0.01489451 ... -0.10258717 -0.23140879
   0.0834543 ]
 ...
 [ 0.00160339 -0.17345636  0.20304339 ...  0.22780524  0.08862802
  -0.11235151]
 [ 0.24234639  0.05707847 -0.25368035 ...  0.19240764  0.16695198
  -0.04785575]
 [-0.22769725  0.00431935  0.04303499 ...  0.25891253 -0.1247022
   0.07095397]]
dense/bias:0
(20,)
[ 0.05812938  0.0552391  -0.05643752 -0.05564708 -0.05667333  0.05681868
 -0.05609775 -0.05965208 -0.07928446  0.05725427 -0.05573648  0.05662593
  0.06560019 -0.05658078  0.05651068  0.05355497 -0.05600701 -0.0574998
 -0.05814866  0.05558621]
dense_1/kernel:0
(20, 1)
[[ 0.07672641]
 [ 0.3213018 ]
 [-0.40090266]
 [-0.5175913 ]
 [-0.4709841 ]
 [ 0.18873315]
 [-0.38493046]
 [-0.0950994 ]
 [-0.09358103]
 [ 0.2690655 ]
 [-0.21697968]
 [ 0.29301393]
 [ 0.02542066]
 [-0.44915196]
 [ 0.4630414 ]
 [ 0.13646758]
 [-0.35246778]
 [-0.3155904 ]
 [-0.15622056]
 [ 0.23824923]]
dense_1/bias:0
(1,)
[0.0560311]
