conv1d_1/kernel:0
(1, 4, 64)
[[[-0.27060685 -0.06511455 -0.23449692 -0.25557214 -0.03633089
   -0.03886966 -0.2675863   0.09734954 -0.05530301  0.02443274
   -0.29495114  0.2571203   0.2616051  -0.11281549 -0.286025
   -0.1573125  -0.2251873  -0.06988412 -0.01717765  0.22643128
    0.04940207 -0.19194558 -0.28895086 -0.29141814  0.09584074
   -0.20003653 -0.0405825   0.20672864  0.13418436  0.1827171
    0.17362525  0.11717966 -0.28116822  0.2293072  -0.04458066
    0.2640354  -0.01898543 -0.09268293 -0.0402104   0.16594726
   -0.20603956 -0.04300174 -0.02043538  0.11266944  0.18926719
    0.25590402 -0.19476406 -0.30470195  0.23519193  0.2417087
   -0.1066595   0.10799059  0.21576099 -0.24709557 -0.12661998
   -0.2067056  -0.02093915  0.21150596  0.08598138 -0.17219055
   -0.25927413 -0.19565216 -0.25301388  0.18495598]
  [ 0.27222723 -0.01048101  0.04056813  0.05333358  0.05263089
    0.22155093  0.04572321 -0.02166239 -0.18597174 -0.03039915
   -0.10156886 -0.17589985  0.03785306 -0.06032877  0.0931434
    0.2650035  -0.3029799   0.1046564   0.2057013   0.03790009
    0.17711435 -0.07553869  0.20921338  0.1344778  -0.238047
    0.17803341 -0.13488704 -0.21773781 -0.17441124  0.20865579
   -0.12142054 -0.43578392  0.14448392 -0.26490435  0.15479605
   -0.0476173   0.2700059  -0.27681047  0.186399   -0.17893183
    0.19057122 -0.14864555 -0.08200132 -0.20687181  0.17906395
   -0.0906632  -0.04691061 -0.08912713  0.11697638  0.18232483
   -0.14987907  0.05970839  0.21528932  0.2708369   0.23912506
    0.13291669  0.20156002  0.18825275  0.28645125  0.07750855
   -0.14759025 -0.1158126  -0.1160065  -0.2559468 ]
  [-0.1223859   0.2599651  -0.01629178  0.24672404  0.21649575
   -0.16950926  0.01960259  0.20370089 -0.23636563  0.12558256
   -0.24920417  0.1410501   0.24629101 -0.23823228 -0.04023099
   -0.15408944  0.17823757 -0.26692984 -0.15168037 -0.16451073
    0.08705938  0.06828769 -0.22189376 -0.18518597  0.2169571
   -0.22767296  0.17131805 -0.11711533  0.19695702 -0.28585157
    0.2212147  -0.35064784 -0.22876084  0.22885124  0.08175082
    0.07101499 -0.22783476  0.05362564 -0.07868964 -0.16437688
    0.20803823 -0.20471033 -0.05374927 -0.268558   -0.19432433
   -0.11983939  0.04337624 -0.15190077 -0.01682047  0.03732177
    0.05476981  0.01864606  0.01110757 -0.00875574 -0.0116638
    0.0269402  -0.1219417  -0.20989078 -0.23703519  0.12238894
   -0.16571936 -0.2194042  -0.03987752 -0.1596446 ]
  [-0.03437144 -0.25165674  0.20740394 -0.02653796 -0.04025029
   -0.28609425  0.08767004  0.19078432  0.28125685  0.14472425
    0.2488381   0.07546949  0.12394702  0.00851836 -0.1856322
   -0.23751947  0.08608401 -0.04670808  0.07318771  0.15861969
    0.02849784  0.23211792 -0.1120006  -0.22863011 -0.11665686
   -0.11133459  0.00266944  0.15971018  0.08743385  0.28712046
    0.03998107  0.06508404 -0.11296079  0.08454736 -0.24894108
    0.03677627 -0.2214687  -0.0218806  -0.10939827 -0.00832373
   -0.08038305  0.15386537  0.00472145 -0.29182458  0.11352988
    0.14709854 -0.12890206  0.10656004  0.23871553 -0.18084408
   -0.255323    0.08854163 -0.0189196   0.22539191 -0.20085846
   -0.14245781  0.28949797 -0.26883683  0.23639393  0.19649385
    0.25673178 -0.15125555  0.12828733  0.26223767]]]
conv1d_1/bias:0
(64,)
[ 0.          0.06661262  0.03490227 -0.00258956 -0.01758494 -0.01124538
 -0.01269999 -0.04100237  0.00517344 -0.02515443 -0.030032   -0.01395748
 -0.0254144  -0.00598536  0.          0.         -0.02339278  0.
 -0.0180284  -0.03813579 -0.02451953 -0.01906947  0.          0.
 -0.00422714  0.          0.06401532 -0.01734935 -0.01381647  0.01960798
 -0.03372484  0.00049622  0.         -0.03394568 -0.01821836 -0.0159806
 -0.00811117  0.          0.00528887  0.         -0.03253098  0.0416778
 -0.01033887  0.         -0.05223061 -0.01052182  0.          0.00227544
 -0.01239837  0.00477277  0.         -0.03396258 -0.02185954  0.04690283
  0.03410276  0.         -0.04911667 -0.00797402 -0.0048783  -0.01206832
 -0.00310436  0.          0.0634993  -0.01383057]
conv1d_2/kernel:0
(1, 4, 64)
[[[-0.0305155  -0.00733605 -0.219792   -0.04832052 -0.27357772
    0.23978165  0.03526533  0.00128135 -0.02160958  0.17902714
   -0.05326368  0.22129674  0.03307697 -0.122233   -0.11384164
    0.06963544  0.29706445  0.12735933 -0.07913624  0.07626429
    0.06207266  0.08277787  0.25976434 -0.24005471 -0.09696732
   -0.11621631 -0.01258676 -0.15322982  0.05335523  0.11395043
    0.08184302  0.1354901  -0.29617742 -0.23489457  0.22605932
    0.15679175  0.18826698 -0.05213308  0.10805853  0.17862868
   -0.13583173 -0.21176212  0.182276    0.21441874 -0.22471385
    0.04615407 -0.22074464  0.11897869 -0.1755949   0.27733618
    0.2086665   0.10933803  0.23939842  0.01236221 -0.11736532
   -0.09085462 -0.02333199 -0.13885601 -0.05425598  0.188132
   -0.20681505 -0.10879415 -0.21498527 -0.07982195]
  [-0.00403124 -0.22037162 -0.1207298   0.14143106  0.22620791
    0.10312913 -0.26141912 -0.19351548 -0.31142157  0.27083752
    0.20365657  0.12015329 -0.06991054  0.2287485  -0.2171863
   -0.30089697 -0.1802696  -0.24418432 -0.17336027  0.06125182
    0.00088462 -0.04890526  0.0884883  -0.08630995 -0.07696765
    0.281745    0.14938633 -0.1975942   0.20610766 -0.02605394
    0.05824232 -0.24464811  0.00498927  0.08114904 -0.2843158
   -0.17811927 -0.19963048  0.11138937 -0.20772672 -0.20075852
   -0.28935915 -0.08041631  0.28092912  0.22614838  0.00312854
    0.05470255 -0.11919273  0.12175428 -0.1306977  -0.11131585
   -0.12426768 -0.15481493  0.14551571 -0.12196487  0.04232138
    0.21447325 -0.2947125  -0.09585004 -0.20483531  0.03706867
    0.06389583 -0.1334286  -0.28791547 -0.03494543]
  [ 0.04136106  0.04545242 -0.04419338 -0.1165223  -0.1522107
   -0.20331514 -0.15850285  0.05616102 -0.04155698  0.00354626
   -0.14247918 -0.25245866 -0.16676489 -0.1721251   0.2843427
    0.26646757 -0.23542391  0.26866233 -0.24351174  0.01918653
   -0.10362065 -0.04864654 -0.02353473 -0.1632004  -0.09836472
   -0.05215785  0.19942848 -0.05341764 -0.20106    -0.26868853
   -0.03603853  0.20862956 -0.2219624  -0.23531362  0.24838577
   -0.23776093  0.03700237  0.0369384   0.24574572  0.02293358
   -0.23928492  0.08683561 -0.26957667 -0.00415     0.20391122
    0.05926689  0.28832716 -0.07098348 -0.32468522  0.15361677
    0.02894437 -0.13847713  0.17901868 -0.15936942  0.14857222
    0.2942049  -0.21562733 -0.27681607 -0.1785605  -0.12564829
   -0.22682486 -0.10813932 -0.25639635  0.2238127 ]
  [-0.15973486 -0.15519935  0.14231767 -0.14206284 -0.06533098
   -0.1797281  -0.175476   -0.21808332  0.20250198 -0.27000865
    0.22380733 -0.1017557  -0.22711715 -0.14389746  0.05329163
   -0.03116397  0.2067554  -0.30018914  0.19864383  0.22909206
   -0.02764025 -0.0112015   0.11669949  0.23477708  0.147024
   -0.17394091 -0.06742395 -0.27574787  0.11166714 -0.14856611
    0.17015503 -0.20076162  0.08722285 -0.17032655  0.27907857
    0.14084078  0.09825779  0.03490658 -0.19314133  0.22648965
    0.17212416  0.07310829 -0.15878798  0.05532922 -0.01389688
   -0.05006832 -0.14052866  0.05296579  0.21260925 -0.23184672
   -0.16382651  0.10420362  0.20813665 -0.02084038 -0.07236061
   -0.2794848  -0.00048346 -0.14899656  0.04123306  0.04866769
    0.10417772  0.18549348 -0.16551256 -0.10806708]]]
conv1d_2/bias:0
(64,)
[-0.00870687  0.          0.04102093  0.          0.         -0.03914366
  0.          0.          0.00437714 -0.01882761 -0.02855544 -0.01907741
  0.          0.          0.07728652 -0.01627514 -0.00193956 -0.01408978
 -0.00418264 -0.03608839  0.         -0.00600238 -0.03441032  0.04776244
  0.02133315 -0.02149125 -0.01904475  0.         -0.0450326   0.
 -0.02871633 -0.02259475  0.04568809  0.         -0.04909624  0.01607118
  0.04410226 -0.01822911 -0.04328346 -0.03808293 -0.01927617  0.02516863
 -0.02688181 -0.04653887 -0.00578212 -0.0091925   0.         -0.04061955
  0.0116289  -0.01692222 -0.00854406  0.00998293 -0.02972115  0.
 -0.02269187 -0.01470889 -0.00176538  0.          0.1000137  -0.02984575
  0.01340986  0.01323148  0.         -0.04880069]
conv1d/kernel:0
(1, 4, 64)
[[[ 0.00636955 -0.03927436  0.07869066  0.14443259  0.10713398
    0.18726161  0.23235682 -0.02563592  0.20344752  0.01432359
    0.09964032  0.21260324  0.03907035 -0.05340107 -0.14535874
    0.05776662 -0.23043415  0.0487026  -0.23686226 -0.13062543
    0.00974354 -0.288479   -0.2051391   0.22285514  0.03180322
   -0.0610216   0.16802596  0.07854119  0.10446095 -0.10301935
    0.1274216   0.07125109 -0.244318    0.04597563  0.02426319
   -0.07052279 -0.18392222  0.11520802 -0.0649851  -0.11261944
    0.06935063 -0.2466653   0.23209855 -0.25805154 -0.07349265
    0.17101347  0.03432433  0.17894545 -0.30354577 -0.12477483
   -0.27132326  0.25654444  0.21131995  0.27006224  0.12222856
   -0.21315327 -0.27508253  0.22015667  0.14982186 -0.25478652
    0.04316938 -0.22419432  0.23523101 -0.2742427 ]
  [-0.1491318  -0.17189083  0.05362035  0.06712575  0.18974023
    0.11850327  0.05386518 -0.17258929 -0.22476038  0.21484637
    0.21123505 -0.25504193  0.27835122 -0.09458305  0.08830725
   -0.01255787  0.20745067  0.17134571 -0.06835751 -0.27679595
   -0.04496381  0.04858255 -0.01082751  0.13607717 -0.03819768
    0.01793283 -0.01135234 -0.2736775  -0.26553872 -0.2552911
   -0.07966404  0.16104475  0.13805503 -0.02412862  0.2852569
   -0.06428085  0.04501998 -0.02926259 -0.21552987 -0.17111385
    0.01903349 -0.02855724  0.04216783  0.02712275  0.12576562
   -0.01060995  0.2029298  -0.1647564  -0.15329106 -0.2579923
    0.12606719  0.03465493  0.08259409 -0.31203142  0.03854401
    0.10592493 -0.28662816  0.1481426   0.01980092  0.20440644
    0.04240457  0.16522527 -0.01340257 -0.20815957]
  [ 0.09594028 -0.18258812  0.00196467  0.15782994  0.1297114
   -0.15585102  0.15263884  0.19831812  0.24176262 -0.2507578
    0.2914217  -0.267771    0.13421251 -0.01848036 -0.17653738
    0.13120367  0.07124876 -0.21192041 -0.2966671  -0.25953102
   -0.27583554  0.00650993 -0.27057    -0.27659792  0.09141326
   -0.09169257  0.03808409  0.04114196  0.21335879 -0.05433197
   -0.05245385 -0.02467754 -0.11371113 -0.07123786  0.2765117
   -0.12951098  0.09332191 -0.04581431  0.06515661 -0.30934632
    0.21530877 -0.00905802  0.25785506  0.20226175  0.10059406
   -0.08367684  0.04705094 -0.0263921  -0.28563517  0.15117127
    0.26452816  0.02967851 -0.14699072 -0.16954528 -0.30622017
   -0.25196898 -0.20969337 -0.08546367  0.00290204 -0.08643815
    0.1860606   0.12188638 -0.14629488 -0.03608996]
  [ 0.05536653 -0.28673884  0.0259778  -0.01375994 -0.12232962
    0.09281665 -0.27732852  0.27230752  0.0272642  -0.04735084
    0.29212028  0.15599464 -0.20106904 -0.18507633  0.150651
   -0.13129635  0.07043298 -0.20794128  0.0029487  -0.07309954
   -0.10050374 -0.21486033 -0.00375557  0.05595952 -0.14337933
   -0.01379478 -0.300168   -0.23786381  0.10362782  0.21377017
   -0.02862681  0.16574112 -0.19995792 -0.02008054  0.0667629
   -0.05735138  0.20466216  0.18293522 -0.13175552  0.20662636
   -0.18838723  0.23846444 -0.14279619  0.01386213  0.07805993
   -0.01914932 -0.03014234 -0.27541432  0.04967669  0.24612059
    0.29014266  0.23224695  0.26938146  0.04693581  0.27654454
   -0.20858002  0.21235773 -0.07193597 -0.04401774 -0.15913019
    0.12011342  0.15680815  0.20862041  0.18709785]]]
conv1d/bias:0
(64,)
[ 0.05054612  0.          0.01488371 -0.03366929 -0.03659035 -0.03534926
 -0.02184048 -0.02968277 -0.02970855  0.         -0.0275346  -0.02287317
 -0.02418686  0.         -0.00184809  0.00475947 -0.03452146  0.
  0.          0.          0.          0.          0.         -0.02850966
 -0.00115408  0.          0.00283031  0.         -0.0458904   0.03519991
 -0.00602208  0.00244156  0.          0.         -0.01985196  0.
 -0.01052075 -0.022589    0.          0.0121705  -0.02050653 -0.00437192
 -0.02002375 -0.01424238 -0.03017033 -0.00509783  0.0054941   0.
 -0.01630893 -0.03124834 -0.04296383 -0.03246658 -0.04351637 -0.02226625
 -0.00424199  0.          0.0563747  -0.02078254 -0.02450293  0.
 -0.03776164 -0.02044248  0.001855   -0.02761923]
conv1d_3/kernel:0
(1, 4, 64)
[[[ 0.28261453  0.22663467  0.20050529  0.17742252 -0.02559475
   -0.27087456  0.09488176 -0.19503722 -0.07642877  0.03390214
   -0.04866244 -0.14144531  0.20530865  0.05634219 -0.1985917
    0.22234996  0.09203651  0.04718977 -0.00481043 -0.16720656
    0.1810045  -0.2545138  -0.07706647 -0.022342    0.1807646
   -0.02205595  0.2348062  -0.11010982 -0.18875256 -0.05376597
    0.14443272 -0.10283786 -0.01375994 -0.1565663   0.05576259
    0.22732961  0.20503323 -0.26886934 -0.08874345 -0.02594236
    0.00926673  0.10808066 -0.16359282 -0.24934393 -0.2005488
   -0.05901223 -0.00748128 -0.09569855 -0.18557802  0.28282267
   -0.19110155 -0.17584306 -0.05761483  0.09945916  0.09800807
   -0.12791029  0.11635087  0.2766204   0.18893734 -0.10334536
    0.26850823 -0.12889308 -0.2559234  -0.22404933]
  [-0.27460536  0.03467147  0.12438095  0.00956494  0.09339278
    0.1949067   0.28959572  0.24536318 -0.02368526 -0.30630648
   -0.20837349  0.1811877   0.20125641 -0.2549546  -0.25654238
   -0.26335415  0.07329617  0.21857898  0.01561636  0.12383104
   -0.04133167 -0.09315275 -0.10009156  0.13211253  0.20431736
   -0.11455701 -0.03285763 -0.20076081  0.0836046  -0.15993328
   -0.27230808 -0.06131721  0.06868315  0.05650543 -0.30435908
   -0.12922883  0.00203117  0.24742629  0.10333529  0.08111694
    0.05093696 -0.1867671   0.2594887  -0.20052364 -0.13235608
    0.13873573  0.12286524  0.16471556 -0.25531095 -0.02378977
   -0.23968591  0.15306807 -0.07751639 -0.03279038  0.2551019
    0.18913339  0.2826026  -0.0793068   0.27877927 -0.06671843
    0.1912871   0.15219896 -0.22641367  0.23964147]
  [ 0.103172    0.17631577 -0.2965484  -0.11520609  0.22542584
    0.26016325 -0.22630532 -0.13874198 -0.25651905 -0.00513714
   -0.16783145 -0.00883054  0.05111535  0.1373522  -0.10766924
    0.07797226 -0.11687226  0.01421494  0.17471795  0.15818065
    0.13713484  0.05419901 -0.01035309  0.2757109  -0.00242495
    0.17692357  0.20421666  0.06063691  0.04271206 -0.00262042
    0.12301601 -0.13614605 -0.23799829  0.06290314  0.10411722
   -0.10052224 -0.04243184  0.1567939  -0.17607641  0.12731165
    0.24977338 -0.2878525  -0.296142   -0.24620862  0.10701723
    0.1046219   0.13217998 -0.07130514 -0.15702164 -0.14723268
   -0.28181863 -0.16949652  0.23959596 -0.27018946  0.1881606
   -0.02844327 -0.10805834  0.27715832  0.27459368  0.16418806
   -0.10570165  0.09005     0.13071948  0.2640782 ]
  [ 0.21091248 -0.191527   -0.17692599 -0.27828714 -0.2278774
   -0.2681462  -0.27485636 -0.06331372  0.02918489  0.10981809
   -0.09441237  0.08391488 -0.23566835  0.15906987  0.18989623
   -0.08140881  0.00873451  0.06617574 -0.0554181   0.17553838
   -0.22841987 -0.22697984  0.17804123 -0.01610017  0.17129122
   -0.22988527 -0.04463905 -0.135795    0.15170598  0.07688607
    0.09133597 -0.2140585  -0.22982153  0.18693855  0.06557997
   -0.16317973  0.10380088  0.01727204 -0.25231984  0.16179077
   -0.01635913 -0.1091172  -0.29645965 -0.03765059  0.2936945
    0.1639103  -0.0123166  -0.1796858  -0.07766032  0.01919335
    0.21871512 -0.08342968  0.08951025  0.18926534 -0.02140018
    0.05425718  0.11621732  0.25916627 -0.01049194 -0.2960584
    0.21868719 -0.04934015  0.18859552 -0.25883162]]]
conv1d_3/bias:0
(64,)
[ 2.9539755e-03  1.4381684e-04  0.0000000e+00  0.0000000e+00
 -2.8406085e-02 -2.4221335e-02 -1.9505834e-02  0.0000000e+00
 -6.4260643e-03 -1.9970043e-02  0.0000000e+00 -2.5739009e-02
 -3.5532080e-02  4.3590441e-02  2.4874868e-02 -7.3797363e-03
 -2.1840116e-02 -2.3902670e-02 -2.8358398e-02 -1.5608199e-03
 -2.2811498e-03  0.0000000e+00  2.8814865e-02 -3.2675225e-02
 -2.3217082e-02  0.0000000e+00  1.0532765e-02  0.0000000e+00
 -2.3935312e-02  3.0470375e-02  2.0098794e-02  0.0000000e+00
  0.0000000e+00  3.2223374e-02 -1.7456535e-02  0.0000000e+00
 -1.0522118e-02 -2.0514758e-02  0.0000000e+00  1.6829398e-02
 -2.6753101e-02  0.0000000e+00  0.0000000e+00  0.0000000e+00
  4.6681929e-03 -1.6455775e-02 -9.1725815e-05  0.0000000e+00
  0.0000000e+00 -2.8952831e-02 -2.7074439e-02  0.0000000e+00
 -3.2061677e-02 -1.3048270e-02 -9.7133545e-03 -2.0868350e-02
  2.4226787e-02 -1.9583015e-02 -2.3975270e-02  0.0000000e+00
 -3.9502148e-02 -1.7026881e-02 -1.8666832e-02 -2.2486727e-04]
conv1d_4/kernel:0
(3, 64, 64)
[[[ 0.11965305  0.11761683  0.07201415 ... -0.04869601  0.06729653
   -0.09044915]
  [ 0.10309765 -0.01238971 -0.12285244 ...  0.07944024 -0.11448348
   -0.06634938]
  [-0.10082472  0.07038572 -0.04524349 ... -0.06082192  0.07730004
   -0.04337307]
  ...
  [ 0.08586547 -0.00169146 -0.11788425 ...  0.10774446  0.05267897
    0.11518779]
  [ 0.08889139  0.05577869  0.04564345 ...  0.00064333 -0.02381679
   -0.06047053]
  [-0.10627365 -0.11629338  0.04515732 ...  0.10333555  0.11896589
    0.09665491]]

 [[-0.03762409 -0.0267556   0.05026138 ...  0.00035396  0.04033437
   -0.07447261]
  [-0.09422573  0.13398974  0.10679619 ... -0.15605502 -0.11873877
   -0.00389143]
  [-0.00975264 -0.10771472  0.08566527 ... -0.00174282  0.06992355
   -0.1483769 ]
  ...
  [ 0.04765242  0.05503914  0.09405288 ...  0.08027089 -0.1100246
   -0.10858506]
  [ 0.10113593 -0.06586614 -0.00240802 ...  0.0715748   0.12175798
   -0.11102142]
  [ 0.01029164 -0.07369918 -0.04345554 ... -0.04097766 -0.0483155
    0.07590178]]

 [[-0.07787374  0.00258487 -0.11467448 ...  0.00166386  0.00551429
   -0.09048399]
  [-0.03513282  0.16876218 -0.07480687 ... -0.14314386  0.03316101
    0.04849267]
  [ 0.04182928 -0.13197328 -0.06852287 ...  0.08201742  0.0596247
   -0.13187082]
  ...
  [ 0.09474966  0.01646739  0.10731104 ...  0.10305145 -0.02455825
    0.01949176]
  [ 0.01456439 -0.14261061  0.09906878 ...  0.06530003  0.01286024
   -0.19176607]
  [ 0.05664341  0.06147487 -0.10508065 ... -0.0079823  -0.06468028
   -0.05749274]]]
conv1d_4/bias:0
(64,)
[-0.01109392  0.04557528 -0.01299665 -0.01380805 -0.0097874  -0.00779795
 -0.00631317 -0.01258011 -0.01094653 -0.01466796 -0.01745588 -0.00939799
 -0.01704118  0.0258894  -0.00334142 -0.01698743 -0.0109796  -0.01440177
 -0.02572988  0.07594318 -0.00408869  0.          0.01041079 -0.01097759
  0.         -0.01651781  0.07620433 -0.00623512 -0.02032918 -0.00012829
 -0.00990785  0.04713936  0.         -0.01992382 -0.0093609   0.09327424
 -0.01443177  0.         -0.00988812  0.02611311 -0.00879198 -0.00476315
 -0.01222366 -0.00317146  0.         -0.01018958  0.         -0.01100743
 -0.01016742  0.         -0.00918013 -0.01617487  0.         -0.01369647
 -0.01008814 -0.01134785  0.00389439 -0.0048613  -0.00502812 -0.01439174
  0.         -0.01578779  0.         -0.01115963]
conv1d_5/kernel:0
(5, 64, 64)
[[[ 0.04335149 -0.05202548  0.00346561 ...  0.0659951   0.02519818
   -0.03973822]
  [ 0.09600018  0.01668125  0.08011809 ... -0.00385664 -0.0239659
    0.08690898]
  [-0.0824643   0.03682154 -0.04248344 ... -0.09542782  0.00920047
   -0.02706919]
  ...
  [-0.00374649  0.08155733 -0.12372929 ...  0.04393753  0.02777986
   -0.10499585]
  [-0.08075453 -0.02439955 -0.00339478 ...  0.00774007 -0.08683393
   -0.04743668]
  [ 0.00672583 -0.05726687  0.0736597  ...  0.03994636  0.01814917
   -0.00909284]]

 [[ 0.03982492 -0.03229544 -0.02015318 ...  0.07855636 -0.01754911
    0.06139681]
  [-0.05214577 -0.09488337  0.029285   ...  0.0776246  -0.04960548
    0.01064704]
  [-0.03471323  0.01439325 -0.0619866  ...  0.08643399 -0.09765343
    0.00965165]
  ...
  [-0.07491983 -0.04248128 -0.03967575 ...  0.01613746 -0.05036006
    0.05821668]
  [ 0.05080898 -0.0930301   0.04498744 ...  0.03119825 -0.09341836
    0.08059174]
  [-0.00434714 -0.06807846  0.04142889 ... -0.04100178  0.02254345
    0.04956578]]

 [[-0.04719653  0.07360217 -0.06595027 ...  0.03687236  0.0821017
    0.05292939]
  [-0.02279027  0.00516707  0.00122539 ... -0.07720391  0.09545061
   -0.09472623]
  [-0.06117622  0.09351743 -0.08267345 ...  0.08845834  0.03260168
    0.04121633]
  ...
  [ 0.08291177  0.07325099 -0.06161179 ... -0.01695926  0.0560286
    0.0863295 ]
  [-0.02083706  0.00073186 -0.03499831 ... -0.06306991 -0.05526965
   -0.09134802]
  [-0.00226402  0.03104059  0.09974823 ...  0.09203495 -0.07618487
   -0.06289531]]

 [[-0.07982735  0.06113191 -0.09270868 ...  0.03150593 -0.04974075
    0.03856459]
  [-0.04287652 -0.01694333 -0.05520395 ... -0.00433911  0.02162106
    0.03328419]
  [-0.04260565 -0.00253432 -0.01528493 ...  0.03948668  0.04263658
   -0.00949678]
  ...
  [-0.01723092 -0.02961388 -0.04736619 ... -0.01807118  0.00156134
   -0.0660503 ]
  [-0.08131775  0.08877665  0.08955024 ...  0.04979068 -0.08084773
   -0.06130101]
  [ 0.05092881  0.04677939  0.03424713 ... -0.08802231 -0.0305305
    0.07316942]]

 [[ 0.08187517  0.06895979 -0.06949843 ...  0.06230187 -0.05330262
   -0.0284246 ]
  [-0.07232021  0.03084978  0.00596338 ...  0.09515546  0.07125847
    0.07225807]
  [-0.09438243 -0.07048123  0.0608741  ...  0.02945186 -0.05118082
   -0.05732321]
  ...
  [-0.09126889 -0.0102856   0.03281682 ... -0.00988236  0.01096247
   -0.02466166]
  [-0.01947889 -0.00022351 -0.05045633 ... -0.04919785 -0.0757601
    0.07823446]
  [-0.06116565  0.07675391  0.0900695  ...  0.06239112  0.02801567
    0.07497557]]]
conv1d_5/bias:0
(64,)
[-0.00384462 -0.01001419 -0.00975903 -0.01132075 -0.0106127  -0.01040243
 -0.01414627 -0.00848083 -0.00591918 -0.02008902 -0.00940065 -0.01278119
 -0.0114787  -0.00596246 -0.00879448 -0.01920854 -0.01041416 -0.01204789
 -0.01112865  0.         -0.00855346 -0.01236342 -0.00881304  0.
 -0.00399485 -0.01176441 -0.00499406 -0.00501152 -0.02112598 -0.00344626
 -0.00726072 -0.00955124  0.05057175 -0.00578064 -0.00497586  0.07574932
 -0.00423099 -0.01361248  0.          0.02356732 -0.0238852  -0.02428618
 -0.00793622 -0.00138677  0.         -0.01353724 -0.02057184 -0.00643739
 -0.01131756 -0.01763196 -0.00849681 -0.00768784 -0.0198741   0.
 -0.00458309 -0.01542294 -0.00730818 -0.00711981 -0.00921055 -0.01473434
 -0.01012509  0.         -0.01513486 -0.01296414]
lstm/lstm_cell/kernel:0
(64, 200)
[[-0.02812066 -0.12776555 -0.08078375 ... -0.17815073 -0.09620572
   0.09932575]
 [-0.09808057 -0.1680472   0.0006437  ... -0.10321684 -0.12327366
   0.13884042]
 [ 0.07271363  0.018678   -0.06096301 ... -0.0628015   0.15153334
  -0.0672431 ]
 ...
 [ 0.05838204  0.07151259  0.02469204 ... -0.09096619  0.02698195
  -0.08901456]
 [-0.11277949 -0.12865992 -0.11401076 ... -0.05110496  0.10874061
   0.03774218]
 [-0.07172248  0.07569907  0.09269905 ...  0.13793744  0.11458597
  -0.0047864 ]]
lstm/lstm_cell/recurrent_kernel:0
(50, 200)
[[-0.01649859  0.11680453 -0.00612581 ... -0.02080751 -0.0758547
   0.06590318]
 [ 0.05529954  0.07378957  0.13888614 ... -0.05813598  0.13046718
  -0.02025026]
 [-0.01726539  0.0094108  -0.148121   ...  0.05396871 -0.0337198
   0.08031866]
 ...
 [ 0.01226293  0.07157063  0.00834566 ...  0.02007851  0.05825531
  -0.09583537]
 [ 0.00235416  0.10507722  0.16041408 ... -0.05374292 -0.14536285
  -0.03531879]
 [ 0.16921037  0.04239036 -0.06336228 ... -0.04815057  0.00195801
   0.0637095 ]]
lstm/lstm_cell/bias:0
(200,)
[-1.01667326e-02 -1.46335540e-02 -2.27892585e-03 -3.86697426e-03
 -6.53171074e-03 -6.51828619e-03  1.60029822e-03 -1.78308098e-03
 -7.13991118e-04 -1.22630661e-02 -8.53055902e-03 -1.56240154e-03
 -1.80485677e-02 -1.11316610e-02 -3.47595243e-03 -2.29033250e-02
 -6.72116829e-03  1.65148976e-03  4.02139965e-03  2.32890178e-03
 -3.32763512e-03 -6.81726774e-03 -3.63289332e-03 -5.83452964e-03
  1.46364467e-03 -4.71340790e-02 -6.42541330e-03 -1.56976413e-02
 -1.85001176e-02 -1.20950611e-02 -2.10357830e-02  2.89544277e-03
 -1.19639151e-02  3.16687673e-03  9.00942180e-03  1.26151612e-03
 -2.03346694e-03 -1.01269353e-02 -1.35438191e-02 -1.48620617e-04
 -2.77483091e-03 -9.31942184e-03 -1.09371021e-02 -1.09260874e-02
 -1.09594129e-02  2.56526051e-03 -1.54689448e-02 -7.92334508e-03
 -5.79694565e-03  1.03666726e-03  9.79123950e-01  9.85512316e-01
  9.99798119e-01  1.00010204e+00  9.83286262e-01  9.87426043e-01
  1.00156021e+00  9.98059511e-01  9.78832364e-01  9.82825577e-01
  9.91017938e-01  9.93422151e-01  9.86142576e-01  9.87146437e-01
  9.91536379e-01  9.78794813e-01  9.96274710e-01  1.00120091e+00
  1.00978434e+00  1.00021052e+00  9.99883294e-01  1.00104558e+00
  1.00126672e+00  9.87783015e-01  1.00149083e+00  9.57680762e-01
  1.00514650e+00  9.81397748e-01  9.78200972e-01  9.84664023e-01
  9.71216559e-01  1.00411367e+00  9.84668970e-01  1.00412762e+00
  1.00702143e+00  9.98990774e-01  9.98250902e-01  9.89835560e-01
  9.86998618e-01  1.00197399e+00  9.88413990e-01  1.00308394e+00
  9.98299718e-01  9.88138080e-01  9.80464518e-01  1.00316489e+00
  9.82470691e-01  9.89771485e-01  9.99233484e-01  9.93450284e-01
 -2.10444219e-02 -1.07257413e-02 -1.94850210e-02  2.37615537e-02
  1.70430057e-02 -2.62768101e-02 -2.85044387e-02 -1.27355661e-02
  1.65886469e-02 -2.49512214e-02  3.06738000e-02  1.32646959e-03
  5.82354842e-03  2.31722612e-02 -1.46264362e-03  3.01674567e-02
 -3.59455422e-02  1.45836323e-02 -1.82525516e-02 -2.32293345e-02
 -2.55301930e-02 -1.88113675e-02 -2.60038543e-02 -1.44888693e-02
 -2.53118444e-02  2.01090388e-02 -2.87966430e-02  1.41498270e-02
 -1.50071364e-02 -2.17457674e-03 -1.58184010e-03  1.61381830e-02
  9.84685682e-03  2.33432762e-02  2.18225047e-02  1.78195760e-02
  3.73160653e-02  1.82464588e-02 -1.66734296e-03  2.07168125e-02
  3.71560268e-02  1.66115593e-02  1.16446232e-02 -6.31040242e-03
 -1.56080499e-02  1.79264247e-02 -4.72407462e-03  1.04322415e-02
  2.93078423e-02  1.07301436e-02 -1.00300657e-02 -1.55429179e-02
 -8.99895385e-04 -2.85468181e-03 -6.37234049e-03 -7.88663235e-03
  3.85300419e-03 -4.55056026e-04 -1.05579337e-03 -1.23388804e-02
 -7.73523608e-03 -1.93379191e-03 -1.74784791e-02 -1.10356817e-02
 -2.17447430e-03 -2.22136434e-02 -5.94192604e-03  7.66778772e-04
  6.25884067e-03  2.16992549e-03 -3.99653893e-03 -6.08359510e-03
 -2.52663798e-04 -8.65447521e-03  1.39882916e-03 -4.56487052e-02
 -3.82129918e-03 -1.48281408e-02 -1.93054061e-02 -1.23717198e-02
 -2.16371417e-02  2.30727647e-03 -1.16139334e-02  3.53734032e-03
  9.27922502e-03  1.04921055e-03 -3.00126150e-03 -1.02115385e-02
 -1.36080692e-02  1.01257954e-03 -8.03410076e-03 -7.34592648e-03
 -9.33781452e-03 -1.08355060e-02 -1.10869789e-02  2.65127816e-03
 -1.58226155e-02 -7.41916196e-03 -4.44821920e-03  7.76179601e-04]
lstm_1/lstm_cell_1/kernel:0
(50, 240)
[[ 0.14194493  0.05347445  0.12034404 ... -0.02091472 -0.05395589
  -0.00766432]
 [ 0.13133709  0.10144059  0.0373653  ...  0.06797665  0.11992009
   0.07911848]
 [-0.02669419 -0.04837879 -0.13725413 ... -0.09155533  0.08446768
   0.0107029 ]
 ...
 [ 0.05586089  0.05383616 -0.02188803 ...  0.13891153 -0.00932505
   0.15972668]
 [ 0.06838822  0.07023272  0.01477511 ... -0.08967467 -0.02391348
  -0.03422826]
 [ 0.09506006  0.08050986  0.02153312 ...  0.05157121 -0.05063238
   0.01761846]]
lstm_1/lstm_cell_1/recurrent_kernel:0
(60, 240)
[[ 0.05925867 -0.01986022  0.06967502 ... -0.00140907  0.01991308
   0.00812332]
 [ 0.01515865 -0.11127446  0.07715769 ... -0.0806589  -0.00629774
   0.07044967]
 [ 0.05265243  0.14369951  0.06355468 ... -0.055464    0.0173231
  -0.02931971]
 ...
 [ 0.04891292  0.17200054 -0.01356623 ... -0.09274092 -0.00795742
  -0.05872668]
 [ 0.07091157 -0.02880123  0.01014385 ... -0.06850874  0.00361967
  -0.04389676]
 [ 0.03752465  0.18562281 -0.05308758 ...  0.06963333  0.00820183
  -0.01982353]]
lstm_1/lstm_cell_1/bias:0
(240,)
[-2.57393578e-04  2.83209083e-04 -1.53420065e-02 -2.09424587e-04
 -1.70366163e-03 -3.59077752e-03 -6.21622056e-03  1.64661207e-03
 -1.45690134e-02 -1.43960956e-02 -1.38466647e-02  5.44653786e-03
  3.07923206e-03 -1.43488236e-02 -5.04010264e-03 -1.49731117e-03
 -2.70364271e-03 -3.44208279e-03 -8.41908506e-04  6.36058580e-03
  4.28051921e-04 -1.43373478e-02  2.23072339e-03 -1.18981777e-02
  1.33137964e-03  3.74285714e-03 -4.82453126e-03  2.23133788e-02
 -9.42298770e-03 -2.72071720e-05  1.84978277e-03 -7.13809533e-03
  3.20529309e-03 -5.20066777e-03 -4.86136926e-03  1.55722699e-03
  1.04391552e-03 -1.43003429e-03 -2.89041083e-03 -8.00610986e-03
 -1.13057103e-02 -2.30091158e-03 -3.66453710e-03 -7.79395865e-04
  2.67753843e-03  1.04383025e-02 -3.52591812e-03 -8.58454686e-03
  4.90128202e-03 -4.26992029e-03 -5.96495951e-03 -1.30565949e-02
  7.55271176e-03 -4.18018270e-03 -4.91425116e-03  4.85210260e-03
 -9.89654940e-03  2.04076106e-03 -8.33291747e-03 -3.42821074e-03
  1.00115573e+00  1.00156450e+00  9.86124277e-01  1.00433910e+00
  9.99774754e-01  1.00035667e+00  9.93640661e-01  1.00704634e+00
  9.84229863e-01  9.85263109e-01  9.81438160e-01  1.00861526e+00
  1.00554419e+00  9.91790652e-01  9.98107731e-01  9.93386567e-01
  9.97068465e-01  9.95577693e-01  1.00581539e+00  1.00708258e+00
  1.00516093e+00  9.87998307e-01  1.00642061e+00  9.84578013e-01
  9.91025031e-01  1.00186098e+00  1.01922834e+00  9.98242021e-01
  9.95807230e-01  1.00004601e+00  1.00148714e+00  1.01164961e+00
  1.00733423e+00  9.95486736e-01  9.95590150e-01  9.79034305e-01
  1.01026750e+00  9.99665558e-01  1.00557303e+00  9.84186590e-01
  9.79429007e-01  9.96026397e-01  9.95196044e-01  1.00780511e+00
  1.00030458e+00  1.01633584e+00  9.86875236e-01  9.96623397e-01
  1.01402378e+00  1.00000370e+00  9.92164195e-01  9.88182843e-01
  1.01209557e+00  9.95772958e-01  9.96868014e-01  9.88887608e-01
  1.00933659e+00  1.00522482e+00  9.95553553e-01  9.91953552e-01
 -9.66464751e-04 -4.85964352e-03 -1.80030055e-03 -3.41044297e-03
 -9.61353164e-03 -8.34847597e-05  4.53114929e-03 -5.31108258e-03
 -2.63199653e-03  3.25732213e-03 -3.02777858e-03  1.25618582e-03
  5.59673877e-04 -1.41695753e-04  1.52523443e-03  5.31397806e-03
 -7.86364180e-05 -3.64089571e-03  7.69473379e-04 -1.16023701e-03
 -1.53172674e-04  4.24301624e-03 -4.14272537e-03  2.76820431e-03
 -2.35311221e-03  1.05595088e-03  8.52903235e-04  1.11713177e-02
  7.84499105e-04 -3.61317163e-03  3.52705829e-05 -1.89023023e-03
  7.34650646e-04 -3.27715441e-03 -8.55579565e-04  7.40357442e-03
 -5.43111330e-03  1.01061980e-03 -1.21062445e-02 -5.66832349e-03
 -2.02514022e-03 -1.44389728e-02  1.54063175e-03 -3.88489827e-03
  1.22493843e-03 -6.72791572e-03  9.05951951e-03  1.68985594e-03
 -2.39747390e-03  1.79674965e-03 -3.23639577e-03  1.97782414e-03
  2.06702040e-03 -2.60947878e-03 -1.48653868e-03 -3.92060447e-03
 -1.73238944e-03  1.13292271e-03  6.21281890e-03 -1.08048611e-03
 -8.46650102e-04 -6.07166905e-04 -1.52971027e-02 -9.14055156e-04
 -1.38322252e-03 -3.81678133e-03 -6.63958583e-03  1.36103376e-03
 -1.47495409e-02 -1.47787156e-02 -1.37476707e-02  5.27732261e-03
  3.29933665e-03 -1.44866873e-02 -5.68589102e-03 -2.02485383e-03
 -2.75962683e-03 -3.24310735e-03 -1.24685094e-03  5.75365825e-03
  3.07979499e-04 -1.42937619e-02  1.28768384e-03 -1.17734727e-02
  1.04933884e-03  3.25066620e-03 -5.07525261e-03  2.25643720e-02
 -9.33584571e-03 -8.07273202e-04  1.91134401e-03 -8.21847375e-03
  2.96351733e-03 -4.99366410e-03 -5.10759046e-03  1.86830957e-03
  2.12340092e-04 -1.76465430e-03 -2.32943147e-03 -7.54156662e-03
 -1.13248518e-02 -2.21862551e-03 -3.92896030e-03 -1.63178681e-03
  2.70620896e-03  9.78634506e-03 -4.00999933e-03 -8.84263776e-03
  4.34683729e-03 -4.41393349e-03 -6.08999608e-03 -1.31950919e-02
  6.64689019e-03 -3.77676892e-03 -4.78885602e-03  5.53578511e-03
 -1.02006579e-02  1.88839925e-03 -8.23715236e-03 -4.10831673e-03]
dense/kernel:0
(60, 20)
[[-0.15837197 -0.18639004 -0.2771123  ... -0.10905823 -0.16767053
   0.19266373]
 [ 0.1688573   0.23626441  0.07773224 ...  0.12525135  0.13507727
   0.15026067]
 [-0.13352123 -0.16040587 -0.01624682 ... -0.14756879 -0.05502739
   0.0148341 ]
 ...
 [-0.13588685  0.12154613  0.25000253 ... -0.08632154 -0.25358513
   0.26885998]
 [-0.1754161  -0.17659341  0.18397479 ... -0.11961906 -0.08153139
   0.14124635]
 [ 0.1717906   0.13511461 -0.12338117 ... -0.0922111  -0.11260191
  -0.04334832]]
dense/bias:0
(20,)
[-0.04573433 -0.04616196  0.04977977  0.05217367  0.04607173 -0.04712344
 -0.05223836  0.04650838 -0.06098619 -0.04647434 -0.05033673 -0.05789195
 -0.05368654 -0.04670023  0.05006927 -0.04660049  0.04649115 -0.04684246
  0.04542802  0.04648328]
dense_1/kernel:0
(20, 1)
[[-0.421149  ]
 [-0.26384774]
 [ 0.28848457]
 [ 0.22920114]
 [ 0.20587642]
 [-0.4433991 ]
 [-0.02858402]
 [ 0.43607092]
 [-0.0410489 ]
 [-0.5304664 ]
 [-0.08848698]
 [-0.13273424]
 [-0.1109981 ]
 [-0.4855387 ]
 [ 0.32769513]
 [-0.3288911 ]
 [ 0.2898233 ]
 [-0.4527922 ]
 [ 0.27406213]
 [ 0.5117309 ]]
dense_1/bias:0
(1,)
[0.04656421]
