conv1d/kernel:0
(1, 4, 64)
[[[-1.05331823e-01 -2.15944529e-01 -1.56329870e-02 -2.24775046e-01
    1.57191083e-01 -7.05929548e-02  1.30724385e-01 -7.31898397e-02
   -5.24999909e-02 -2.30275378e-01 -5.67805618e-02  1.49151862e-01
   -1.80309802e-01 -6.54028580e-02  1.54701576e-01 -1.85294032e-01
    2.85203576e-01 -1.57425389e-01 -2.59861499e-01  2.45046541e-01
    2.01029032e-01 -1.43784404e-01  5.32390513e-02  1.66499801e-02
    9.65708792e-02 -1.49421915e-01  6.95916489e-02 -2.64589578e-01
   -1.71875715e-01  1.70272142e-01  1.40367255e-01 -1.74161792e-03
    1.43975437e-01 -1.51581138e-01 -2.71782517e-01  2.48301163e-01
    2.73351878e-01 -1.84055284e-01  1.86994791e-01  9.31517780e-02
    7.72494972e-02  2.50554234e-01 -1.69254169e-01 -2.24323764e-01
    1.43039599e-01  4.80155833e-02  1.32294729e-01  2.07033202e-01
    1.37580752e-01  2.77569979e-01 -4.52597141e-02 -1.94086477e-01
    2.53071878e-02 -2.35607177e-01  1.77694604e-01  1.73928350e-01
    1.24019682e-01 -2.76297361e-01  1.22714877e-01  2.17687249e-01
   -3.82234678e-02  8.12722072e-02 -1.16614863e-01 -1.04867339e-01]
  [ 9.92817879e-02 -1.73973531e-01  2.25582123e-02 -2.41172267e-04
   -1.57377303e-01  3.86670567e-02  2.06852987e-01  2.18689501e-01
   -2.69466698e-01  1.93512421e-02 -8.59243423e-02  2.69151121e-01
   -9.64345932e-02 -1.68274641e-01  6.83585852e-02  1.32635891e-01
    2.67186284e-01  2.15105653e-01  2.86880702e-01 -4.84521911e-02
   -1.79266650e-02 -1.73389792e-01 -2.28433773e-01  2.80704379e-01
   -2.02461049e-01 -7.61107653e-02  1.13686219e-01 -2.15563223e-01
    1.77404016e-01 -2.81345278e-01 -2.59513140e-01  1.85616761e-01
   -1.38458356e-01 -3.22114564e-02  2.31861427e-01  1.66743889e-01
    4.89285029e-02  1.98071927e-01 -1.88003778e-01 -1.30300403e-01
   -8.78209323e-02  1.31484345e-01  1.20904416e-01 -2.31849283e-01
    1.80793792e-01 -1.60052150e-01  6.29236996e-02 -5.09853773e-02
    3.50884795e-02  1.68046191e-01 -2.88848877e-01  2.15591013e-01
    1.27700225e-01  1.19912624e-01 -2.78636105e-02 -1.75644055e-01
   -1.49034038e-01  9.02649655e-04 -6.10771924e-02 -2.43648384e-02
    1.07471623e-01  1.77583732e-02 -5.45686930e-02 -1.87538415e-02]
  [-2.13619918e-01  2.57229984e-01 -2.77670234e-01  2.10703090e-01
   -4.70375530e-02  1.89980730e-01  2.16434494e-01  2.99924985e-02
   -2.71815747e-01  8.71615633e-02 -2.96390682e-01 -7.49486238e-02
    2.32543051e-02 -2.53482372e-01 -5.42284250e-02 -5.89498132e-02
   -6.82064667e-02 -7.64818639e-02 -7.68739497e-03  1.91195562e-01
    2.71804512e-01 -2.35671073e-01  2.14265827e-02  2.82042444e-01
    2.15376183e-01  6.52820468e-02  2.44815618e-01 -2.40116626e-01
    1.62447557e-01 -1.10840201e-02  2.37251416e-01 -2.50001073e-01
   -2.49088064e-01  2.59828329e-01 -2.03536361e-01  5.46851978e-02
    1.72697708e-01 -1.25017866e-01 -8.20077360e-02 -2.47828588e-01
   -1.98314667e-01 -2.56087750e-01 -2.26858817e-03  1.51897306e-02
   -9.47581902e-02 -2.94832647e-01 -7.34200031e-02 -5.48924319e-02
   -2.73729116e-01 -1.31002486e-01 -2.61930227e-02 -2.27728367e-01
    4.20104302e-02  1.10006273e-01 -2.09234338e-02 -2.67688185e-01
   -1.65035650e-01  2.78558552e-01 -2.41619289e-01  1.51664108e-01
    1.06344953e-01 -2.17833981e-01 -1.26241118e-01  2.44845942e-01]
  [-1.15679741e-01 -7.44481832e-02 -6.52073324e-02 -1.58621758e-01
    1.61387578e-01 -2.35400483e-01  6.14788383e-02 -3.61834541e-02
    7.35713989e-02  1.23822421e-01 -2.29043350e-01 -2.05813974e-01
   -2.21111268e-01  2.81766914e-02 -2.40849555e-01 -1.13856599e-01
    1.09201126e-01 -2.81320065e-01  7.86935259e-03 -3.16529423e-02
   -2.00087905e-01  2.16392085e-01  2.14201450e-01 -2.16697440e-01
    2.53815949e-01 -2.03627646e-01  2.31846735e-01  1.76095337e-01
   -2.37773508e-01 -2.65838534e-01  1.48937508e-01 -2.47691259e-01
   -2.02176809e-01 -2.59284198e-01  1.65675446e-01 -5.21310940e-02
   -2.97072679e-01  1.57930076e-01 -9.66360718e-02  2.10922789e-02
   -1.16409197e-01 -6.35632053e-02  2.52995074e-01  1.80571303e-01
    6.22845106e-02  1.10175692e-01 -3.69998813e-02 -1.45398363e-01
   -2.02160656e-01 -1.83781341e-01  1.11192465e-04  2.21221194e-01
    1.40492776e-02 -1.12236857e-01  1.76080391e-01 -1.70173147e-03
   -3.39811444e-02 -8.79489034e-02 -2.59213328e-01  1.40791580e-01
   -2.24179447e-01  9.50893760e-02 -9.62303430e-02 -2.19549417e-01]]]
conv1d/bias:0
(64,)
[ 0.          0.          0.         -0.00573987 -0.01296071  0.11087722
 -0.02967117 -0.01760863 -0.02686098  0.02116914  0.         -0.00948821
  0.         -0.01054376  0.09736863  0.         -0.01989131  0.
 -0.02101388 -0.02260006 -0.01703304  0.06590009  0.00897795 -0.03204073
 -0.02175916  0.         -0.02118199  0.05527515 -0.00319378  0.
 -0.02757628  0.          0.         -0.00478274 -0.01466281 -0.01977092
 -0.0279687  -0.01131279  0.         -0.01019258  0.         -0.03369989
 -0.02580433 -0.02679109 -0.0341125  -0.01661821 -0.00882107 -0.01664609
  0.         -0.00287292  0.         -0.00531652 -0.0214073   0.
 -0.01674624 -0.00668167  0.         -0.00812917  0.         -0.0220463
 -0.017591    0.00231653  0.          0.08024482]
conv1d_1/kernel:0
(1, 64, 64)
[[[ 0.04991473  0.01729298 -0.16983397 ... -0.03774762  0.06028377
    0.077709  ]
  [ 0.12979163 -0.04975599  0.16496707 ...  0.17653699  0.03125167
   -0.20126735]
  [ 0.05980046  0.00068818 -0.0283819  ...  0.05672975  0.13765208
   -0.01378819]
  ...
  [-0.18463375 -0.15901957 -0.14972736 ... -0.00575031 -0.2075998
   -0.17333035]
  [ 0.11109759 -0.06073684  0.10817589 ...  0.08208098  0.1934457
    0.1963662 ]
  [-0.13405976 -0.19410174  0.19943066 ... -0.00454408  0.09289522
   -0.12885794]]]
conv1d_1/bias:0
(64,)
[-0.00277995 -0.00882365  0.01311393  0.00553163 -0.00961255 -0.00891662
 -0.01585305 -0.01415723 -0.01599004 -0.01351144  0.         -0.01990593
 -0.02818375 -0.01576885 -0.00935451 -0.02023517  0.         -0.02745617
 -0.0140367  -0.01997078 -0.00739991 -0.00324306  0.0231292   0.
  0.         -0.01938329 -0.01491073 -0.03036476 -0.00943514  0.
 -0.01214208 -0.0389428  -0.02106209 -0.02839173 -0.00618319  0.
  0.          0.00936376 -0.01645795 -0.01137053  0.         -0.02073753
 -0.00359234 -0.01151185 -0.00282694 -0.00963214 -0.00622255 -0.00865229
  0.         -0.00799678 -0.01824643  0.03175367  0.01103969  0.07287366
  0.         -0.01655203 -0.01084615 -0.03141495 -0.01100773  0.00153
  0.          0.00467165 -0.00926592 -0.01357405]
conv1d_2/kernel:0
(3, 64, 64)
[[[ 0.04279327  0.03490466  0.03960773 ... -0.03230545 -0.01319796
   -0.10360858]
  [ 0.09362611  0.05856627 -0.01899436 ...  0.06908259  0.05217999
    0.1092537 ]
  [-0.0852119  -0.03481206  0.00918189 ... -0.11965433 -0.03474319
    0.01129141]
  ...
  [ 0.0453404   0.01241478 -0.0395463  ...  0.07695681 -0.07946127
   -0.07329468]
  [-0.04392266 -0.03778324 -0.07345328 ... -0.03105423 -0.11236075
    0.076213  ]
  [-0.05259687 -0.04946408 -0.00936386 ...  0.10496148  0.02566166
   -0.07915204]]

 [[ 0.00567988  0.10301495 -0.06399196 ...  0.00480065 -0.09507126
    0.07330483]
  [-0.11311352  0.00705332  0.04555809 ...  0.01225564  0.06409577
   -0.10702017]
  [-0.11462155  0.01551667  0.11471704 ...  0.0375827  -0.10062107
    0.01575723]
  ...
  [ 0.08817465  0.06592867 -0.09583029 ...  0.06449753 -0.10306805
    0.03516753]
  [ 0.09624749  0.01206458  0.02994025 ...  0.06093624 -0.07147339
   -0.10795018]
  [ 0.00887882 -0.08301816  0.09927571 ...  0.04311115  0.11012364
   -0.00300069]]

 [[-0.09739989  0.00309876 -0.07151225 ... -0.06164017  0.05196902
   -0.02540922]
  [-0.08654061 -0.00223204 -0.10864606 ...  0.12065175 -0.11469299
    0.02351955]
  [ 0.01713634 -0.02923319 -0.11174536 ...  0.07086474  0.04566988
   -0.12132475]
  ...
  [-0.045286    0.07266316  0.07585642 ...  0.09385151 -0.05595141
   -0.10717486]
  [ 0.02295142  0.02696979  0.11108071 ... -0.10644767 -0.05037621
    0.00881019]
  [ 0.09656832  0.06299402  0.06279618 ... -0.00281551  0.034367
    0.11532252]]]
conv1d_2/bias:0
(64,)
[-0.01672014 -0.0090003  -0.01048123 -0.00616354 -0.01232766  0.01186362
 -0.01555381 -0.00547406 -0.00995834 -0.01200461  0.02591092 -0.00685749
 -0.00711396 -0.01398422 -0.00579862 -0.00887801 -0.01041334 -0.01172424
 -0.01226354 -0.01023883 -0.0077655  -0.00421137 -0.00579733 -0.00851731
 -0.00368544 -0.00720899 -0.00733903 -0.01474375 -0.01081331 -0.00669401
 -0.01058981 -0.01466373 -0.01165512  0.          0.          0.04440672
 -0.01455526 -0.00633083 -0.01624615 -0.00842973  0.         -0.0139447
 -0.01905576 -0.00641135 -0.01384614 -0.00506465 -0.00553997  0.
 -0.00112723 -0.00836886  0.         -0.00841476  0.02304381 -0.00940317
 -0.00886697 -0.01798085 -0.01619372 -0.01572667 -0.00786565  0.00162356
 -0.01361251  0.         -0.00560834 -0.01045961]
conv1d_3/kernel:0
(5, 64, 64)
[[[-0.01778643 -0.08796536  0.01098247 ...  0.02263195 -0.08080468
   -0.02830395]
  [ 0.01731234  0.03788245  0.06213009 ...  0.05468976 -0.04981167
   -0.0088963 ]
  [ 0.03575641 -0.0745884  -0.05173913 ... -0.0897814   0.09315997
   -0.03163162]
  ...
  [ 0.05774257  0.07629576  0.06802901 ...  0.00462381 -0.02109999
    0.03083133]
  [ 0.07567464  0.07458344 -0.05603544 ... -0.00219407 -0.07418151
    0.04705548]
  [ 0.08348934  0.05077444 -0.17145067 ... -0.00193076 -0.09950788
   -0.04621358]]

 [[-0.0161367   0.04150234 -0.05977716 ... -0.00070328  0.09585582
   -0.00017591]
  [ 0.0807223   0.01158524 -0.02881987 ... -0.03110365  0.03526108
    0.08941753]
  [-0.08535681  0.0551469  -0.06642631 ... -0.03751376 -0.05377574
   -0.0899387 ]
  ...
  [ 0.07864507 -0.1063824   0.05909007 ... -0.07511499 -0.06994307
   -0.05646403]
  [-0.0706718  -0.04253232 -0.08047602 ...  0.01260395 -0.0380295
   -0.03808054]
  [ 0.04555738  0.0657841   0.0061625  ...  0.04018694  0.04220322
    0.09975222]]

 [[ 0.04399784  0.04273523  0.0608048  ...  0.07091518 -0.05640616
   -0.03851961]
  [ 0.07704978 -0.02262821  0.07999019 ... -0.08861296 -0.0580531
    0.07521576]
  [-0.00977853 -0.0203767  -0.00843707 ... -0.08017129  0.08480775
   -0.0938849 ]
  ...
  [-0.06803296  0.02898048 -0.05767607 ...  0.02309881 -0.07318062
    0.00097309]
  [ 0.07949696 -0.09409234 -0.07716242 ...  0.08719578 -0.00418478
    0.03721103]
  [-0.01174647 -0.05587812 -0.1335003  ... -0.03223193  0.01040353
   -0.09241275]]

 [[ 0.02868342  0.09054232 -0.0470993  ... -0.0705024  -0.00479344
    0.02732719]
  [-0.08308316  0.06698997  0.06041716 ...  0.07490875 -0.07005802
   -0.06131876]
  [ 0.05435646 -0.0265123   0.09026124 ... -0.08747576 -0.02724794
   -0.01638883]
  ...
  [ 0.00878235 -0.05458479  0.05705743 ...  0.01659672  0.01925203
   -0.03442259]
  [-0.02372698 -0.06289098  0.09089026 ...  0.05606012 -0.01020943
   -0.0427038 ]
  [-0.05654423 -0.06850983 -0.00958128 ...  0.01687782  0.0609861
   -0.12567478]]

 [[-0.04524815  0.09546365 -0.04836008 ...  0.03535894  0.07250071
   -0.08152826]
  [-0.07519189 -0.01186486 -0.08282293 ...  0.02112274 -0.07681377
   -0.0513358 ]
  [-0.08798651 -0.08766422  0.04958782 ... -0.03468003  0.07821828
    0.01091107]
  ...
  [ 0.0587852  -0.10026874  0.03219899 ... -0.06874683  0.01624117
    0.05140945]
  [ 0.08139071 -0.05895585  0.09392062 ...  0.04814088  0.00346652
   -0.06784481]
  [-0.08954891  0.01682915 -0.0449843  ... -0.11654792 -0.01361678
   -0.15696561]]]
conv1d_3/bias:0
(64,)
[-0.0015027  -0.00959271 -0.01259692 -0.00701363 -0.00654653 -0.0004655
 -0.00479248 -0.00855538 -0.00573503 -0.0079768   0.07985327 -0.0157946
 -0.00817911 -0.00566432  0.         -0.0141552  -0.01207648 -0.00640727
 -0.01081312 -0.00912264 -0.0069941   0.          0.03185599 -0.00555765
 -0.02029469  0.         -0.00836252 -0.00616059  0.         -0.00499289
  0.         -0.01306643 -0.01349597  0.         -0.0115212  -0.00357057
 -0.00786801 -0.01041656 -0.01361879  0.          0.         -0.00968734
 -0.01201388 -0.01101529 -0.00569951 -0.00666567 -0.01020391 -0.00776712
 -0.00060602 -0.00678748 -0.00848621  0.         -0.00599069  0.
  0.07596354 -0.00808261 -0.00968601 -0.01596166 -0.00463457 -0.00932172
 -0.01052118 -0.01298796 -0.01466534 -0.01271547]
lstm/lstm_cell/kernel:0
(64, 200)
[[ 0.12562534 -0.15873744 -0.12263493 ... -0.0929521   0.01269201
   0.03023711]
 [ 0.14977822 -0.09943763  0.03290715 ... -0.09903686  0.02088226
  -0.13197237]
 [ 0.04517924  0.03594635 -0.04703625 ... -0.03557922  0.14152509
   0.05775857]
 ...
 [ 0.13725708  0.00506136  0.12253273 ... -0.1173272  -0.01799341
  -0.09194362]
 [ 0.00450174 -0.13919963  0.01442256 ...  0.10400759 -0.05654509
  -0.02018291]
 [-0.07837668 -0.06010844  0.06020037 ...  0.14191315  0.05160135
   0.11510009]]
lstm/lstm_cell/recurrent_kernel:0
(50, 200)
[[-0.00052634  0.06762419 -0.01196676 ...  0.04030793 -0.0155206
  -0.04174665]
 [ 0.02080815  0.09371253 -0.04380993 ...  0.0980533   0.12220928
   0.08469436]
 [ 0.08937339 -0.06911962 -0.10009592 ...  0.15963145 -0.03588491
  -0.00247826]
 ...
 [ 0.02763267 -0.06239301  0.05803602 ...  0.03284302  0.17206046
  -0.08983482]
 [ 0.08641464  0.05050686  0.05745605 ... -0.01485597  0.02278069
   0.02268069]
 [-0.03021375  0.0640068  -0.03516535 ... -0.03052037  0.03786636
  -0.00555439]]
lstm/lstm_cell/bias:0
(200,)
[ 9.90527589e-03 -1.00741042e-02  4.42088407e-04 -1.05331140e-02
  1.22829142e-03 -2.44311932e-02 -2.05887184e-02  1.07591608e-04
  2.85532791e-03  1.20268005e-03 -1.19719496e-02  2.57223612e-03
 -4.43867350e-04 -9.95536521e-03  6.54097646e-03  3.11511150e-03
  3.75172379e-03 -4.91419807e-04 -1.44510977e-02 -1.81054585e-02
 -1.88134611e-02  4.49919654e-03 -1.80710573e-03 -1.24707550e-03
  1.54174294e-03 -1.53459460e-02  6.87038945e-03  5.02592791e-03
 -1.16418228e-02 -1.15806423e-02 -1.41786393e-02 -6.67999592e-03
 -8.71713832e-03 -4.07139445e-03  7.66306603e-03 -5.30246506e-03
  2.58547859e-03 -7.45896669e-03 -1.54123269e-02  4.10735188e-03
  1.17979443e-03 -6.85708411e-03  3.43361357e-03 -1.34920785e-02
 -3.03052906e-02 -1.57987922e-02 -8.16350710e-03 -3.17979185e-03
 -1.62859797e-03  1.05113734e-03  9.87303972e-01  9.90721524e-01
  9.99207377e-01  9.89319801e-01  9.97745991e-01  9.76484239e-01
  9.62172389e-01  9.96692061e-01  1.00089240e+00  9.99983132e-01
  9.81046379e-01  1.00366020e+00  1.00094914e+00  9.92732823e-01
  1.00621021e+00  1.00471425e+00  1.00328398e+00  1.00134397e+00
  9.84954238e-01  9.84539032e-01  9.85708237e-01  1.00273609e+00
  9.93042290e-01  9.99019086e-01  9.99362051e-01  9.98682320e-01
  9.95932877e-01  1.00012887e+00  9.83195722e-01  9.84812796e-01
  9.82302904e-01  9.94637787e-01  9.94395435e-01  9.78558898e-01
  1.00259674e+00  9.95287240e-01  1.00147760e+00  9.87508833e-01
  9.82375801e-01  1.00016105e+00  9.98185694e-01  9.91265178e-01
  1.00260460e+00  9.86229777e-01  9.89735305e-01  9.85402584e-01
  9.92283821e-01  9.99269664e-01  9.95845020e-01  1.00029755e+00
  1.21004563e-02  5.82676800e-03 -1.62090119e-02 -8.98878649e-03
  1.59078240e-02 -6.22793473e-03 -1.03081518e-03 -1.81707889e-02
  2.18103603e-02  1.74083803e-02 -1.30419200e-02 -1.57672409e-02
 -1.95638034e-02  4.69316123e-03  1.91853903e-02 -1.47519317e-02
 -1.37257027e-02 -9.99799930e-03  1.55149782e-02  4.14371863e-03
 -2.57761893e-03  8.47026054e-03 -1.12895323e-02  1.01013351e-02
 -1.95751917e-02 -1.45335514e-02  8.92197341e-03 -8.44094064e-03
 -1.39780659e-02  1.03085372e-03  1.09472382e-03 -2.69138385e-02
  2.29705479e-02  1.06731812e-02 -5.94758708e-03  1.97922848e-02
 -2.27520894e-02  8.22526217e-03  3.00625432e-03 -1.38145424e-02
 -1.25479661e-02 -1.38384467e-02 -1.11621991e-02 -2.97179143e-03
 -1.04416450e-02  3.04679642e-03 -1.11072026e-02 -1.08485613e-02
 -1.22035071e-02  1.12769026e-02  9.67127830e-03 -1.00682685e-02
  1.28772552e-03 -1.04714781e-02  1.99810672e-03 -2.46387869e-02
 -2.00833436e-02 -4.85383003e-04  3.55102960e-03  1.54291210e-03
 -1.15818800e-02  3.48731526e-03  1.23889034e-03 -9.65213683e-03
  7.21003627e-03  3.23033985e-03  4.66878340e-03 -1.10753026e-04
 -1.44378887e-02 -1.86160952e-02 -1.87003184e-02  4.19409480e-03
 -1.04318198e-03 -2.11144518e-03  1.65479921e-03 -1.46986963e-02
  7.50556169e-03  4.61708894e-03 -1.12128928e-02 -1.13819456e-02
 -1.47501742e-02 -6.76927995e-03 -9.70685668e-03 -4.57634823e-03
  7.90139474e-03 -4.20882413e-03  3.28717311e-03 -7.61416042e-03
 -1.55136399e-02  4.40126890e-03  1.53456267e-03 -7.03817979e-03
  3.79340281e-03 -1.34070627e-02 -2.89628934e-02 -1.55613674e-02
 -7.87291396e-03 -3.30460654e-03 -1.78865227e-03  1.47120643e-03]
lstm_1/lstm_cell_1/kernel:0
(50, 240)
[[-0.04234482 -0.11617599  0.14825577 ... -0.08677766 -0.0460522
   0.12310252]
 [-0.02999255  0.00778375 -0.00398593 ... -0.00670929  0.11693398
   0.05175808]
 [-0.04120107 -0.06878509 -0.11498659 ... -0.07521848  0.05969885
   0.03501336]
 ...
 [-0.05294705 -0.00343359  0.08104026 ...  0.09842592 -0.05423207
   0.08446784]
 [ 0.08054046  0.04954667 -0.11256122 ...  0.01719116  0.01623539
  -0.12552986]
 [-0.07111022 -0.01584621 -0.10232731 ...  0.04692523 -0.06037907
  -0.09904229]]
lstm_1/lstm_cell_1/recurrent_kernel:0
(60, 240)
[[ 0.11219661 -0.04077445 -0.01705014 ...  0.04284976  0.13991262
  -0.01907851]
 [-0.02970473 -0.04705848 -0.06068491 ...  0.16279119 -0.02014487
   0.07307445]
 [-0.02845906  0.08653352 -0.03345394 ...  0.01057934  0.03135305
   0.01637959]
 ...
 [ 0.05292086  0.01260791  0.07576669 ...  0.0074352   0.14538276
   0.03956972]
 [ 0.03096361 -0.02715505 -0.00642053 ...  0.08074295 -0.05097948
  -0.13544929]
 [-0.04279846  0.05087634  0.02835071 ...  0.00930664  0.03155436
  -0.07208186]]
lstm_1/lstm_cell_1/bias:0
(240,)
[-1.56667957e-03 -4.70871339e-03 -3.94609477e-03  4.15264629e-03
 -8.41166172e-03 -4.96989675e-03 -3.33281816e-03 -3.77398822e-03
  8.03863071e-03 -3.58950975e-03  2.19502822e-02  8.15995410e-03
 -2.23424897e-04 -7.53919035e-03 -2.16726642e-02 -1.79853104e-02
 -1.99030573e-03  8.22900143e-03  3.18592356e-04  1.14498427e-02
  5.29169920e-04 -2.45722040e-04 -6.12789765e-03 -3.40460509e-04
 -9.45728924e-03 -1.14438147e-03 -1.94279500e-03  1.18940149e-03
  8.96323845e-03 -6.05999725e-04 -2.22906321e-02 -2.84639862e-03
  4.54706931e-03  1.13188010e-02  1.44153787e-03  4.74473415e-03
 -1.38773618e-03 -3.61554674e-03 -6.07240293e-03 -6.61451323e-03
  3.24243121e-03 -8.97127856e-03  2.56748102e-03  5.56566706e-03
  2.82460987e-03 -1.11758970e-02  3.57820280e-03  1.71006750e-02
 -4.15242463e-03  3.37766903e-03 -2.70019961e-03 -7.80729670e-03
  5.45916893e-03  7.88768381e-03 -8.53130966e-03 -1.86589397e-02
 -1.59526549e-04  8.92484933e-03  3.08263232e-03  8.69972166e-04
  1.00016618e+00  9.97871041e-01  9.97726560e-01  9.98180866e-01
  9.85636473e-01  9.97025847e-01  9.97376978e-01  1.00223291e+00
  1.01460731e+00  9.92891550e-01  1.02707720e+00  1.01397967e+00
  9.91422892e-01  1.00247741e+00  9.83487248e-01  9.83853161e-01
  9.90139127e-01  1.01357388e+00  1.00470781e+00  1.02110624e+00
  1.00212574e+00  9.95516896e-01  9.98859525e-01  1.00585103e+00
  9.92528141e-01  9.99663532e-01  9.98417556e-01  1.00047195e+00
  9.97420430e-01  1.00027037e+00  9.83328819e-01  1.00073874e+00
  1.00707471e+00  1.00318193e+00  1.00834143e+00  1.00600231e+00
  1.00085485e+00  9.88287687e-01  9.99035358e-01  9.93827283e-01
  1.00078726e+00  1.00113571e+00  1.00464571e+00  1.01549184e+00
  1.00364077e+00  1.00820482e+00  9.96249080e-01  1.00472593e+00
  1.00540757e+00  1.00281155e+00  1.00899613e+00  9.99294341e-01
  1.01340473e+00  9.99494374e-01  9.93426979e-01  9.90324974e-01
  9.99394357e-01  1.03909910e+00  1.00906599e+00  1.00517285e+00
  2.00178032e-03  3.15650046e-04 -7.40021525e-04  4.02942905e-03
 -1.48465071e-04 -9.07131191e-03 -5.09502273e-03 -3.46510275e-03
  3.37875891e-03  9.44914948e-03  3.28983506e-03 -1.76326616e-03
 -2.95500970e-03  6.49517227e-04  4.02852939e-03 -3.92160472e-03
  5.77301777e-04  1.06178620e-03  7.96977081e-04 -5.54350903e-03
  8.02882574e-03  3.53469746e-04 -3.20416968e-03 -8.26330564e-04
 -1.27366011e-03  2.24659708e-03  1.86932425e-03  7.33245816e-03
 -4.35534073e-03  1.31567323e-03 -7.36366259e-04  3.30388686e-03
  3.67479399e-03 -4.03666450e-03  2.94558168e-03  1.25391537e-03
  3.34357074e-03  2.29096785e-03 -9.60510006e-05  3.20996181e-03
  1.96133787e-03 -7.39995856e-03 -1.22825033e-03  1.24361487e-02
  6.70203008e-06 -4.89976665e-04 -2.01754575e-03 -5.06061222e-03
  2.23098090e-03 -5.24979550e-03  9.80707700e-04 -2.98367650e-03
 -9.64368461e-04 -5.90108102e-03  1.45074283e-03 -3.48162546e-04
 -1.00061682e-03 -6.72010472e-03 -1.96192297e-04 -8.16759595e-04
 -1.56706187e-03 -4.92357695e-03 -3.90325696e-03  3.39838606e-03
 -7.93831702e-03 -5.35690831e-03 -3.34115815e-03 -4.14105505e-03
  7.53646344e-03 -3.75730824e-03  2.35758238e-02  7.89318886e-03
 -3.43399821e-04 -7.66641647e-03 -2.16137953e-02 -1.93066262e-02
 -1.89932343e-03  7.88167678e-03  4.21156670e-04  1.05102938e-02
  2.01375195e-04 -5.91058226e-04 -6.33829087e-03 -7.46038510e-04
 -9.95965954e-03 -1.26639695e-03 -1.79720751e-03  1.03346072e-03
  8.64249002e-03 -6.90148387e-04 -2.24740449e-02 -3.27735813e-03
  3.67047545e-03  1.08113959e-02  7.91358238e-04  4.44009341e-03
 -1.65656768e-03 -3.49573116e-03 -6.32908149e-03 -6.90810522e-03
  2.81045795e-03 -9.20472760e-03  2.12262478e-03  5.00001339e-03
  2.75493157e-03 -1.24331275e-02  3.13240266e-03  1.61784906e-02
 -4.16483032e-03  3.48987686e-03 -3.43398377e-03 -8.49918835e-03
  4.55269311e-03  7.17432611e-03 -8.85427650e-03 -1.82102397e-02
 -6.41145336e-04  6.06225990e-03  2.70929327e-03 -1.88808233e-04]
dense/kernel:0
(60, 20)
[[-1.3594218e-01 -1.9363984e-01 -1.7287408e-01 ... -6.4433210e-05
  -2.5249189e-01 -8.4585525e-02]
 [ 2.7172187e-01 -4.9894866e-02 -1.5964794e-01 ...  4.4153187e-02
   1.9170679e-01 -5.6342132e-02]
 [-4.3434799e-02 -6.3195631e-02  1.5081653e-01 ...  1.4958720e-02
  -9.9674039e-02 -1.2948111e-01]
 ...
 [-2.0108336e-01 -5.5337336e-02 -2.3133223e-01 ... -2.1667555e-01
   1.8158007e-01  3.4278251e-02]
 [-7.4348092e-02  1.4579093e-01 -1.9943029e-01 ... -7.7560127e-02
  -2.2572810e-02  6.5113157e-02]
 [ 2.2856823e-01  1.5857145e-01  2.6890624e-01 ...  5.4016940e-02
  -1.9883066e-02  3.2376915e-02]]
dense/bias:0
(20,)
[ 0.04928696  0.05175113 -0.11318538 -0.04720091 -0.04952734 -0.04855251
  0.04732592 -0.049146    0.04737678  0.04711624 -0.04801457  0.11588418
 -0.04770518 -0.0474368  -0.04780564 -0.04723511 -0.04755874 -0.04994544
 -0.05107077 -0.04814721]
dense_1/kernel:0
(20, 1)
[[ 0.2178707 ]
 [ 0.06153879]
 [-0.07404713]
 [-0.27992046]
 [-0.3812667 ]
 [-0.3359777 ]
 [ 0.30042198]
 [-0.36174613]
 [ 0.23555021]
 [ 0.50000876]
 [-0.47249037]
 [ 0.04432455]
 [-0.4190268 ]
 [-0.22170748]
 [-0.47112885]
 [-0.50968504]
 [-0.5323366 ]
 [-0.24164498]
 [-0.03285746]
 [-0.30828968]]
dense_1/bias:0
(1,)
[0.04753514]
