lstm_2/lstm_cell_2/kernel:0
(4, 120)
[[-1.11982740e-01 -2.30280831e-02 -1.46296369e-02 -1.86171442e-01
  -1.43081680e-01 -4.68701273e-02  1.13212401e-02  1.93546787e-01
   2.88240006e-03  1.34270012e-01  5.34197204e-02 -3.12639996e-02
   1.20436519e-01 -1.94559514e-03 -1.49943605e-01 -4.24086042e-02
  -9.92987081e-02 -1.44145548e-01  1.01561151e-01 -9.96388718e-02
   2.03295290e-01  8.15943256e-02  3.17249112e-02 -1.52942628e-01
  -2.58031823e-02 -8.28255783e-04  2.07772538e-01 -6.74398988e-02
  -1.80069543e-02  1.19594045e-01 -1.22606186e-02 -9.66581181e-02
  -2.02113166e-02 -9.77187827e-02  6.91934749e-02  1.64961651e-01
   2.24564582e-01  1.06510051e-01 -2.68164854e-02  3.99641916e-02
   2.16670349e-01  7.24236146e-02 -1.21905217e-02 -1.80285946e-01
  -1.32635772e-01 -1.54043898e-01 -4.36168276e-02 -1.47572741e-01
   3.95084657e-02 -1.10681094e-01 -4.53983434e-02  3.14987339e-02
  -1.33849367e-01 -1.54677732e-02  1.96842507e-01  1.98530674e-01
   2.62745041e-02 -1.45458341e-01 -6.43187836e-02  2.08416581e-01
   1.82282507e-01 -1.10749677e-01  1.79279059e-01 -1.25045720e-02
   1.92036182e-01 -1.66568175e-01  1.54959187e-02 -4.23986912e-02
  -1.75956517e-01 -1.45139605e-01 -1.00633629e-01  1.60739392e-01
   1.09353766e-01 -9.00481492e-02 -4.35653888e-02 -1.41799182e-01
  -1.53767303e-01 -9.78709683e-02 -1.25707254e-01 -1.85276300e-01
  -8.76004100e-02 -5.80241047e-02 -6.21090569e-02  1.91529483e-01
  -2.73423363e-02 -2.17059702e-01 -1.97113410e-01  1.54507652e-01
   4.49941456e-02 -7.19627216e-02 -1.84674516e-01 -5.53320721e-02
   2.07030654e-01 -1.22622855e-01 -2.11326942e-01  1.73213005e-01
   7.58114606e-02  1.04474932e-01 -4.72441167e-02  2.06379086e-01
  -1.99964508e-01  1.22386225e-01 -2.85414517e-01 -9.28797796e-02
   2.22021878e-01 -3.99345998e-03  1.45845324e-01  2.44493363e-03
  -1.43173575e-01 -3.53170782e-02 -9.59415287e-02  2.05230534e-01
  -1.52617395e-01  9.64189395e-02  8.33538026e-02 -9.39334631e-02
  -1.11613289e-01  1.58819526e-01  1.20503969e-01 -8.25210065e-02]
 [ 8.85689929e-02  2.02345580e-01  2.75564305e-02 -3.62999700e-02
  -7.82995000e-02 -1.78966820e-01  6.52867183e-02  1.49172261e-01
  -6.09752499e-02 -8.41272920e-02 -1.05415815e-02  1.65358827e-01
  -9.40837562e-02 -1.97370961e-01  1.00783840e-01  9.88720059e-02
  -1.39722496e-01  1.87208466e-02 -7.09142536e-02  1.36758268e-01
  -5.20255752e-02 -1.81976840e-01 -1.34686194e-02 -2.66536009e-02
   1.69245511e-01  4.21265848e-02  1.62949726e-01 -3.16086523e-02
  -8.76318589e-02  1.98974326e-01  1.10192269e-01  9.27586555e-02
   1.92749515e-01  7.16733411e-02  1.52955636e-01  6.70603365e-02
   4.45328318e-02 -1.11319020e-01  1.17063574e-01  1.06236085e-01
   2.25026160e-01  1.22825935e-01  1.61225349e-01  1.48321450e-01
   1.32751331e-01 -1.87403262e-01 -2.20947918e-02 -6.40606359e-02
  -1.33240968e-01  1.36347413e-01 -1.55850052e-04 -8.42259228e-02
  -1.82138160e-01  1.14931025e-01 -1.21230625e-01  7.07451925e-02
   8.03788081e-02  4.76943627e-02 -6.58088773e-02 -1.69692501e-01
  -2.13528916e-01  1.11800537e-01 -2.08880559e-01 -4.29014452e-02
  -1.49127627e-02 -3.29222381e-02 -1.99696645e-01 -2.17188001e-01
  -1.46537378e-01 -1.24972954e-01  2.01779231e-01  7.11566731e-02
   8.35346058e-03 -1.48412377e-01 -7.95186684e-02 -1.73953488e-01
   1.39375642e-01 -1.57648176e-01  6.29773363e-02 -9.10038352e-02
   2.27677017e-01  1.69337802e-02  5.86565919e-02 -3.15165939e-03
  -7.50677362e-02  4.47085090e-02 -5.91749605e-03  1.84471801e-01
   6.57675564e-02 -1.69208527e-01  1.28237009e-01  2.50211032e-03
  -5.26587814e-02  1.57902941e-01 -1.40731201e-01  2.69786954e-01
  -9.64668095e-02 -4.54043671e-02 -1.36183739e-01 -1.20052278e-01
   1.36578038e-01  5.27381673e-02  7.31193181e-03 -6.99186847e-02
  -6.81125373e-02  9.66384336e-02  1.08385310e-01  3.52517180e-02
   1.75673440e-01 -1.07795037e-01 -7.17004985e-02  1.92942210e-02
  -1.36615723e-01 -1.22901194e-01  2.44721159e-01  2.39500299e-01
   1.13117667e-02  8.55341330e-02  5.42836338e-02 -5.16720004e-02]
 [-1.66014969e-01 -6.97161406e-02  1.40299261e-01  2.10400358e-01
   1.18332535e-01  1.32898688e-01 -4.11539413e-02  7.96206072e-02
   1.14302576e-01  1.69074133e-01 -7.95976371e-02 -7.48741627e-02
   8.58043879e-02 -1.12213239e-01 -9.64630544e-02 -1.89698607e-01
   4.04930338e-02 -9.75358337e-02  8.53050947e-02  3.92502621e-02
   1.07476182e-01 -7.74467885e-02 -4.68471944e-02  6.26520440e-02
   9.92147475e-02 -1.10789813e-01 -2.04032212e-01  8.25257897e-02
  -7.32773468e-02  2.62372810e-02  1.99022979e-01  1.84200287e-01
   6.13252409e-02  1.45850718e-01 -2.04658180e-01 -1.94041610e-01
   6.85634837e-02  3.14255841e-02  1.11593708e-01  2.00142860e-01
  -1.18739821e-01 -9.30377245e-02  6.95301145e-02  8.63637105e-02
   1.49976403e-01 -1.65334702e-01 -1.73287392e-01 -1.89170539e-01
  -1.29480347e-01 -7.74993002e-02 -1.30994588e-01  1.17637597e-01
   1.10910989e-01 -1.18119270e-01  1.38657950e-02 -4.25260663e-02
  -2.76182592e-02  1.26781121e-01 -8.90763924e-02  2.20368095e-02
  -8.38761032e-02 -2.20070526e-01  1.34995952e-01 -5.79661988e-02
  -9.81293172e-02  9.72057041e-03  1.86506733e-01 -5.72740138e-02
  -2.90411338e-02  1.07241645e-01  2.81702038e-02  2.21611694e-01
   1.67682376e-02 -1.76382467e-01 -1.74649194e-01 -4.53449339e-02
  -1.32984251e-01 -2.83651557e-02 -7.33848363e-02  2.63593812e-02
  -1.36392321e-02 -1.35323763e-01 -9.19170976e-02  4.84741256e-02
   5.50669730e-02 -9.95095447e-02  1.99730128e-01 -5.04576080e-02
  -5.02258912e-02  1.71151102e-01 -4.66626361e-02 -1.98051170e-01
   1.94663256e-01  5.99529780e-02 -1.52270511e-01  6.33932184e-03
   1.47677451e-01 -3.88730541e-02  8.04585069e-02 -2.07343757e-01
  -1.27667457e-01  2.74809659e-01 -1.16642170e-01 -1.53627470e-01
  -5.64667434e-02  1.99973539e-01  4.99927625e-02 -6.96591213e-02
   1.44576505e-01  6.04023300e-02 -6.44810051e-02 -8.18186849e-02
   1.20301574e-01 -5.05480096e-02 -5.50580695e-02  1.56991228e-01
   3.51229832e-02  1.86609328e-01  4.75142561e-02  2.00501680e-01]
 [-1.02699809e-01  4.30403538e-02  2.03833282e-01  7.41645247e-02
   1.98395371e-01  2.37259597e-01 -1.03792744e-02  6.56607896e-02
  -4.43808874e-03  2.06378428e-03 -5.51120676e-02 -7.77942166e-02
  -1.44097686e-01  1.61178887e-01 -1.74304739e-01  2.13976443e-01
   8.55060760e-03 -7.02676456e-03  1.05182625e-01  2.22271591e-01
   2.00678945e-01  1.16267174e-01  1.41667187e-01  1.39697805e-01
  -1.37919039e-01  8.79171956e-03  1.90836370e-01  1.20342121e-01
   2.55796701e-01 -6.27033273e-03 -7.10314661e-02  6.21487461e-02
   2.12002441e-01  6.33935854e-02 -7.22024450e-03  2.39590928e-01
  -1.19835086e-01 -3.61559168e-02  1.19918115e-01 -1.94602907e-01
   1.00437686e-01  1.92173749e-01 -2.25304082e-01  1.97125316e-01
  -1.93892449e-01 -3.70682701e-02 -1.81175917e-01  1.96087472e-02
   6.45149052e-02  2.79898029e-02 -1.85903497e-02  1.02883957e-01
  -2.64052488e-02 -3.20896767e-02 -2.83498727e-02  1.51411757e-01
  -7.03013223e-03 -4.01933938e-02 -1.85445115e-01  7.82178864e-02
  -1.37016580e-01  1.23498768e-01 -3.79423052e-02 -1.80862263e-01
   2.33692154e-02 -2.02312410e-01  4.90639880e-02 -9.84483957e-03
  -1.69265956e-01  1.16534136e-01  1.10641114e-01 -6.78488016e-02
  -1.11110836e-01 -9.33113322e-03  2.52012778e-02 -9.11018923e-02
  -1.35874897e-01 -1.09086245e-01 -1.79978777e-02 -1.94398373e-01
   9.83817950e-02 -1.42309323e-01  1.69103891e-02  4.60145362e-02
   2.96439976e-02 -8.76306072e-02  1.72381818e-01  7.82986134e-02
   9.19522494e-02  1.83457613e-01  6.65876865e-02 -2.22115889e-01
  -4.17645574e-02  2.16404259e-01  1.76199377e-01 -2.23764833e-02
  -9.83973593e-02 -1.05393328e-01  1.30107060e-01 -4.61248048e-02
   8.57609883e-03 -1.01347245e-01 -1.43647835e-01  2.08490342e-01
  -7.22314790e-02  7.84407780e-02  1.05358034e-01 -1.78142861e-01
   2.95311101e-02  1.32607117e-01  1.24112390e-01 -5.51742353e-02
   3.02032251e-02  5.99344894e-02 -1.51863173e-01  1.39258906e-01
   1.86028719e-01 -1.95738807e-01  6.35019550e-03 -3.60733606e-02]]
lstm_2/lstm_cell_2/recurrent_kernel:0
(30, 120)
[[ 0.03015992 -0.04868682 -0.11369036 ...  0.10401473  0.19804819
   0.10963277]
 [-0.08822838 -0.08537956  0.22239365 ... -0.10023254 -0.00836969
  -0.09493981]
 [-0.07321052 -0.06908976 -0.00174205 ...  0.00077037  0.07754567
  -0.0128179 ]
 ...
 [-0.04461397  0.11326612 -0.10737588 ... -0.05544437  0.08849964
  -0.05552049]
 [ 0.04331331  0.02819316 -0.10850266 ... -0.08851812  0.0880293
   0.03667799]
 [-0.0543224   0.05442505  0.11288892 ... -0.04180432 -0.09514155
   0.04921478]]
lstm_2/lstm_cell_2/bias:0
(120,)
[ 2.38990854e-03 -1.81978513e-02  2.26305868e-03 -1.11223059e-03
 -9.69808362e-03  1.18807852e-02  8.91184434e-03 -5.29766083e-04
 -3.41503858e-03 -1.00383069e-02  1.31234927e-02  4.60363701e-02
  4.21346948e-02 -1.43641979e-02  9.04282462e-03 -5.15542997e-05
  2.01106444e-02  1.79948553e-03  6.01124717e-04  6.28029183e-03
  8.50170553e-02 -6.66856486e-03 -2.59781536e-03  1.15291104e-02
  1.40510323e-02  7.77840614e-04  7.03495741e-03 -1.18905623e-02
  1.43945934e-02 -1.63665861e-02  9.95932698e-01  9.73067284e-01
  9.84948456e-01  9.87435102e-01  9.83329892e-01  9.76791203e-01
  9.99006093e-01  9.91165757e-01  9.84836817e-01  9.84968066e-01
  1.01527286e+00  1.00539839e+00  1.04765940e+00  9.72086072e-01
  9.93207335e-01  9.89663780e-01  9.97183442e-01  9.92604196e-01
  9.90610003e-01  9.85625923e-01  1.01285005e+00  9.85771894e-01
  9.90442276e-01  9.87433016e-01  1.00724900e+00  9.85124886e-01
  9.79602873e-01  9.72429931e-01  9.96840775e-01  9.83487964e-01
  1.24809435e-02  1.34151028e-02 -2.60432884e-02  3.68346050e-02
 -1.12610897e-02  4.72819172e-02 -1.14053087e-02  2.95225866e-02
  3.73454057e-02  2.41644755e-02  1.74499918e-02 -3.63911018e-02
 -6.06997721e-02  3.81774083e-02  3.58462483e-02  3.16798165e-02
  3.27625424e-02  3.31370011e-02  2.59823967e-02  7.43623599e-02
 -2.51820423e-02  3.66763435e-02  3.07320971e-02 -4.66113314e-02
  2.64473842e-03  3.71187553e-02 -3.35638337e-02 -4.76950593e-02
 -2.94335969e-02  9.88888275e-03  2.46799970e-03 -1.66554935e-02
  2.28555244e-03 -3.09250463e-04 -9.44532547e-03  1.00838030e-02
  9.68973245e-03  6.62509678e-03  6.06366945e-03 -9.23458952e-03
  1.30798537e-02  4.49699350e-02  3.21274772e-02 -8.17796867e-03
  9.22223646e-03  4.25897975e-04  2.05658097e-02  5.20437304e-03
  3.93229682e-04  1.25605883e-02  8.94109383e-02 -7.00580981e-03
 -2.78734742e-03  1.23433052e-02  1.49856200e-02 -5.39735411e-05
  7.40885688e-03 -1.03785135e-02  1.36905145e-02 -1.55973695e-02]
lstm_3/lstm_cell_3/kernel:0
(30, 200)
[[ 0.01197209 -0.00776574  0.11733523 ...  0.04571721  0.0100294
  -0.06445918]
 [-0.01317731  0.03158669  0.07210527 ...  0.07109736  0.04011402
   0.12081113]
 [-0.1516104   0.10117999  0.0891749  ...  0.16505969  0.1183068
   0.14324717]
 ...
 [ 0.01688015  0.03360861 -0.04918968 ... -0.11226797  0.17709666
  -0.10638064]
 [ 0.06516217  0.06086242  0.1529974  ...  0.16532739 -0.12142532
  -0.02900012]
 [ 0.09610312 -0.07770218  0.0218326  ...  0.11375139 -0.00924107
   0.11303045]]
lstm_3/lstm_cell_3/recurrent_kernel:0
(50, 200)
[[-0.07929371  0.09336635 -0.01412408 ... -0.07853199  0.0455445
  -0.00449052]
 [ 0.05956033  0.03331637 -0.05790081 ...  0.06003484  0.02045075
   0.03782081]
 [ 0.12895031  0.05039489  0.01695397 ... -0.02315266 -0.04694213
  -0.08371007]
 ...
 [ 0.18318391 -0.13445821 -0.04847676 ... -0.0073542   0.05104651
  -0.01810025]
 [ 0.10428998  0.11124061 -0.10321159 ... -0.03081166 -0.00853263
   0.01275436]
 [ 0.01789189 -0.055431    0.04652087 ...  0.10583024  0.02053062
   0.03890818]]
lstm_3/lstm_cell_3/bias:0
(200,)
[ 1.98524687e-02  1.11692830e-03  2.03480981e-02 -2.47904286e-02
 -1.90445725e-02 -1.29092736e-02  3.55299492e-03  2.29542162e-02
  2.04483159e-02  1.02836946e-02  5.70181524e-03 -4.72448301e-03
  3.24643077e-03 -1.17551517e-02 -1.85446460e-02 -1.13499053e-02
  6.92487229e-03 -5.77050308e-03 -1.36923371e-02  1.06644956e-02
 -1.18968077e-02 -8.24253913e-03 -1.16861127e-02  5.20013049e-02
  1.25465281e-02  6.14330871e-03  2.34367419e-03  1.49359237e-02
  1.02815649e-03  1.11664413e-02 -1.24000013e-04 -7.81689025e-03
  7.96068925e-03  1.94971915e-02 -1.14347320e-02 -1.26636634e-02
  1.24606080e-02  5.05651115e-03  1.13544688e-02  1.54703772e-02
 -1.59054331e-03 -9.77424253e-03 -9.78568103e-03  4.88441996e-02
 -1.27104316e-02  1.60148852e-02 -7.80714303e-03 -1.61424477e-03
  8.20364524e-03 -1.18445586e-02  1.00032830e+00  1.00172019e+00
  1.01748753e+00  9.77858543e-01  9.85660255e-01  9.85258758e-01
  1.00176358e+00  1.01240468e+00  1.01530921e+00  1.00421286e+00
  9.98889446e-01  9.98518229e-01  1.00330412e+00  9.90525603e-01
  9.83390868e-01  9.89908040e-01  1.00317144e+00  9.94679928e-01
  9.85473216e-01  1.00732315e+00  9.88717318e-01  9.93374288e-01
  9.90502894e-01  1.01091444e+00  1.00663030e+00  1.00071025e+00
  9.99975741e-01  1.00810969e+00  9.98849630e-01  9.96852100e-01
  9.98632431e-01  9.91846085e-01  1.00115371e+00  1.01470542e+00
  9.81701076e-01  9.83304858e-01  1.00556040e+00  1.00555992e+00
  1.00423539e+00  1.00931215e+00  9.98648465e-01  9.90168929e-01
  9.90354061e-01  1.00199103e+00  9.89847839e-01  1.00809753e+00
  9.91035879e-01  9.93572235e-01  1.00523686e+00  9.81320024e-01
 -1.58671774e-02 -9.68900416e-03  1.28555056e-02  7.25907600e-03
 -1.92301907e-02 -1.27363894e-02 -3.10001522e-03  3.91766895e-03
  1.08283255e-02 -2.77681742e-03 -1.55924810e-02  2.82159690e-02
 -5.51399635e-03 -9.14845802e-03  1.66614987e-02 -1.37435263e-02
 -4.75382712e-03  2.19696164e-02  5.07072778e-03 -9.54049546e-03
 -8.13918468e-03 -4.30354895e-03  1.71092395e-02  5.26943291e-03
 -4.44439473e-03 -3.42724728e-03  9.04196501e-03 -2.02404475e-03
 -2.38943007e-03 -5.60586806e-03  7.59870606e-03 -9.36442148e-03
 -3.52732092e-03 -8.66435934e-03  3.31828161e-03  2.28679404e-04
  2.84558802e-04 -2.56113708e-02  2.02262774e-02  5.62705938e-03
 -1.75654143e-02  3.27565265e-03  1.39829228e-02 -1.58290118e-02
  1.83725674e-02  1.30143866e-03 -2.76056025e-02  9.89943929e-03
  6.26788707e-03 -2.41516251e-03  1.96083318e-02  1.05961249e-03
  1.95772424e-02 -2.40609683e-02 -1.89818814e-02 -1.31901493e-02
  3.43329669e-03  2.16406491e-02  2.03291122e-02  1.15384730e-02
  5.39106224e-03 -6.32670335e-03  3.80625250e-03 -1.12988492e-02
 -1.84498280e-02 -1.12714451e-02  7.30658881e-03 -6.35859184e-03
 -1.34053063e-02  1.04001295e-02 -1.15623437e-02 -8.42097960e-03
 -1.25334365e-02  4.70193848e-02  1.22057851e-02  5.96158300e-03
  2.46665115e-03  1.44027537e-02  4.86717734e-04  1.29027963e-02
 -3.06360656e-04 -8.25554505e-03  7.92038348e-03  1.84055623e-02
 -9.72137321e-03 -1.23469783e-02  1.09925196e-02  4.92330501e-03
  8.29188712e-03  1.60500612e-02 -2.56668497e-03 -9.82525945e-03
 -9.83224902e-03  4.83398736e-02 -1.27526829e-02  1.39827412e-02
 -8.42560735e-03 -2.74971919e-03  9.11970995e-03 -1.19073996e-02]
dense_1/kernel:0
(50, 1)
[[-0.2617723 ]
 [-0.28355187]
 [ 0.10517251]
 [ 0.29210722]
 [-0.30429026]
 [-0.2297397 ]
 [ 0.314951  ]
 [ 0.08770713]
 [ 0.10718756]
 [-0.25449404]
 [ 0.18650876]
 [ 0.09608333]
 [-0.21187067]
 [-0.23085852]
 [ 0.27086127]
 [-0.08920033]
 [ 0.29411483]
 [ 0.05406983]
 [ 0.17563698]
 [-0.24940875]
 [-0.25769567]
 [-0.06008793]
 [ 0.12751307]
 [ 0.14061669]
 [-0.12795134]
 [ 0.20459111]
 [ 0.04810651]
 [-0.20958787]
 [-0.02143263]
 [-0.18633595]
 [ 0.03916856]
 [-0.15631494]
 [ 0.2389419 ]
 [-0.10485844]
 [ 0.25460392]
 [-0.18618271]
 [-0.19191562]
 [-0.05537032]
 [ 0.2470902 ]
 [ 0.20520614]
 [-0.16090484]
 [-0.01360192]
 [ 0.139289  ]
 [ 0.13572957]
 [ 0.1251257 ]
 [ 0.12682237]
 [-0.13388218]
 [ 0.32735044]
 [-0.1720265 ]
 [ 0.3220556 ]]
dense_1/bias:0
(1,)
[0.04662667]
