conv1d/kernel:0
(3, 4, 64)
[[[ 7.57676214e-02 -1.69071972e-01  6.94316924e-02 -1.62582621e-01
    4.65661921e-02 -1.05648890e-01 -7.72176236e-02 -1.66576996e-01
    7.57560134e-02 -1.09074213e-01 -1.86521471e-01  1.20022878e-01
   -7.94224739e-02 -1.76860213e-01 -1.20275877e-01 -1.92613266e-02
   -8.53856727e-02 -1.04873635e-01  1.98417846e-02  1.46836489e-01
   -4.30045426e-02 -3.81423384e-02 -1.65536962e-02  7.48198256e-02
   -1.10292777e-01 -1.73221692e-01 -9.46095288e-02 -3.00716283e-03
   -1.87946081e-01 -4.66627218e-02  2.71183625e-02 -1.32169768e-01
   -1.54472440e-02 -1.23442389e-01  7.02782869e-02  2.67997663e-03
    1.14250839e-01  2.40516197e-02  7.41572231e-02 -4.32719104e-02
   -8.28404445e-03  1.09493569e-01  1.23769522e-01 -1.08946428e-01
    1.72775090e-01 -3.49957943e-02  3.54692191e-02 -1.41448677e-01
   -6.43273219e-02 -9.95860845e-02  1.03320576e-01  9.96048078e-02
   -1.09407995e-02  1.07252322e-01 -1.83370858e-02 -1.64946299e-02
    3.36119197e-02 -1.48248062e-01  7.67520145e-02  1.35124460e-01
   -4.83829640e-02  3.33790295e-02  1.33048678e-02 -6.84010163e-02]
  [ 8.50292444e-02  6.24903440e-02 -7.57546127e-02 -2.01271683e-01
   -1.76969200e-01 -1.21094324e-01 -9.90631878e-02  7.99142867e-02
    2.60248575e-02  4.13711462e-03 -1.46972299e-01  4.46797311e-02
   -9.38846022e-02  1.58646941e-01 -8.11453909e-02 -1.37387171e-01
    7.64531046e-02 -1.14170484e-01  2.22453535e-01 -1.21728308e-01
   -4.31694537e-02  5.72714359e-02  1.46749467e-01 -1.07573912e-01
   -4.61742654e-02 -1.66663453e-01  3.60682122e-02 -1.45370796e-01
    3.92250717e-02  4.00132276e-02 -5.69729358e-02  1.79853588e-02
    1.39228404e-02 -1.69028342e-01  4.79867309e-02 -1.51692510e-01
    1.34475261e-01 -1.89614389e-02 -1.04091167e-01 -7.83176199e-02
    1.68991983e-01 -6.18283600e-02  1.65993944e-01  5.06771244e-02
    9.85795036e-02 -3.60494852e-02 -1.57638252e-01 -1.05033673e-01
    6.59943223e-02  1.18252024e-01  4.21034871e-03 -2.60568149e-02
    1.10727608e-01 -2.10125193e-01 -6.74778000e-02  8.69087875e-03
    1.56117097e-01  1.89581573e-01 -2.01355219e-02 -1.62570283e-01
    1.18837215e-01  1.34714738e-01 -1.85284019e-01 -1.61612853e-01]
  [-5.54346591e-02 -1.15408421e-01  1.11359656e-01  2.40558460e-02
   -1.87930450e-01 -1.50393307e-01 -4.55350690e-02 -5.78381643e-02
    5.63765094e-02  6.98501319e-02 -2.40491256e-02  3.03456443e-03
   -1.09069329e-02 -9.88928601e-02 -7.78981298e-02 -6.56032935e-02
    1.67950526e-01 -8.44501406e-02  1.49893820e-01 -5.10737002e-02
    1.28099456e-01  6.08817413e-02  6.98751286e-02 -4.32660170e-02
    7.71726966e-02 -1.97199911e-01  5.92056513e-02  2.89862510e-02
   -1.58125553e-02 -1.47170499e-01  4.03151289e-02  2.42788885e-02
   -4.58550453e-02 -2.42832303e-03  1.59381196e-01  8.98320079e-02
   -1.43376991e-01 -7.84151852e-02  4.27230038e-02  9.25412476e-02
   -1.34696767e-01 -8.70725662e-02  6.25711828e-02  2.38641929e-02
   -1.80358291e-01  1.24771811e-01  3.76419425e-02 -1.32006600e-01
   -1.41312525e-01  3.94922979e-02 -7.92372599e-02  1.83290541e-01
   -8.64663720e-02  4.65363525e-02 -5.02204895e-03 -7.12954774e-02
   -1.33559674e-01  6.64264709e-02  1.60434514e-01 -2.44007278e-02
    1.01991724e-02 -1.36596665e-01  7.14262053e-02  8.14551860e-02]
  [ 1.89305276e-01 -1.22589409e-01  2.04848219e-02  3.25309336e-02
   -1.13485433e-01  3.32326777e-02 -1.64220750e-03  8.77254307e-02
   -8.21295083e-02  8.20531771e-02  3.07507843e-01  7.46356621e-02
    1.94776520e-01  2.23655507e-01 -1.50125757e-01 -2.40459256e-02
   -3.25822085e-02 -5.74753666e-03 -5.64533733e-02  7.19702318e-02
   -1.04029208e-01  1.49338156e-01 -7.02119619e-02  2.68800586e-01
    7.14355409e-02  8.95837620e-02  5.37783392e-02  1.29999489e-01
    1.22201473e-01  4.51491699e-02  3.93391959e-03  1.36287764e-01
    7.92005658e-03 -8.07594284e-02  7.12895393e-02  1.25691339e-01
   -1.18634112e-01  2.06997603e-01  1.42260328e-01  9.62774679e-02
   -7.24144131e-02  4.96270061e-02  1.07980102e-01 -1.45358697e-01
    1.08424667e-02 -1.07044950e-02 -9.50548500e-02 -1.25869453e-01
    1.72712252e-01  1.94973201e-01  6.01305328e-02 -4.97988276e-02
    3.76648572e-03  2.04525366e-02 -7.17728809e-02  1.75176248e-01
    1.21777855e-01 -6.69965297e-02 -1.29282296e-01  8.18176270e-02
   -4.54838760e-02 -2.49317307e-02  1.50708735e-01 -9.66782868e-03]]

 [[ 1.34794593e-01  1.19343564e-01 -8.86280537e-02  9.34856385e-03
    1.71707645e-02 -4.89337035e-02  7.30929747e-02 -3.65314446e-02
   -1.31638780e-01 -7.58717135e-02  1.50317207e-01 -1.06397055e-01
   -1.56106293e-01 -4.59475704e-02  6.45502238e-03  1.25730023e-01
   -5.36966696e-02  4.80951630e-02 -1.14435963e-01 -9.60939676e-02
    4.66776043e-02  7.68583566e-02 -1.50452629e-01 -1.68414728e-03
    5.94451129e-02 -1.15748778e-01  1.02382913e-01 -6.14767596e-02
   -8.72507319e-02 -1.68798044e-01 -8.12473986e-03  2.59853657e-02
   -8.72848183e-02 -1.55102104e-01 -8.04445073e-02  5.91156594e-02
   -1.15868151e-01  3.28903683e-02 -1.40447216e-02 -5.82170561e-02
    1.55435994e-01 -5.80148175e-02  7.03792199e-02 -9.67329815e-02
    1.68294728e-01  2.31127646e-02 -1.50543451e-01 -1.10276192e-02
    5.52128628e-02 -1.02068216e-01 -1.58690438e-01 -8.27463460e-04
   -1.99107453e-02 -1.15833730e-01 -9.11834463e-02  1.42738387e-01
   -1.42996833e-01  8.79060701e-02  8.44417736e-02 -1.38327241e-01
    5.99529780e-03 -2.76715290e-02 -7.30344653e-02 -2.63549387e-02]
  [-1.93707138e-01 -1.62495598e-01 -1.25865206e-01  7.80561045e-02
    1.18123583e-01  5.91851287e-02 -2.59788241e-02  1.26294494e-01
    1.07616410e-01 -1.30581155e-01  4.94716950e-02  2.44893273e-03
   -1.31695554e-01 -7.68802911e-02  1.55463532e-01  2.99888593e-03
   -6.55101612e-02  1.03258930e-01 -3.64821255e-02 -8.50834250e-02
    9.53062624e-02  8.66673440e-02  1.44425318e-01  5.78454919e-02
   -1.46672472e-01 -1.83049276e-01 -1.59271345e-01 -1.43548176e-01
   -7.85152838e-02  1.67028323e-01 -1.36840880e-01  1.23035997e-01
   -3.46723050e-02  3.37112546e-02 -1.36662439e-01 -2.00311560e-02
   -5.92585513e-03  1.26366571e-01  2.27224920e-03  7.22445473e-02
   -1.25646532e-01 -1.26744986e-01 -1.21874213e-01  3.06115225e-02
   -1.38668522e-01 -1.37949347e-01 -1.63455859e-01 -4.41478640e-02
    1.21743232e-02  9.23534855e-02 -1.32023320e-01 -1.41981736e-01
    8.14368390e-03 -2.31245682e-02 -9.38705951e-02 -1.22496448e-01
    1.51106775e-01  1.42498314e-01 -1.76359996e-01 -7.26605281e-02
   -3.75453979e-02 -1.10033303e-02  1.30978391e-01  3.00675184e-02]
  [-1.43851906e-01  6.93983734e-02  1.26805514e-01  4.38915975e-02
   -1.75677896e-01 -1.59614921e-01 -1.80499375e-01  1.49366900e-01
   -1.00393124e-01  9.64532867e-02 -1.02662608e-01 -2.37772129e-02
   -1.46677181e-01  6.07792251e-02 -4.93926778e-02  3.14280465e-02
   -1.04316816e-01 -2.69111935e-02 -6.50862421e-05 -1.03504516e-01
    1.01330623e-01 -1.24375382e-02  2.96714418e-02  1.04070334e-02
   -1.76317409e-01 -1.34645388e-01  4.45317738e-02  1.21121388e-02
    3.24482583e-02  2.71089617e-02  9.15779695e-02  7.33284280e-02
   -4.30762321e-02 -1.04335748e-01 -1.27639472e-01  7.80000314e-02
   -8.51658285e-02 -7.60224089e-02 -1.11896165e-01 -7.19997510e-02
    1.65345192e-01  1.70927748e-01  1.75831005e-01  1.06013976e-01
    3.88840735e-02  4.38131541e-02 -8.37013498e-02 -5.75753078e-02
    1.28715470e-01 -3.14713158e-02 -1.63948923e-01  1.88653462e-03
    2.01537535e-02  1.45576984e-01 -7.37430528e-02  1.74909830e-02
   -6.63139224e-02  8.82294700e-02  1.05015695e-01  8.95180553e-03
   -5.16518168e-02  7.69125298e-02  8.01901147e-02  1.61046460e-01]
  [ 1.80093944e-01  1.15109965e-01  1.79907605e-02 -1.10348627e-01
    1.68941572e-01 -1.61458567e-01  8.65944996e-02 -9.50625688e-02
    3.27400900e-02 -2.27969408e-01  9.98534337e-02  2.57802516e-01
    1.42062157e-01  1.47811964e-01  5.34506962e-02 -5.18034510e-02
   -4.67191413e-02  2.00407729e-01  2.65492294e-02 -4.21839058e-02
   -6.84437454e-02  1.72317728e-01  3.63196917e-02  7.87897483e-02
   -1.85566433e-02  6.78132623e-02 -6.55499101e-02 -1.43152196e-02
    1.09101959e-01 -2.02721536e-01 -6.78203180e-02  3.23286742e-01
   -2.81777382e-02  3.25702280e-02 -7.55557194e-02 -1.17302537e-01
    7.86265209e-02  1.59610078e-01  9.06816944e-02  8.95921141e-02
   -2.67893337e-02 -9.44442227e-02  5.43773696e-02  6.47878228e-03
    7.57341906e-02 -1.74643230e-02 -5.30321151e-02  6.89834356e-04
    2.24117070e-01  2.80439466e-01  1.67411678e-02  5.47289252e-02
    1.36033788e-01  3.36981602e-02 -6.31375685e-02  1.11245997e-01
   -1.44389763e-01  7.19659030e-02  2.34413743e-02  1.58747554e-01
    1.49723291e-01  3.51098888e-02  2.30024427e-01 -2.58992761e-02]]

 [[ 1.05815532e-03  6.09426200e-03 -2.98157353e-02  9.19566453e-02
    5.99146821e-02 -1.67652741e-01  1.03548337e-02  1.14735588e-01
    5.61771803e-02  9.80323628e-02  3.30476463e-02  1.25013769e-01
    1.50205076e-01  1.55491279e-02 -3.83542515e-02  2.37972230e-01
   -1.46996543e-01  1.05621405e-01  1.13196604e-01 -1.61893502e-01
   -1.07667379e-01 -2.17595011e-01  4.99209873e-02 -8.46812502e-02
   -1.43384099e-01 -1.90024465e-01 -5.45134135e-02 -1.81042463e-01
   -9.79155451e-02 -2.00239505e-04 -5.52101918e-02 -1.20052621e-01
    5.81785738e-02 -1.02649756e-01  4.71694916e-02  2.26108264e-02
   -4.66391817e-02  2.05952059e-02 -7.45759606e-02  1.35282308e-01
    7.60134216e-03 -2.49430537e-02 -1.23756230e-01 -4.51067537e-02
   -1.24125265e-01  1.24841165e-02  1.41768157e-03 -9.08086225e-02
    1.67125747e-01  6.11029714e-02 -1.51610479e-01 -1.25814170e-01
   -1.65969118e-01  8.28089640e-02  1.23412088e-01  8.14518109e-02
   -3.92981134e-02 -1.42669290e-01 -3.26297507e-02  1.05210282e-01
   -1.83371097e-01 -7.65921921e-02  9.24571380e-02  4.58314121e-02]
  [-9.62485671e-02  1.09818086e-01  3.46729234e-02 -1.53541058e-01
   -8.52545947e-02  1.77456722e-01  1.45294920e-01 -1.24603830e-01
    2.92981751e-02 -1.84759006e-01 -4.21176925e-02  2.83475649e-02
    6.06385991e-02  4.57331277e-02  3.90592106e-02  6.57114983e-02
   -4.71974537e-02  3.65218744e-02  8.88894200e-02 -1.74244046e-01
   -9.17855725e-02 -9.64308605e-02  5.08085787e-02  6.41597584e-02
   -8.86548683e-02  7.15162456e-02 -2.52589565e-02 -9.85406712e-02
   -5.75164631e-02 -1.14510141e-01 -1.45165231e-02  1.25348002e-01
    1.62929893e-02  1.46683291e-01 -2.00456381e-02 -1.23526752e-01
   -4.29745018e-02 -3.10159102e-02 -1.63446799e-01 -1.24965593e-01
    1.46029562e-01 -2.87375003e-02  1.99586116e-02 -1.11223489e-01
   -2.03260109e-01  3.55425887e-02  1.16996482e-01 -4.32737917e-02
    2.88638938e-02 -1.46272779e-02 -6.09807596e-02 -1.33200794e-01
    8.73217732e-02  3.24625522e-02 -3.95952761e-02  1.12979941e-01
   -1.48229942e-01 -5.09270690e-02 -1.76770151e-01 -8.40185881e-02
   -1.21260829e-01  1.51745915e-01  8.28652829e-02 -1.21206284e-01]
  [ 8.91822502e-02 -8.62280503e-02  9.85844731e-02  1.07338458e-01
    6.77571446e-02 -3.48772295e-02 -1.19487487e-01 -2.90728249e-02
   -1.34754658e-01 -1.44521609e-01  1.22048512e-01 -1.14804227e-02
   -1.00055099e-01  3.62533517e-02 -1.77174434e-01  8.61165300e-03
   -1.12312593e-01 -1.66743565e-02 -1.33975014e-01 -7.80268908e-02
   -1.52590498e-01  1.07482122e-02 -1.69894189e-01 -7.33380243e-02
   -1.36666939e-01  4.38724123e-02 -1.80204511e-01 -1.24256410e-01
    7.97704533e-02 -1.65741548e-01  6.27635866e-02  9.72972438e-02
    1.31846264e-01  6.25931025e-02 -9.81449485e-02  1.07020987e-02
    1.25439778e-01 -1.16207153e-01 -2.06945255e-01  1.40813959e-03
   -3.52390669e-02  3.47426683e-02 -1.01786539e-01 -1.27805397e-01
   -9.59787816e-02 -2.30125543e-02  2.29830742e-02  7.65536875e-02
   -4.64761257e-02  1.17342435e-01 -4.88931760e-02  1.44650325e-01
   -1.03342690e-01  1.47961706e-01  5.27659655e-02 -6.75484091e-02
   -9.20467973e-02 -1.08051300e-01 -7.25695193e-02 -7.31436163e-03
    4.50832164e-03 -5.07201590e-02  1.37522575e-02  2.58990675e-02]
  [ 1.04739361e-01 -1.49790987e-01  4.94385920e-02 -1.29598379e-01
   -4.41871099e-02  2.26757392e-01 -1.40609533e-01  1.88219070e-01
   -2.30624117e-02  2.09520325e-01  1.74418882e-01  2.04374254e-01
    5.05596995e-02  2.61013836e-01  2.08905488e-02  9.16041972e-05
   -1.50782660e-01  1.54320776e-01  6.43920675e-02 -2.94387564e-02
    1.05271786e-02 -1.49283141e-01  1.70854598e-01  1.39858752e-01
    2.03404993e-01 -1.49094120e-01 -2.58538518e-02  1.12452514e-01
    4.38486002e-02  6.14613779e-02  5.85847236e-02  1.92365155e-01
   -1.08529717e-01 -5.04706576e-02 -1.29034698e-01 -1.15747295e-01
   -1.24497719e-01  2.30360806e-01 -4.90805693e-02  2.00588033e-01
   -1.75300404e-01 -1.80315673e-02 -5.67339882e-02  1.54849082e-01
    6.07061945e-02  5.98304486e-03  8.06193799e-02 -8.86719152e-02
    2.31785744e-01  2.70746529e-01  1.42233633e-02  1.23297736e-01
   -6.69454709e-02  1.40738234e-01 -1.65862516e-01  2.24618912e-01
    3.03853471e-02  1.08929224e-01 -3.25506777e-01 -2.27865070e-01
    2.53128428e-02  1.17747840e-02  2.33326390e-01 -1.12134077e-01]]]
conv1d/bias:0
(64,)
[ 0.04532719  0.          0.01381136  0.0369487  -0.00156178  0.06194581
 -0.00945815  0.04624951 -0.01071552  0.05174821  0.0292312   0.03262224
  0.11706971  0.01329849 -0.01577839 -0.04825974  0.          0.06259685
  0.04314718 -0.00703911  0.          0.02663324  0.02072512  0.07343828
  0.02953663 -0.01579921  0.00693687  0.06301291  0.10503887  0.08004473
 -0.0303292  -0.03159944  0.          0.          0.          0.09282869
 -0.00477276  0.04736682  0.14098223  0.07678871  0.15401728  0.
  0.07046239  0.00504563  0.07150404 -0.03207037  0.          0.
  0.00427161  0.00587196 -0.03406032  0.07817579  0.06901398  0.00837839
  0.          0.009907    0.05544433  0.01548112  0.27218768  0.05016201
  0.08377134  0.24973884  0.01003061  0.        ]
batch_normalization/gamma:0
(64,)
[0.9638318  1.         0.80653524 0.9764098  0.98100656 1.2946342
 0.99300367 0.9477453  0.9858465  1.3319136  0.9885419  0.94991887
 1.0899656  0.9532043  0.9854994  0.92942494 1.         0.9268235
 0.847149   0.99117124 1.         0.9482836  0.965946   1.0365964
 1.045254   0.95972615 0.91166365 1.0719926  0.9829944  1.0247281
 0.9873135  0.9704826  1.         1.         1.         1.016765
 0.9928871  0.9351838  1.0866355  0.9679212  0.8501242  1.
 0.7925279  1.0466969  1.0510087  0.96703905 1.         1.
 0.98211205 0.9501601  0.9259521  0.93877476 1.0474795  0.9364631
 1.         1.0022502  1.1080823  0.9661573  1.0833999  0.9405986
 1.0347822  0.9434323  0.9663279  1.        ]
batch_normalization/beta:0
(64,)
[-0.11169281  0.          0.13741514 -0.01169143 -0.00537329 -0.00573721
 -0.00928945  0.07316968 -0.01080046 -0.00044738  0.07325479 -0.06017528
  0.22724482 -0.10763527 -0.01559056 -0.11984101  0.          0.0995741
 -0.29580194  0.05943679  0.          0.01791839 -0.04272988  0.09726926
 -0.00853575 -0.02665911 -0.10100676  0.15015152 -0.01144844  0.00080551
 -0.01391034 -0.18456118  0.          0.          0.         -0.07659885
  0.1199009  -0.08509949  0.03135932  0.2405148  -0.06101626  0.
  0.08439083 -0.00735925  0.08634168 -0.07739128  0.          0.
 -0.10710221 -0.113268   -0.05253241 -0.0005666   0.02688408 -0.08645146
  0.          0.01096643  0.09368772 -0.0528669   0.0617606  -0.0277838
  0.06443247 -0.00757233 -0.11467048  0.        ]
lstm/lstm_cell/kernel:0
(64, 200)
[[-0.1456302   0.07053144 -0.15705341 ... -0.12373832  0.10751452
  -0.13396296]
 [-0.01621366  0.08106667 -0.03330553 ...  0.11656493  0.10567984
   0.13574201]
 [ 0.01645073 -0.05391129 -0.04492336 ... -0.12845792 -0.07220373
  -0.07447837]
 ...
 [-0.10021721 -0.00610652 -0.14356004 ... -0.10117291  0.09013002
  -0.11193086]
 [-0.08837427 -0.1450095  -0.10708635 ... -0.12736687  0.1118988
   0.1662564 ]
 [ 0.01767544 -0.07503515  0.04778616 ...  0.06927289 -0.03733657
  -0.01807193]]
lstm/lstm_cell/recurrent_kernel:0
(50, 200)
[[ 0.10530718  0.10934496 -0.00776061 ...  0.05993583 -0.00662375
   0.07139377]
 [ 0.02680245 -0.09160141 -0.01829    ...  0.06744546  0.01008099
   0.02058765]
 [ 0.00382607  0.08287691  0.17664552 ...  0.04477442  0.09762758
   0.07899752]
 ...
 [-0.07480066  0.02696539  0.10843565 ... -0.10961081 -0.05212234
  -0.09753374]
 [-0.1250695   0.06660371  0.01238518 ... -0.0539713  -0.01764107
  -0.0134569 ]
 [ 0.0221034   0.13705099 -0.00948334 ...  0.02078284  0.0178533
  -0.00814328]]
lstm/lstm_cell/bias:0
(200,)
[-0.04869035 -0.08482819 -0.04892873 -0.10438389 -0.06924457 -0.08196206
 -0.06132176 -0.02261504  0.00600737 -0.09346619 -0.08066482 -0.04927527
 -0.05361789 -0.0756296  -0.12129293 -0.08672968 -0.06995257 -0.10487889
  0.01251866 -0.03221848 -0.11660511 -0.06539753 -0.13790758 -0.11655521
 -0.07005875 -0.01675548 -0.00566756 -0.01097989 -0.04115529 -0.05146706
 -0.07194868 -0.07293677 -0.04843608 -0.03573525 -0.11337445 -0.09994405
 -0.02960031 -0.01176071 -0.06248719 -0.01753838  0.06468638 -0.08051386
 -0.04488599 -0.12179877 -0.05674378 -0.02615529 -0.03785658 -0.14807656
 -0.05330436 -0.04417726  0.9367225   0.92748314  0.92766917  0.91670525
  0.94382554  0.88631916  0.85158443  0.96304196  0.9430362   0.9323589
  0.8481088   0.94831854  0.93705577  0.9474522   0.8141012   0.9305595
  0.9312034   0.8462715   1.0173352   1.0622458   0.8723302   0.9015567
  0.86259735  0.9130792   0.92361075  1.025351    0.9964433   0.9308873
  0.8923414   0.9661117   0.93747306  0.94382465  0.9523408   0.8847064
  0.9389425   0.9234316   0.8821674   0.9751611   0.9269378   0.9684132
  0.98376006  0.85098946  0.8860946   0.84813136  0.9073165   1.0182338
  0.93207955  0.89927346  0.96869254  0.9683161  -0.07752334 -0.08501279
  0.08392904  0.06299622 -0.03283881  0.05100283 -0.09794699  0.07180854
 -0.1000691  -0.07636645  0.0621118   0.08248381 -0.06380335  0.05161402
 -0.05091615 -0.0615404   0.02975694 -0.03865817 -0.03066573 -0.03596098
 -0.04595762  0.02924768 -0.03729568  0.04631112 -0.05793056 -0.00238463
 -0.03972966  0.1034069   0.09215543  0.0344633   0.00386237  0.03802183
 -0.06794953 -0.0116288   0.04897694  0.04605578 -0.0807936  -0.08475316
 -0.06688077 -0.06000305  0.07784994  0.05850179  0.09220329  0.0824331
 -0.08082772  0.0548128  -0.0747473   0.0283843   0.07153775 -0.05769383
 -0.06535066 -0.08017249 -0.0627001  -0.0641074  -0.07491206 -0.07739499
 -0.05786831 -0.04423647 -0.01268287 -0.08602918 -0.10382957 -0.06052714
 -0.05131293 -0.05588759 -0.08022545 -0.08105034 -0.08441925 -0.08760624
 -0.0351559  -0.01696324 -0.11398251 -0.07124526 -0.10397887 -0.09573397
 -0.0791886   0.02635771 -0.0288364  -0.04347583 -0.04875163 -0.04925871
 -0.07545174 -0.05048478 -0.06010415 -0.11536915 -0.11647802 -0.10252504
 -0.03997113 -0.03808498 -0.08160532 -0.05613772  0.0047168  -0.0845091
 -0.05427903 -0.09237092 -0.07988701  0.03081695 -0.09128747 -0.1001903
 -0.10232609 -0.04731016]
lstm_1/lstm_cell_1/kernel:0
(50, 240)
[[-0.12732542 -0.07087974 -0.11831868 ... -0.03937835  0.12221118
   0.14275955]
 [ 0.11251177 -0.03939256  0.02601459 ...  0.01460045 -0.04567606
   0.02530502]
 [ 0.07824715  0.12622209  0.02177322 ...  0.24303813  0.00621788
  -0.10884839]
 ...
 [-0.05722397 -0.15587234 -0.15437679 ...  0.06399947 -0.10445705
  -0.11361028]
 [ 0.14291453  0.01713707 -0.10071858 ... -0.10040621 -0.04358806
   0.02950995]
 [ 0.12989095  0.08984966  0.05307928 ...  0.07987688 -0.08639473
   0.1809215 ]]
lstm_1/lstm_cell_1/recurrent_kernel:0
(60, 240)
[[ 0.02736557  0.01398442 -0.0101624  ... -0.12773739 -0.05795666
   0.13120528]
 [-0.05319424 -0.04912406  0.03075396 ... -0.02732052  0.00162653
   0.10748236]
 [-0.14269938 -0.04231672 -0.17237175 ... -0.01888574 -0.1795341
  -0.08780059]
 ...
 [-0.07667617  0.04491242  0.02625988 ... -0.05866897  0.02335934
   0.01676401]
 [ 0.15535568 -0.08423359  0.04498203 ... -0.06735096  0.11480286
   0.07735653]
 [-0.03334735  0.05798231 -0.04196467 ...  0.11164413 -0.00267851
  -0.05535886]]
lstm_1/lstm_cell_1/bias:0
(240,)
[-1.2169856e-02 -3.5311885e-02 -1.6608469e-02 -2.3298925e-02
 -5.5001803e-02 -1.1977235e-02 -4.3793064e-02 -3.7297003e-02
 -2.3663247e-02 -3.6926959e-02 -1.6993785e-02 -2.4860324e-02
 -5.9189327e-02  3.6852306e-03 -5.3187113e-02 -6.2627643e-02
 -3.8785260e-02 -6.3740551e-02 -3.4632452e-02 -4.2241875e-02
 -5.1570579e-02 -1.4816320e-02 -4.7909703e-02 -1.9565180e-02
 -4.7398467e-02  1.0926318e-03 -3.0591182e-02 -3.9327499e-02
 -4.4289015e-02 -2.3666611e-02 -4.3057926e-02 -7.4270807e-02
 -8.5589938e-02 -7.4091211e-02 -7.7056326e-02 -9.0397425e-02
 -5.3516861e-02 -2.0484928e-02 -6.2083606e-02 -2.5553443e-02
 -3.7330594e-02 -5.5999737e-02 -5.2233007e-02 -5.7817057e-02
 -5.9225559e-02 -2.0536467e-02 -4.5248851e-02 -3.7918475e-02
 -3.8568232e-02 -3.2128531e-02 -1.9311346e-02 -1.5269783e-02
 -5.5524968e-02 -2.4151469e-02 -1.8467523e-02 -1.9500988e-02
 -8.2986213e-02 -6.1680067e-02 -3.5557769e-02 -4.4010777e-02
  9.9452239e-01  9.7001004e-01  9.9488205e-01  9.8258746e-01
  9.3310875e-01  9.9227554e-01  9.6937323e-01  9.7948897e-01
  9.9063110e-01  9.9461317e-01  9.8816836e-01  9.7689790e-01
  9.5134193e-01  1.0072691e+00  9.5776284e-01  9.4447106e-01
  9.7141963e-01  9.5847350e-01  9.6750051e-01  9.6879458e-01
  9.5810139e-01  9.9912012e-01  9.6504962e-01  9.8393714e-01
  9.6280825e-01  1.0096502e+00  9.7424656e-01  9.7185183e-01
  9.7094560e-01  9.8167890e-01  9.6556461e-01  9.3475151e-01
  9.3945849e-01  9.3422091e-01  9.4560295e-01  9.2049205e-01
  9.5801812e-01  9.8708010e-01  9.3509710e-01  9.8682708e-01
  9.5636606e-01  9.6287161e-01  9.5334190e-01  9.5194608e-01
  9.4762343e-01  9.8968518e-01  9.5623618e-01  9.6445727e-01
  9.7350627e-01  9.8259902e-01  9.8371637e-01  9.9461269e-01
  9.5151013e-01  9.9514472e-01  9.8175895e-01  9.9141836e-01
  9.4219786e-01  9.3885612e-01  9.7807282e-01  9.6210754e-01
 -2.1795429e-02 -2.7398022e-02  2.4269858e-02 -1.5066267e-02
 -1.7334487e-02 -2.0809453e-02  3.2962989e-02  3.7336562e-02
  3.0647071e-02 -4.1381836e-02  2.7232077e-02  2.3472479e-02
  3.8828414e-02 -2.7043458e-02  2.4133680e-02  1.8377857e-02
  3.0782772e-02  4.8751887e-02 -2.1824023e-02  2.4930906e-02
  1.0963510e-02  3.1859085e-02  4.2892586e-02 -1.2295171e-02
  3.9500661e-02  2.6063770e-02  2.1345919e-02 -4.8163501e-03
  1.9626996e-02 -2.1068504e-02  4.0895183e-02  2.0533679e-03
  3.8854294e-02  2.3057858e-02 -3.6274660e-02 -1.3585825e-02
  2.7629318e-02 -2.9202128e-02  2.9967206e-02 -3.1300299e-02
 -3.0715844e-02 -3.0481223e-02 -2.6055317e-02  2.6363786e-02
  2.3453493e-02  2.5237614e-02 -6.1271864e-04 -1.2159739e-02
  4.0406846e-02  2.7786331e-02  2.7957942e-02 -2.4208408e-02
 -3.0229837e-02 -3.5592187e-02 -2.3964744e-02  2.5379812e-02
 -3.0500948e-02 -3.7728917e-02 -1.3152261e-05 -2.7864877e-02
 -1.5184127e-02 -3.2707833e-02 -1.9863954e-02 -3.0335657e-02
 -5.4630779e-02 -1.3050742e-02 -4.5286249e-02 -3.6935471e-02
 -2.5098195e-02 -3.9166059e-02 -1.8984362e-02 -2.6358977e-02
 -5.9698012e-02 -8.7424135e-03 -5.5320006e-02 -6.2677778e-02
 -3.6378056e-02 -6.2800996e-02 -3.5198245e-02 -4.2513616e-02
 -4.9798474e-02 -2.0054869e-02 -4.8318986e-02 -2.0222932e-02
 -4.7098562e-02 -1.5137425e-03 -3.3494383e-02 -3.7742164e-02
 -4.1121069e-02 -2.6291458e-02 -4.3045901e-02 -7.2395630e-02
 -8.2065649e-02 -7.4219353e-02 -7.4639693e-02 -8.9744441e-02
 -6.5448493e-02 -2.2701943e-02 -6.2074706e-02 -2.5709039e-02
 -3.8112815e-02 -5.5858947e-02 -5.2207161e-02 -5.7903249e-02
 -5.5600941e-02 -1.9453889e-02 -4.6148848e-02 -3.9035112e-02
 -4.0837429e-02 -3.4374215e-02 -2.0950139e-02 -1.7648041e-02
 -5.6018025e-02 -2.7267978e-02 -1.8362688e-02 -2.1100054e-02
 -8.0918334e-02 -5.8915690e-02 -4.7509801e-02 -4.5689408e-02]
dense/kernel:0
(60, 1)
[[-0.08156734]
 [-0.08382053]
 [ 0.11714261]
 [-0.06200997]
 [-0.08998121]
 [-0.09678833]
 [ 0.19298185]
 [ 0.0951292 ]
 [ 0.169162  ]
 [-0.2031023 ]
 [ 0.06653347]
 [ 0.08258366]
 [ 0.13816205]
 [-0.04698451]
 [ 0.1837009 ]
 [ 0.12984294]
 [ 0.19536704]
 [ 0.12091332]
 [-0.11485432]
 [ 0.05904556]
 [-0.06498917]
 [ 0.16301061]
 [ 0.17411412]
 [-0.11757974]
 [ 0.17877398]
 [ 0.05911395]
 [ 0.20477815]
 [-0.04693451]
 [ 0.25942704]
 [-0.24488802]
 [ 0.21425156]
 [ 0.11134049]
 [ 0.22574408]
 [ 0.22065824]
 [-0.24832071]
 [-0.02312623]
 [ 0.08423474]
 [-0.07563972]
 [ 0.19461322]
 [-0.20068297]
 [-0.06626157]
 [-0.21430694]
 [-0.09313763]
 [ 0.24283686]
 [ 0.11016363]
 [ 0.26166198]
 [-0.04435368]
 [-0.2558816 ]
 [ 0.18807283]
 [ 0.18863727]
 [ 0.09386549]
 [-0.19641699]
 [-0.19159746]
 [-0.15130495]
 [-0.08215079]
 [ 0.27563205]
 [-0.2338865 ]
 [-0.07151429]
 [-0.07761459]
 [-0.20450215]]
dense/bias:0
(1,)
[0.14798802]
