conv2d/kernel:0
(3, 3, 1, 64)
[[[[ 0.08625774  0.08501178 -0.02418463  0.00365876  0.09687657
     0.00276636  0.04568045 -0.00546284  0.09035464 -0.02795681
     0.04018194 -0.03632667  0.04513963  0.04739582  0.06862922
     0.02166293 -0.0352792  -0.0135448   0.08594619  0.05658144
     0.01998503 -0.00979026 -0.01023082 -0.04844981  0.01610605
    -0.07132751 -0.00679526 -0.03380786  0.0151146   0.07294497
     0.09529728 -0.10131495  0.05501754  0.02289097  0.06537203
    -0.03814161  0.05383336  0.07217517 -0.0739836   0.0248002
    -0.06745467 -0.08692735  0.07029331  0.01976505 -0.02624214
    -0.0194871  -0.10617424 -0.00239728 -0.0318316  -0.07105228
    -0.10916446  0.00870194  0.03030014  0.09409475 -0.02152721
    -0.00900452 -0.08291063  0.0011392   0.00700154  0.03242135
    -0.05386646 -0.01072069 -0.08580588 -0.04503736]]

  [[ 0.04893786 -0.07640292  0.00173017 -0.01067853  0.07338486
     0.00896025 -0.02825961  0.07975702 -0.04260376 -0.02488789
     0.02671849 -0.01976075 -0.06329597  0.04033986  0.02470179
     0.04950932  0.06482251 -0.03181593 -0.00695495 -0.01241825
     0.01674434 -0.09470461 -0.092713   -0.04210223  0.0396331
    -0.00820319  0.08162142  0.05703344 -0.07218522 -0.02764385
     0.08244056 -0.05947318  0.02233411  0.04215361  0.0152227
     0.00797288 -0.00038436 -0.00935869 -0.0033518  -0.08361936
    -0.01228875  0.09461369  0.10209032 -0.0958075  -0.02785354
     0.07458624 -0.06085527  0.04013614  0.03935166 -0.05849718
     0.04647738 -0.00512036  0.03953549  0.08999564 -0.01299197
     0.0124728  -0.0950755  -0.08540424  0.09888026  0.01707131
    -0.09516481 -0.02243009  0.08547793 -0.01484811]]

  [[-0.07523616 -0.0501324  -0.0369358  -0.05496334 -0.00861214
    -0.08828516 -0.08647582 -0.0812111  -0.0474342  -0.09255709
     0.03944235  0.01736606  0.00801781  0.03780968  0.06015608
     0.06555811 -0.07329068 -0.05246302  0.09763228 -0.0771548
     0.08900262  0.02074525 -0.04364049  0.08453643 -0.0491426
    -0.08521858  0.03704061  0.02039814  0.00823702 -0.09588522
     0.07300657 -0.01490261  0.05688706  0.00795202  0.0623472
     0.04043302 -0.01323557 -0.01256439  0.08076104  0.01584888
     0.04000777 -0.05843586  0.00419814 -0.00832402 -0.03986337
     0.10262527  0.05554836  0.07435642  0.00280681 -0.05746249
     0.05656001  0.00031158  0.01878737 -0.04039363 -0.00530449
    -0.00920276 -0.01950659  0.06868496  0.02326516 -0.06622367
     0.06422039 -0.1304146  -0.11706703  0.08857021]]]


 [[[-0.07651914  0.07310509 -0.0862133   0.03652355  0.08636484
    -0.02085811 -0.06752235  0.06628665  0.01655453  0.00016809
     0.08790503 -0.03716824  0.00487362  0.01036605  0.01389044
    -0.02599494  0.03641264  0.0643172  -0.02443772  0.07976545
     0.09711815 -0.0090886  -0.03772632  0.02916203 -0.02093251
    -0.10596836 -0.07116374 -0.01986964 -0.05840556 -0.06889986
    -0.07416437 -0.10438249 -0.02842588 -0.06690747  0.01427626
    -0.03383487 -0.08946364  0.03253634 -0.08105788 -0.08657413
     0.08697592 -0.04858499  0.06650847  0.04132781  0.07719159
    -0.06809839  0.03457546 -0.10418957  0.09942587 -0.01501577
    -0.00394097  0.06955637  0.0287797   0.06722634  0.017632
     0.02084548 -0.01045213  0.00710064  0.06458548  0.03473675
    -0.0475159   0.0364004   0.01503009 -0.02350272]]

  [[ 0.08531667  0.02907212 -0.04040622 -0.04878945 -0.01135293
     0.09135766 -0.05128251  0.03143486 -0.07930991 -0.08311629
    -0.04112413 -0.08918453  0.00689138  0.08995721  0.0563942
     0.03572179  0.0940301   0.08970927 -0.04422252 -0.06246977
    -0.03047489  0.06428827 -0.05550675 -0.08963834  0.06272542
     0.03643636  0.07148666 -0.00482115 -0.0792001   0.03757403
    -0.03121391  0.05110972 -0.09778025  0.09991575  0.07232458
    -0.03401049 -0.0887168   0.08022931  0.0019939  -0.00475083
    -0.00286881  0.01002519  0.03885955 -0.09360237 -0.02036303
     0.08941071  0.07444473  0.02965111  0.04737483 -0.07915208
    -0.0272068  -0.0896038   0.08365893 -0.10260266  0.02418726
     0.06474687  0.04605038  0.02371643  0.03661646  0.0028451
    -0.01253465  0.09807621 -0.01652978 -0.05903624]]

  [[ 0.03686607 -0.06969847 -0.04552477  0.06835329 -0.01842207
    -0.00651281  0.09479821 -0.06224249  0.02099759 -0.01556234
    -0.0252996   0.00240619  0.06225679 -0.01305966 -0.02055801
     0.08945412  0.0498233  -0.02429201  0.04089352  0.02596717
     0.05239522 -0.00084356 -0.09246198  0.07227534 -0.09211992
     0.05008497  0.03115538 -0.04545712 -0.04318112  0.07656465
    -0.07552037 -0.05754115 -0.0204099   0.01949073 -0.0141851
     0.09609755 -0.02588048  0.08747892  0.06242805 -0.09870225
     0.07354012  0.05380895 -0.06791077 -0.04838387  0.03575969
    -0.06081395 -0.0876163  -0.03136816 -0.00115021 -0.09089472
     0.0769921  -0.05688487  0.02937563  0.09419121 -0.07842164
     0.04702644  0.04620416 -0.05850375  0.05714134  0.08848283
    -0.00757558 -0.09419883  0.02219919 -0.0266508 ]]]


 [[[ 0.07213629 -0.05437287  0.09004378 -0.07476596 -0.04881674
     0.04766457 -0.08512703  0.09223743 -0.03711676  0.03395293
     0.06890653  0.0219238  -0.07815738 -0.06307052  0.07614748
     0.03693023 -0.02580086 -0.06584971  0.09097958  0.09933982
     0.09310728  0.07944975 -0.04581601 -0.05982079 -0.09479266
    -0.06890999  0.08038089 -0.06233121 -0.03159206 -0.01143236
     0.10227714  0.06482768 -0.04745016  0.0107147  -0.08939459
    -0.0281071   0.04959783 -0.09110059 -0.09383737 -0.00841415
     0.0241875   0.08197585  0.03334142 -0.082976   -0.08444922
     0.0081186   0.03609667 -0.04813029  0.02934378  0.07465405
    -0.10638601  0.01802853 -0.03550055 -0.05544525 -0.10386863
     0.07936829 -0.06427881  0.04797716  0.04336718 -0.03268193
     0.04638698 -0.0198898   0.09412297 -0.02027505]]

  [[ 0.09562565  0.04684357 -0.06496716  0.04862326  0.05366086
    -0.02861279  0.09831387 -0.02869254 -0.06594934  0.00139528
    -0.01928918 -0.0479751  -0.05751101  0.07016454 -0.09857455
    -0.05969105 -0.05925426  0.01622583  0.0887724  -0.07823734
    -0.05045924 -0.02742604 -0.04145544  0.04126105  0.04705724
     0.04674005  0.10386284  0.05338475 -0.08460756 -0.02569913
    -0.06258305 -0.04569147 -0.06428866  0.01084823  0.09839661
    -0.03396439 -0.08373354 -0.01882508  0.07155443 -0.06349098
     0.00829571  0.09848259 -0.09367154 -0.00311548  0.03608578
    -0.02671707 -0.03210087  0.01659115  0.06751073 -0.02683469
     0.02939655 -0.01764159 -0.05736137  0.05663573 -0.0609239
    -0.0672431  -0.03404713  0.02713053  0.02753622  0.06194572
     0.08787659  0.07957786  0.02025443 -0.05202292]]

  [[-0.04014318  0.03909559 -0.07326684  0.01947559 -0.01438682
    -0.07946958 -0.03308325 -0.08140705  0.01632943  0.01964919
    -0.06295373 -0.00776302  0.02271896 -0.0049127   0.09828217
     0.02955638 -0.05910463 -0.04596183 -0.06402797 -0.04019293
     0.10818624 -0.02463591 -0.09435787 -0.08557659  0.04660428
    -0.00160646 -0.03502081  0.01126172  0.04205939  0.08159816
    -0.01663604  0.06366102  0.01683597  0.08108354 -0.06898595
     0.0916017  -0.01109701  0.08153781  0.0688451   0.06280582
     0.03128474 -0.03718662 -0.05253258 -0.01667446  0.01680301
     0.03878332 -0.05361858 -0.01968177 -0.0852603   0.02668501
     0.05919638 -0.0796389   0.0257823   0.07000529  0.0715214
     0.05051829 -0.00597423 -0.07162065 -0.07459747 -0.04513751
     0.05741557 -0.066334   -0.07651756 -0.07397678]]]]
conv2d/bias:0
(64,)
[ 6.3992171e-03 -1.0463423e-02  0.0000000e+00 -1.5245560e-03
  5.4946155e-03 -5.8417441e-03  1.2998782e-02  6.5297736e-03
 -6.5175751e-03 -5.7253907e-03  9.6988128e-03 -4.5543197e-03
 -1.6880675e-03 -1.0421491e-01 -2.0123031e-02  9.3162409e-05
  3.6928889e-03  2.0191163e-02 -1.6837535e-02 -1.3522772e-02
 -8.1541333e-03  1.0031227e-02  0.0000000e+00 -1.0494078e-02
  1.4316597e-02 -7.2541009e-03 -3.9514582e-04 -2.2661078e-03
 -5.5094510e-03  9.9598197e-03  2.1077639e-03 -1.0315069e-02
  3.5083210e-03  2.8584511e-03  8.0014218e-04  1.1260649e-02
 -2.7668318e-03 -5.3715832e-03 -5.1729833e-03 -1.2811520e-02
  1.0131660e-02 -2.0612960e-03  3.6051602e-04 -1.7187811e-03
 -1.2252116e-02 -2.6021732e-03 -1.2103148e-02 -3.3826400e-03
  9.4166864e-03 -8.5703628e-03 -7.4139377e-03  2.8035899e-03
 -8.7757381e-03 -2.0461853e-03 -1.0579071e-02  1.8879625e-03
 -5.5252747e-03 -9.5026186e-03 -1.3950169e-01  6.3372878e-03
 -1.0603290e-02  2.6370566e-02  9.6424259e-03 -4.1821864e-03]
batch_normalization/gamma:0
(64,)
[0.991941   1.000493   1.         0.9912395  0.9947868  0.9909314
 1.0080782  0.9978582  0.9957126  0.9942142  0.9981923  0.99451756
 0.9940871  1.0078814  0.9939468  1.0069075  1.0031345  1.0095128
 1.0072504  1.0065038  1.0086335  1.0094326  1.         0.98893243
 1.0144241  1.0011086  1.0016924  0.9957917  0.99931335 0.98554456
 1.0002754  0.99481887 0.9979876  0.9978167  0.9980838  0.9999011
 0.995961   0.99159944 1.0037977  1.0002873  0.99267125 0.9906942
 0.98991    1.0187322  0.99623334 1.0035129  0.99080086 1.0047325
 0.9922673  0.99334216 1.0076724  1.0038558  0.9949135  1.004458
 0.99593675 1.0059544  0.9973632  0.9939997  1.0086758  1.0068119
 0.9928623  1.0089886  1.0047631  0.9936934 ]
batch_normalization/beta:0
(64,)
[-0.00796071 -0.00368715  0.         -0.00343065 -0.00677254 -0.00779367
  0.01230698 -0.00109893 -0.00650006  0.0393361   0.01404372 -0.00455667
 -0.00249911  0.00708546 -0.010662    0.00439262  0.00434057  0.02837478
  0.00395967 -0.00018973  0.00847134  0.00987097  0.         -0.010117
  0.01593655 -0.00612449 -0.0187131  -0.00319793 -0.00550543 -0.00240249
  0.00335382 -0.0103402   0.01183411 -0.00377956 -0.00771766  0.0092223
 -0.00517566 -0.00828528  0.00312596 -0.01278035  0.00140766 -0.02555908
 -0.02318115 -0.00649061 -0.01077326  0.00034091 -0.0120305   0.00273006
  0.00222909 -0.0085668   0.00490952  0.00187027 -0.01153685  0.00579332
 -0.01046383  0.0020052  -0.00551147 -0.00713846 -0.00215441  0.0050926
 -0.00942675  0.02487912  0.010762   -0.00419001]
conv2d_1/kernel:0
(3, 3, 64, 64)
[[[[ 1.55188395e-02 -2.91833505e-02 -9.21901017e-02 ...  2.38392549e-03
     3.96431983e-02 -4.53130007e-02]
   [ 5.24062067e-02 -2.33441852e-02  5.74355125e-02 ...  2.06737760e-02
    -5.63957095e-02  5.50696161e-03]
   [-2.47209519e-03  3.98906469e-02 -6.64668828e-02 ...  8.66771489e-03
     3.54529694e-02 -1.31292231e-02]
   ...
   [ 1.81784220e-02  3.62031832e-02  1.91217531e-02 ... -2.75540818e-02
    -7.54429772e-02 -5.96076064e-02]
   [-3.40546132e-03 -6.01081364e-02 -1.09454971e-02 ...  5.77132702e-02
    -7.04669282e-02  5.04431389e-02]
   [ 6.76151365e-02  6.36226535e-02  5.28184697e-02 ...  6.55397624e-02
     5.54530323e-02  2.01189741e-02]]

  [[-4.13483232e-02 -3.42199020e-02  7.76739120e-02 ... -3.56373601e-02
    -2.52764560e-02 -3.03680077e-02]
   [-1.09617375e-02 -8.32198188e-03  4.61033508e-02 ...  6.62416369e-02
     3.79365869e-02 -6.15047999e-02]
   [ 4.38274518e-02  3.55540067e-02  3.10644954e-02 ... -6.38909861e-02
    -6.37821332e-02  5.44272363e-03]
   ...
   [ 1.83568778e-03  1.42441234e-02 -1.04981521e-02 ...  5.29001234e-03
    -6.36227876e-02 -4.17339429e-02]
   [ 2.00888831e-02  5.48287444e-02 -4.63252701e-02 ... -4.63763773e-02
    -2.30163452e-03  6.54372619e-03]
   [-6.58595711e-02  1.06308758e-02 -1.71110220e-02 ...  7.83400014e-02
     1.44981779e-02  3.00194938e-02]]

  [[ 4.02840078e-02  1.37239387e-02  7.35096261e-02 ...  5.28524034e-02
    -1.38465595e-02  5.36648110e-02]
   [-2.40186285e-02 -4.41606604e-02  3.43508981e-02 ...  5.61062507e-02
    -6.90425113e-02  2.65757646e-03]
   [-1.52043998e-03  3.02822590e-02  5.23648933e-02 ...  5.43652475e-03
    -6.32923692e-02  9.54174250e-03]
   ...
   [-8.02205317e-03  4.62181643e-02  7.07920864e-02 ...  4.30340506e-02
    -5.26326559e-02 -1.52354850e-03]
   [ 7.21217915e-02  5.58277890e-02  4.60008904e-02 ...  2.82269139e-02
     4.83005345e-02  7.18351528e-02]
   [-2.03983244e-02 -2.76018400e-02 -5.39330058e-02 ... -3.29436176e-02
     7.63867870e-02  6.12802478e-03]]]


 [[[-1.67005658e-02  4.76571023e-02 -5.52941822e-02 ... -4.49958444e-02
     4.96683307e-02 -4.47306074e-02]
   [-5.22343926e-02  5.01424409e-02  4.14348319e-02 ...  4.97509539e-02
    -4.11746539e-02 -3.76028232e-02]
   [-7.27134943e-03  7.78638572e-03 -5.47232702e-02 ... -4.64038476e-02
    -5.41565418e-02 -3.71412598e-02]
   ...
   [ 6.48907572e-02  2.15050336e-02  6.36713877e-02 ...  3.96052003e-02
     7.74424383e-03 -5.11355810e-02]
   [ 5.81700578e-02 -5.30960560e-02 -1.14837959e-02 ...  8.90262574e-02
     5.85008273e-03 -2.15472467e-02]
   [ 3.86213921e-02 -2.73180325e-02  9.75546241e-03 ... -5.92316799e-02
    -6.42148107e-02  5.01149632e-02]]

  [[ 6.53372630e-02  4.89971898e-02 -2.12485045e-02 ...  3.43594402e-02
     3.09869517e-02 -4.45731021e-02]
   [-4.37272005e-02 -2.97360383e-02  2.39381287e-02 ... -1.06198881e-02
    -1.25690289e-02 -5.50478995e-02]
   [-6.33238927e-02 -6.33764267e-03 -2.77097709e-02 ... -6.77333400e-02
    -6.13662042e-02 -2.96317078e-02]
   ...
   [-3.70270014e-02  3.42857726e-02 -8.67740214e-02 ... -4.77471277e-02
    -3.02969720e-02  3.38099599e-02]
   [ 5.28559014e-02  4.31054868e-02 -1.39765441e-03 ...  3.44227068e-02
    -4.65459339e-02  3.48909758e-02]
   [ 6.27239421e-02  5.63866086e-03 -8.51991177e-02 ...  1.26708951e-03
     1.04934378e-02 -3.59419845e-02]]

  [[ 6.69326484e-02 -6.94733411e-02 -6.35286910e-04 ...  7.96417221e-02
    -3.84458192e-02 -5.66104166e-02]
   [ 1.61824785e-02  5.44795878e-02  2.46101040e-02 ... -3.63541860e-03
    -2.98866015e-02 -1.59977470e-02]
   [-2.33726464e-02  9.99830663e-04 -8.61218572e-03 ... -4.13534343e-02
    -6.99221939e-02  1.80810317e-02]
   ...
   [-3.36428289e-03  4.16683443e-02  3.68639715e-02 ... -3.31320427e-02
     2.94495616e-02  6.72200173e-02]
   [ 7.30341598e-02  4.54895981e-02 -4.06913571e-02 ...  3.72541249e-02
     7.38409441e-03  1.92579906e-02]
   [-3.60773802e-02  5.41172177e-02 -6.26821490e-03 ... -6.78651780e-03
    -7.81030357e-02 -2.05662344e-02]]]


 [[[ 2.34123264e-02  7.51720592e-02 -5.12621105e-02 ...  4.37998697e-02
     1.39482040e-02  6.85439184e-02]
   [-3.12357359e-02  5.46471849e-02 -3.73980254e-02 ... -5.56475222e-02
     5.63326813e-02 -5.64686954e-02]
   [ 4.95752767e-02  5.39333820e-02  5.37276864e-02 ...  5.24061024e-02
     7.19386488e-02 -4.16413993e-02]
   ...
   [-1.33786956e-02 -3.00126746e-02  5.48503548e-02 ...  7.04199150e-02
    -2.07083933e-02  9.48081836e-02]
   [ 1.83925033e-02 -5.67870736e-02 -5.86493537e-02 ... -3.67163979e-02
     5.93894720e-02  5.86167872e-02]
   [ 2.56842598e-02  4.92872074e-02 -1.56576671e-02 ... -6.69953525e-02
     2.19595972e-02 -3.33892507e-03]]

  [[ 1.56823676e-02 -1.90487609e-03  5.56232370e-02 ...  8.45470652e-02
     2.38882564e-02  3.16119753e-02]
   [-1.05495541e-03  6.68754578e-02  2.30892040e-02 ...  5.25118709e-02
    -4.71279025e-02  6.18426017e-02]
   [ 5.23030758e-06 -4.86230068e-02  6.94285780e-02 ...  6.83255196e-02
    -6.64010122e-02 -6.22227043e-02]
   ...
   [-5.16492836e-02  1.78832747e-02 -5.84456399e-02 ...  4.59399744e-04
    -5.22115827e-02  2.20261584e-03]
   [-3.50713246e-02  4.76508588e-02  2.00433061e-02 ...  8.01657327e-03
    -2.91628335e-02  3.43518220e-02]
   [ 1.43847326e-02 -3.98120880e-02  1.60209986e-03 ...  1.94924455e-02
     3.12734470e-02  6.82167932e-02]]

  [[-4.43545133e-02  3.99505496e-02  2.39286441e-02 ... -2.14280142e-03
    -3.27585973e-02  3.58997025e-02]
   [ 4.23946492e-02  4.56606299e-02 -4.17685919e-02 ...  1.46877356e-02
    -6.70035854e-02  7.29564205e-02]
   [ 5.47945350e-02  3.19297910e-02  4.38404381e-02 ...  2.43156552e-02
     2.11736560e-02  8.39784741e-03]
   ...
   [ 7.70877525e-02 -4.76977527e-02  4.21227738e-02 ...  2.87703145e-02
     3.58260572e-02  3.10844537e-02]
   [ 4.38105594e-03  2.41363384e-02  6.83670118e-02 ...  4.65457467e-03
     5.70214950e-02  6.55161589e-02]
   [ 1.76559538e-02  5.12232929e-02  5.09060137e-02 ... -2.67364569e-02
     6.15558960e-02 -3.08606513e-02]]]]
conv2d_1/bias:0
(64,)
[ 0.00264487  0.00747254  0.03003343  0.00485983  0.00731287 -0.00254023
  0.00747269  0.00480548  0.00645894 -0.00414461  0.00726723 -0.01421713
 -0.01642334 -0.00127523  0.0176854   0.00508473  0.01980657  0.00674188
  0.01868812  0.00597319  0.00685147  0.00651615 -0.00140876  0.01074668
  0.00362054  0.00470159  0.00378084  0.00495966  0.00830453 -0.00988704
  0.00507973  0.00161423  0.00617959  0.03761142  0.01940789  0.00085039
  0.00739829 -0.01178336  0.01111567  0.00590814  0.00754155  0.00016087
  0.02939538  0.00414935  0.00906887  0.05256708  0.01325216  0.01907996
  0.00985492 -0.00812709  0.00067849  0.00463282 -0.00546079  0.00677537
  0.00237859  0.01145044  0.00467106  0.00580606  0.01013804  0.01248736
  0.05896364 -0.00140604  0.00862615  0.00571929]
batch_normalization_1/gamma:0
(64,)
[0.98782367 0.98815495 0.97290415 0.9850555  0.98760164 0.9902674
 0.98240656 0.9686382  0.9783915  0.9872486  0.9893423  0.9784299
 0.98186296 0.9858816  0.98588365 0.9712448  0.9707859  0.98985285
 0.966103   0.9872928  0.9929145  0.97638226 0.9948558  0.99439204
 0.99009705 0.99351424 0.9890714  0.974473   0.9801544  0.9881011
 0.9890057  0.9969567  0.9902     0.97680587 0.981864   0.99471724
 0.9941806  0.9909259  0.996231   0.981295   0.98271984 0.9939504
 0.98324585 0.98722285 0.9915866  0.9687958  0.97862464 0.9926632
 0.97567225 0.993163   0.98815614 0.99573255 0.99726456 0.9906104
 0.98985237 0.975112   0.98883104 0.99110806 0.98357606 0.9860352
 0.9138755  0.99227196 0.9877236  0.98708874]
batch_normalization_1/beta:0
(64,)
[-0.01693843 -0.0082294   0.01132441 -0.01991743 -0.01606181 -0.01632956
 -0.02131898 -0.02950245 -0.03178224 -0.00696165 -0.01360141 -0.02802146
 -0.01887572 -0.01711031 -0.0022526  -0.03592206 -0.00981032 -0.01163029
 -0.04222333 -0.01787159 -0.00582198 -0.01511675 -0.01342703 -0.00441616
 -0.01512464 -0.00649671 -0.0140491  -0.02930087 -0.02693786 -0.01046873
 -0.01376591 -0.00391925 -0.01148965  0.00260376 -0.0130012  -0.00455514
 -0.0027062  -0.0096654  -0.00174609 -0.01882449 -0.00816577 -0.00775501
 -0.01281755 -0.01146446 -0.01271432 -0.01091806 -0.0256023  -0.00493444
 -0.05115495 -0.00741786 -0.01153986 -0.00277227 -0.0094265  -0.0104302
 -0.01640819 -0.02704525 -0.01170274 -0.01506709 -0.01410479 -0.01170689
  0.0079876  -0.01832702 -0.01366536 -0.02940897]
dense/kernel:0
(448, 128)
[[-0.01614499  0.03144133 -0.00402547 ...  0.01047942  0.06999502
   0.04214327]
 [ 0.02474041 -0.04500389  0.08590346 ... -0.00610298 -0.02124658
   0.03710353]
 [-0.09160313 -0.05925213 -0.09175216 ... -0.01324711  0.05487137
  -0.03006634]
 ...
 [-0.0737161   0.03494589 -0.07150194 ...  0.06431108 -0.06630836
   0.07327297]
 [-0.02511834  0.0150886  -0.07588845 ...  0.03364388  0.08151494
   0.05070065]
 [-0.03578094  0.00648025  0.04338412 ... -0.07852994 -0.03236666
   0.09213465]]
dense/bias:0
(128,)
[-0.02523161 -0.01200741 -0.00670324 -0.0122031  -0.00466285 -0.04171982
 -0.00795605  0.05354646 -0.01006373 -0.01164006 -0.01273809 -0.00982926
 -0.01295328 -0.00822089 -0.01337482 -0.01085099  0.01068039  0.08708672
 -0.01274962 -0.01623474 -0.00774113 -0.01856774 -0.01129689 -0.01564404
 -0.00714313 -0.01543515 -0.00882701  0.10312885 -0.03467435 -0.01231327
 -0.00651684 -0.02935924 -0.01159673 -0.03125007 -0.0312681  -0.0401569
  0.0402881  -0.01414132  0.07424603  0.01879104 -0.02989195 -0.00872331
  0.00903996 -0.01262806  0.05844263 -0.02944129  0.01579838 -0.00639045
  0.03437348 -0.0216494  -0.00693938 -0.03367689 -0.01852435 -0.0070963
 -0.01759731  0.01182029 -0.0061049  -0.00831604 -0.00731369 -0.01033568
 -0.00943605  0.09451402 -0.01834845 -0.00855076 -0.0165249  -0.04354935
 -0.02578904  0.01773783 -0.01574686 -0.02381256  0.02357048 -0.01016193
  0.00894539  0.10092222  0.04497969  0.01703915 -0.01126329 -0.01254826
 -0.0041899  -0.02243495 -0.02160609 -0.01399215  0.02672864 -0.01181168
  0.01018351  0.00374512 -0.01438249  0.06586291  0.06919103 -0.01610998
 -0.00050638 -0.02219315  0.01936777 -0.02572165  0.02952878 -0.02742976
 -0.03219024 -0.01292321  0.00089455  0.09908818 -0.00707227 -0.024744
 -0.01158824 -0.00628847 -0.036851   -0.02719919 -0.01305171  0.08052169
 -0.0175874  -0.02132275 -0.00697635 -0.01570918 -0.00809967 -0.02016437
 -0.02276753 -0.01772541 -0.01588829 -0.01602109  0.07330935 -0.0074362
 -0.00634024 -0.01350964 -0.01982093 -0.02735365 -0.00783105 -0.00684088
 -0.01173862 -0.01206755]
dense_1/kernel:0
(128, 60)
[[ 0.00918426  0.09486351  0.05447543 ... -0.08870682  0.17519133
   0.00275261]
 [-0.1313807  -0.04465178 -0.17440058 ... -0.17744437 -0.01324634
   0.06865873]
 [ 0.0515804  -0.01099109 -0.07520025 ... -0.1443335  -0.04708409
  -0.04401357]
 ...
 [-0.02649199 -0.15672548 -0.14466046 ...  0.00392571 -0.08673605
  -0.08903459]
 [ 0.0670154  -0.04560601  0.01804931 ...  0.06976871  0.1587542
  -0.15066676]
 [-0.07743339  0.03142055 -0.0882799  ...  0.0971692  -0.00561049
   0.05278892]]
dense_1/bias:0
(60,)
[ 0.10127977 -0.07033529  0.05945494 -0.06679284  0.07970009  0.0447932
 -0.08426271 -0.04901963 -0.07493022 -0.07225247 -0.05546124 -0.05941065
 -0.06291185  0.06809428  0.13377765  0.04622452 -0.06394611  0.06939647
  0.07719488  0.06589892 -0.06935561  0.0426711   0.0533751   0.07132979
  0.06687673 -0.08169803  0.05312885 -0.05386815 -0.07390787 -0.08132511
  0.05333439  0.07227811 -0.0789133   0.05540615  0.05447474  0.09680304
 -0.0902451   0.0863557  -0.04585995  0.0746548  -0.05433595 -0.08307343
 -0.06708717 -0.0697358  -0.07961774 -0.07385719 -0.04740313 -0.08727047
 -0.05989804 -0.0569892   0.0724146  -0.068187   -0.0638857   0.07324722
 -0.06265996 -0.08375352 -0.07674371 -0.08718525  0.06442714  0.07708067]
dense_2/kernel:0
(60, 1)
[[ 0.04222864]
 [-0.08218314]
 [ 0.27526408]
 [-0.1831517 ]
 [ 0.0720466 ]
 [ 0.18472761]
 [-0.05973364]
 [-0.2803732 ]
 [-0.06925049]
 [-0.05768698]
 [-0.24110854]
 [-0.03438846]
 [-0.24291834]
 [ 0.27013975]
 [ 0.01454875]
 [ 0.23778166]
 [-0.22944684]
 [ 0.1216844 ]
 [ 0.0846464 ]
 [ 0.29196742]
 [-0.03141997]
 [ 0.15717569]
 [ 0.01157135]
 [ 0.19820337]
 [ 0.04834925]
 [-0.10945484]
 [ 0.18804893]
 [-0.23501456]
 [-0.06917009]
 [-0.28585607]
 [ 0.18720955]
 [ 0.16551208]
 [-0.16797891]
 [ 0.2018734 ]
 [ 0.27717328]
 [ 0.09793731]
 [-0.2180397 ]
 [ 0.09049863]
 [-0.16202612]
 [ 0.08758242]
 [-0.18897775]
 [-0.08406731]
 [-0.22131224]
 [-0.225918  ]
 [-0.05669644]
 [-0.09781131]
 [-0.28879812]
 [-0.18422416]
 [-0.21363576]
 [-0.26404798]
 [ 0.13752896]
 [-0.11604948]
 [-0.13245574]
 [ 0.22422203]
 [-0.28086782]
 [-0.02045327]
 [-0.18241952]
 [-0.26151165]
 [ 0.21170743]
 [ 0.06818011]]
dense_2/bias:0
(1,)
[0.09475199]
