conv1d_10/kernel:0
(3, 4, 64)
[[[ 3.90110388e-02 -8.02088231e-02 -3.24151143e-02 -1.34638220e-01
    1.69986561e-01  1.40834287e-01 -6.68523926e-03  2.76701562e-02
   -9.89335850e-02  2.15214640e-02 -4.04074416e-02  5.36201447e-02
   -3.26816961e-02  5.58972061e-02 -3.28805074e-02 -1.31958842e-01
   -6.44949377e-02  9.75651368e-02  1.30962476e-01 -8.90394524e-02
   -7.94629678e-02 -1.64449096e-01  1.10909574e-01 -6.00935034e-02
    5.79831228e-02  7.27535486e-02  3.63834202e-03 -1.65486440e-01
    1.34134650e-01 -1.15223438e-01 -1.70140117e-02 -2.63752192e-02
    8.96978751e-02  1.57913640e-01  1.44903332e-01 -3.90570872e-02
    6.29870594e-02  1.58228934e-01 -4.78400961e-02 -1.60714865e-01
   -1.32547095e-01 -7.18317321e-03  6.80285543e-02  7.39514967e-03
    4.82354239e-02 -4.23601270e-03  9.27796215e-02  3.41162533e-02
    1.22299105e-01 -1.41014621e-01 -3.37531269e-02 -1.58375889e-01
   -9.25756693e-02 -6.79372624e-02 -1.05486773e-01 -7.88666890e-04
   -7.71129653e-02 -5.89106157e-02  1.19509481e-01 -1.68797329e-01
    1.43900827e-01  1.12325422e-01 -1.40287161e-01 -1.65914536e-01]
  [-8.79103132e-03 -1.44260541e-01 -1.24329263e-02 -6.92308098e-02
    1.83088891e-02  6.96425065e-02 -1.22012004e-01 -8.01821500e-02
    1.50105655e-01  1.54247180e-01  5.67326285e-02  1.33076653e-01
    7.74485841e-02  8.08576494e-02  1.07523635e-01  1.56576678e-01
    3.68047692e-02 -1.03006199e-01 -1.00866564e-01  6.39467910e-02
    3.10180467e-02 -1.30669221e-01  1.33948475e-01 -1.32045045e-01
    4.97186296e-02  6.45578653e-02  5.31114787e-02 -8.85414183e-02
   -1.08063303e-01  9.89869609e-02  6.67402893e-02 -2.51154299e-03
   -3.01427841e-02 -1.26085058e-01 -8.22294056e-02  1.88710578e-02
    8.93976167e-02  4.31071594e-02  1.40975013e-01 -1.46253556e-01
    5.04382476e-02  1.07008860e-01  1.23083577e-01 -1.11159310e-01
    1.11250207e-01 -8.37322995e-02  1.09414063e-01  4.38329875e-02
   -1.56917036e-01  1.02640249e-01 -8.48917365e-02 -1.61112577e-01
    1.40848950e-01 -2.00202148e-02 -1.38109606e-02 -2.03322414e-02
   -2.53350716e-02  1.42562956e-01  1.64155647e-01  1.33856878e-01
    4.83398885e-02  7.47910365e-02  3.50699238e-02  9.79361609e-02]
  [ 1.57895759e-01  1.51047468e-01 -1.43969893e-01 -1.63760930e-01
   -4.57565896e-02  8.36887360e-02 -1.21783027e-02 -4.51222695e-02
   -1.23900501e-02 -1.25745147e-01 -4.00097519e-02 -1.38207272e-01
    6.00022487e-02 -9.48753878e-02 -1.30670324e-01 -1.01086713e-01
    1.06041357e-01 -1.48680322e-02  2.86289025e-02  1.07882820e-01
   -7.21078217e-02 -1.04979821e-01  1.33915573e-01 -7.02440664e-02
    1.48325637e-01  1.09988056e-01  1.36499420e-01 -6.73914477e-02
   -1.19316648e-03 -5.17064764e-04  9.70161706e-02 -6.53439015e-02
   -1.17037117e-01 -1.23282462e-01 -9.02982205e-02  2.68249810e-02
    7.55294636e-02  5.39947897e-02  7.08903521e-02 -1.07628167e-01
    1.56054109e-01 -1.26399817e-02 -8.20403695e-02 -3.22313746e-03
   -5.71965761e-02  1.07578948e-01 -1.70269847e-01 -1.68669373e-02
   -1.09036922e-01  1.47671714e-01 -2.18294412e-02  1.36585176e-01
    5.19207027e-03  1.54171601e-01  1.61324311e-02  1.32230535e-01
   -1.20773487e-01  6.03111498e-02  1.62085965e-01 -1.53508782e-02
    5.35109565e-02  2.86412705e-02 -6.84070913e-03 -6.78581297e-02]
  [-1.24405455e-02  1.57958493e-01  2.65140384e-02  4.61459607e-02
   -1.50186121e-01 -9.47498437e-03  3.31660472e-02  7.69660845e-02
    8.87618959e-02  5.86184114e-02  6.54902160e-02  1.13808505e-01
    1.35534897e-01 -1.68559268e-01 -8.36605281e-02 -9.40442905e-02
   -1.28435139e-02 -9.37282592e-02 -1.22941248e-01 -9.50685367e-02
    7.64937997e-02  9.63402241e-02  2.62318216e-02  1.20464206e-01
   -1.27809227e-01  6.98920041e-02 -1.38993084e-01  9.07325298e-02
   -4.43847058e-03  1.59183189e-01 -1.15789920e-02  1.23953991e-01
   -1.60482109e-01  1.66145355e-01 -1.43970907e-01  2.06938311e-02
   -1.00969791e-01  2.41421610e-02 -9.43133384e-02 -1.48920596e-01
    7.37824813e-02  1.01830333e-03 -5.50696179e-02  7.95478225e-02
    8.74005705e-02  3.02010253e-02 -7.30082169e-02 -1.25693873e-01
    8.68823007e-02 -1.14938505e-01  4.66375649e-02 -8.68771151e-02
   -3.11857667e-02 -9.71032605e-02 -1.32145643e-01 -6.58891276e-02
    1.27288386e-01  6.42711744e-02 -6.25411943e-02  5.47449291e-02
   -1.51104972e-01  1.21634185e-01 -1.41625637e-02 -4.22709621e-02]]

 [[-1.26156226e-01  7.54615432e-03 -6.13925382e-02 -7.18243644e-02
    1.24409579e-01 -3.15452963e-02 -1.45604700e-01  6.64713085e-02
    4.32082787e-02  3.80550474e-02 -5.03755398e-02  1.27557680e-01
    1.58554375e-01 -1.37238353e-01  9.40292999e-02 -9.04515460e-02
   -1.29074618e-01  2.00715810e-02 -5.27206482e-03 -1.16592035e-01
   -3.13164964e-02  1.39429048e-01 -4.32243012e-02  2.99182199e-02
    5.01909629e-02  1.01651937e-01  2.57565379e-02  2.00500730e-02
    1.24639437e-01 -1.68603584e-02 -4.16648835e-02  7.27080181e-02
   -1.52911231e-01  1.42884493e-01 -1.43299550e-01  1.12877846e-01
   -1.23732142e-01  3.53964642e-02 -1.32062495e-01 -6.85498118e-02
    9.68006719e-03  1.47882685e-01 -2.37266766e-04  7.26155750e-03
    1.73536897e-01 -1.15950435e-01  1.93357782e-03 -1.64403543e-01
    1.09347939e-01 -1.64566979e-01  5.69234639e-02 -1.86409745e-02
   -1.50278762e-01 -9.95922983e-02 -1.02367759e-01  7.04747671e-03
    1.54885501e-01  1.31841257e-01 -9.09850150e-02 -1.32578507e-01
   -1.36998501e-02  5.54010272e-02  9.14080665e-02  5.15478617e-03]
  [ 1.16359673e-01  1.70817636e-02 -5.06622158e-02  1.64848581e-01
    2.11404804e-02 -6.09547049e-02 -3.72070470e-03 -6.64467039e-03
   -1.70191273e-01 -1.38415083e-01 -1.29430383e-01  9.85391960e-02
   -1.49755344e-01  3.73674929e-03  6.14389740e-02 -2.98772752e-02
   -1.17669046e-01  1.59950227e-01  6.37159944e-02 -1.11551151e-01
   -1.22669056e-01  8.62670094e-02  6.93490952e-02  1.57260001e-01
   -9.11559090e-02  1.51874751e-01 -1.29263267e-01 -2.84603535e-04
    1.10964738e-01  3.35504599e-02 -1.42942414e-01  7.21013872e-03
   -5.24394177e-02  3.79034989e-02  1.01741895e-01 -1.23196222e-01
    4.61548455e-02  1.54650047e-01 -1.77704394e-02 -1.53546959e-01
   -1.71071947e-01  1.62644237e-01 -8.57629851e-02 -1.09609932e-01
    5.52188605e-02  2.42043212e-02 -1.43629968e-01 -1.67985082e-01
   -4.27663289e-02  1.63942967e-02  1.54939547e-01 -1.06513135e-01
    1.37660310e-01  1.65423393e-01  1.08322203e-01 -1.24161594e-01
    3.43113691e-02  3.02707683e-03 -2.62649525e-02 -4.81758341e-02
   -5.60017563e-02 -6.12271018e-02  5.07176220e-02 -6.55701607e-02]
  [ 1.41229760e-02  9.29891970e-03 -1.70215219e-01  1.14450499e-01
    2.96346713e-02 -7.33124390e-02  1.43235987e-02 -6.06423616e-02
    1.14810638e-01  1.15435973e-01  8.65826458e-02  7.53899962e-02
    8.03298056e-02 -1.57575160e-01  1.27941817e-01 -6.88621178e-02
   -1.12162881e-01 -1.46839932e-01  1.16502926e-01 -1.08479674e-03
   -4.41093184e-02  1.02617256e-01 -2.23547183e-02 -5.23966029e-02
    1.81324203e-02 -7.08759129e-02  2.07014531e-02  1.62835464e-01
    2.57906076e-02 -8.42088312e-02  1.42561063e-01  1.55757174e-01
    1.33420512e-01  1.03858642e-01 -1.57250583e-01  1.61196619e-01
   -3.51315327e-02  1.95584988e-04 -1.60268158e-01  8.21534246e-02
   -5.90888038e-02 -4.00854722e-02  3.63032185e-02  1.52156457e-01
   -1.97124965e-02 -1.11968359e-02  3.64661068e-02 -9.11307856e-02
   -1.52695566e-01  9.27982703e-02  3.22357118e-02  8.21044743e-02
    4.50716168e-02  8.04087445e-02 -6.80219978e-02 -1.62847638e-01
   -1.12359514e-02  3.98444533e-02 -1.54766753e-01  1.01558194e-01
    1.47987142e-01 -9.22486559e-02  3.72311249e-02  1.51741877e-01]
  [-3.84173580e-02  1.75412387e-01  1.16518080e-01 -1.65334478e-01
   -1.76287070e-01 -1.50291249e-01  3.34311603e-03  1.41157612e-01
    7.34798387e-02 -8.75621587e-02  1.50906473e-01 -6.79276064e-02
   -1.91199388e-02  2.06049085e-02 -2.48809531e-02 -4.77676019e-02
    1.54009104e-01  5.71736395e-02  3.91537249e-02  1.18291639e-01
    1.14508040e-01 -2.76641455e-02 -7.28939800e-03 -6.60837963e-02
   -5.95369264e-02  1.00582607e-01 -1.27110779e-02  7.58128688e-02
    1.29158318e-01 -1.65201619e-01 -1.82802826e-02 -9.22055691e-02
   -1.26481473e-01  8.18277672e-02  1.49779633e-01 -1.23342015e-01
    1.08343095e-01  1.37597218e-01  4.52272892e-02 -2.19769627e-02
   -4.76073511e-02 -9.09595340e-02  1.34285428e-02 -8.10393021e-02
   -3.12232506e-02 -9.32099745e-02  5.87365925e-02 -7.15024471e-02
    1.84974313e-01  1.92143712e-02 -1.60887167e-01  1.35286927e-01
    1.54100180e-01  1.59234591e-02 -7.17384443e-02  1.15324356e-01
   -1.29512206e-01  1.67536676e-01  1.39738932e-01 -1.32741734e-01
   -1.29455756e-02  8.64054933e-02  1.04154587e-01 -1.18504629e-01]]

 [[-1.71808764e-01 -1.55531228e-01 -1.41137719e-01 -5.08102328e-02
   -6.71833158e-02  1.52428038e-02  1.89184817e-03 -1.33029595e-01
    1.00833617e-01 -7.92806596e-02  1.27967373e-01  1.39582857e-01
   -1.27755299e-01  9.65152234e-02 -1.09026857e-01 -5.50810769e-02
    4.76142615e-02 -4.34444807e-02  7.78003260e-02 -1.40633434e-01
    1.98951550e-02  1.66657060e-01  1.65445372e-01  1.30738050e-01
   -9.94404405e-02 -8.79608616e-02 -1.02867320e-01 -1.48832202e-01
    5.88398837e-02  1.66385189e-01  1.48463845e-02 -7.78596848e-02
    7.04679340e-02 -6.14261888e-02  9.08057988e-02 -1.55600891e-01
   -6.50754422e-02  4.65939865e-02  8.69071335e-02 -2.28010416e-02
   -6.85753003e-02  4.37360033e-02  2.21714582e-02  9.20006260e-02
   -1.53220473e-02  5.59504852e-02  4.96479981e-02 -1.19424939e-01
   -6.44414350e-02  1.12389944e-01 -9.85601768e-02  1.46756647e-02
   -9.06582624e-02  8.84837955e-02 -6.18187673e-02  2.33165137e-02
   -1.21706957e-02 -1.32975787e-01 -1.79473292e-02  2.65803933e-02
    1.66629031e-01  4.00425754e-02 -6.28317986e-03 -1.32307047e-02]
  [-8.98598414e-03  1.77804890e-04 -6.44888878e-02 -1.69501022e-01
   -4.99110622e-03  1.09131396e-01  2.36614095e-03  1.13644106e-02
   -1.14722596e-03 -1.16855100e-01 -2.74960808e-02  1.25167638e-01
   -9.88158062e-02  9.95135307e-03  1.24676131e-01 -1.51077092e-01
    1.07928604e-01  4.96923365e-02  1.26907885e-01 -6.18921071e-02
    2.72102635e-02  2.21477766e-02  1.37660772e-01 -3.77951898e-02
   -1.33489907e-01 -1.46027029e-01 -8.99859071e-02  1.20397680e-01
   -8.91850814e-02 -1.05933614e-01 -8.71712714e-02  1.52917638e-01
    9.86340176e-03  7.60719255e-02  1.50456652e-01  3.68958227e-02
   -1.79698376e-03 -1.27629384e-01 -8.95586610e-02 -6.96074739e-02
   -1.56776324e-01 -8.15643445e-02  8.13114792e-02  2.97848489e-02
   -7.03582764e-02 -8.88302028e-02 -1.60198674e-01  1.53350532e-02
    1.83402486e-02  7.51721859e-02 -1.39066637e-01 -8.52228999e-02
    9.25170779e-02  6.22618720e-02 -1.28817052e-01  9.41233039e-02
    1.50758652e-02 -3.70837301e-02 -1.32931009e-01  4.95379567e-02
    1.61962658e-01 -1.31125242e-01 -8.27958435e-02  1.69386610e-01]
  [ 1.58042699e-01 -5.99684231e-02 -1.21604092e-01  6.52509779e-02
   -8.46847370e-02  3.72184105e-02 -1.33512104e-02  1.64635360e-01
    9.97869894e-02 -1.80792809e-03 -3.64361070e-02  1.63250789e-01
   -1.39034152e-01 -7.20467940e-02 -1.06784388e-01 -1.46330878e-01
    7.21867848e-03 -2.66439263e-02  8.31148326e-02  1.08278558e-01
   -4.88411672e-02  2.91592851e-02 -1.53410546e-02  8.23270902e-03
    5.38332686e-02  3.31313834e-02 -7.22351670e-02 -7.29129612e-02
   -4.27330807e-02  8.48635882e-02 -1.08698629e-01 -7.02800155e-02
    9.87405330e-02 -7.07685426e-02  9.81635973e-02  4.83292015e-03
   -1.12283364e-01 -1.57827228e-01 -1.65396929e-01  2.82571018e-02
   -4.01373617e-02  9.11166146e-02  2.71255691e-02  1.42038897e-01
   -1.18756339e-01  5.40633611e-02 -1.58301592e-02 -5.40491939e-03
    7.74011835e-02 -4.77291122e-02  1.07340440e-01 -1.20793581e-01
   -1.60135299e-01  1.46193311e-01  2.87817661e-02  1.63433731e-01
   -3.20287645e-02 -1.54729888e-01 -1.59433797e-01 -1.23559535e-02
    1.36757977e-02  9.64038372e-02  2.61683464e-02 -1.50751099e-01]
  [ 2.50042025e-02 -3.12605761e-02 -1.60616953e-02 -7.50041306e-02
    1.58014402e-01 -5.85287027e-02  6.10542558e-02  1.42379731e-01
    6.46843165e-02 -6.76164925e-02 -9.84544605e-02 -1.46955803e-01
    1.07640997e-01  2.89046913e-02 -1.03957420e-02 -8.92163068e-02
    1.58196375e-01  6.45816475e-02  1.85484290e-02  1.70319632e-01
   -2.39351410e-02 -1.74525931e-01  1.60430983e-01  1.23994350e-01
   -9.19020697e-02  1.35141596e-01 -1.12615086e-01  1.43121779e-01
    8.90230611e-02  6.83686510e-02 -8.57543200e-02  1.35203406e-01
    6.48537725e-02 -1.59123912e-01 -1.25617728e-01  8.73298869e-02
    1.67870343e-01 -8.52177441e-02 -4.06372249e-02  9.39352363e-02
   -8.56758188e-03 -1.53180152e-01  1.28840590e-02 -1.29895434e-01
    4.26578149e-02  4.60223109e-02 -4.81151156e-02 -1.48812369e-01
   -6.70212656e-02 -1.04226589e-01 -1.34114519e-01 -4.12487239e-02
    6.87369481e-02  7.33580515e-02  1.59808218e-01  1.24134392e-01
    9.49023068e-02  7.58440495e-02  6.11861721e-02 -6.92152306e-02
   -1.68226719e-01 -4.68304235e-04  1.64976537e-01  1.05918407e-01]]]
conv1d_10/bias:0
(64,)
[-0.00616526  0.00455651 -0.00419682  0.         -0.00830673 -0.0187284
  0.02043637  0.00316612  0.00331789  0.          0.00171034 -0.00275903
  0.00735221  0.         -0.01485874  0.          0.00770419  0.00880512
  0.0041447   0.01660975  0.02183829 -0.01226148  0.00683779  0.00718606
 -0.00278626  0.00535307  0.          0.00388249 -0.01143261 -0.00215789
  0.         -0.00396569  0.00332498  0.00659844 -0.003238   -0.0012358
  0.00569119  0.00234911  0.          0.         -0.00294027 -0.01424253
  0.00512288 -0.00446745  0.00425951 -0.005849   -0.00048254  0.
  0.01561033 -0.0090586   0.         -0.00349262  0.00584414 -0.00451915
  0.00807586  0.00501852  0.01369501  0.00500401  0.00117001  0.
 -0.00118584 -0.00059202  0.00141833  0.00631849]
conv1d_11/kernel:0
(3, 64, 64)
[[[-0.09959955  0.09865232  0.0699276  ...  0.1252855  -0.05889577
    0.03549917]
  [ 0.0370367  -0.04189058  0.07502809 ...  0.0011634   0.03749797
   -0.14380652]
  [ 0.1046721   0.05295845  0.07400399 ...  0.09603153 -0.09372674
   -0.12525082]
  ...
  [ 0.02816341  0.03936471 -0.03793782 ... -0.07478672  0.05670772
    0.04889068]
  [ 0.03976698  0.11014102 -0.11104569 ... -0.08309972 -0.06438577
   -0.01213669]
  [-0.04242268  0.04411794 -0.02989605 ...  0.10679913  0.05258234
   -0.11739277]]

 [[ 0.09584478  0.06644028 -0.09861338 ... -0.05848918  0.06444535
    0.01982716]
  [-0.06611948  0.00337515 -0.0288499  ...  0.0982408   0.00129002
   -0.03805466]
  [-0.04904624 -0.09557324 -0.06181487 ...  0.10953917 -0.10768119
    0.00388504]
  ...
  [-0.11577154  0.0648362  -0.09996575 ...  0.08288856  0.06125518
    0.03693735]
  [ 0.09127753  0.07881331 -0.08913803 ... -0.01214194  0.07277332
   -0.04969295]
  [ 0.06556803  0.05626616  0.11677846 ... -0.06412262  0.10743246
    0.00246821]]

 [[-0.05997565 -0.08949227  0.05249149 ... -0.03491046 -0.02982436
    0.07107977]
  [-0.1066444   0.03073342 -0.08524185 ... -0.11162633 -0.00900901
    0.0980873 ]
  [-0.07700256 -0.09084521  0.04419926 ... -0.06755027  0.09608939
   -0.12424319]
  ...
  [ 0.02096234  0.0939846  -0.09932113 ... -0.08636618 -0.04498273
    0.12406805]
  [-0.09742032  0.11582726 -0.11671379 ... -0.06025614 -0.03994161
   -0.04279805]
  [ 0.11385989  0.11446194 -0.05203328 ... -0.12501715  0.04523982
    0.05992935]]]
conv1d_11/bias:0
(64,)
[ 8.3442428e-04  1.1216846e-03  0.0000000e+00  1.1460404e-02
 -7.1408710e-04  4.0876586e-03  0.0000000e+00  8.6398190e-03
  6.8888054e-03 -4.8460434e-03  0.0000000e+00  1.9117797e-02
 -4.1193152e-03 -3.5630368e-05  7.6147881e-03  8.4532965e-03
 -4.8488150e-03  8.1796590e-03  7.4481452e-04  7.5286324e-03
 -1.5824600e-03  5.4889927e-03  8.0740582e-03  7.1979483e-04
  1.0684942e-02 -7.7047111e-03  7.7256775e-03 -1.8589069e-03
  6.8989396e-03 -2.4192757e-03  0.0000000e+00  7.9225255e-03
  4.3553027e-04 -1.1517548e-02  6.0480097e-03 -1.7117891e-04
  0.0000000e+00 -2.7774789e-04  1.2706409e-02  1.6573209e-02
 -7.4287867e-03 -2.2025888e-03  8.5183606e-03 -5.0409917e-06
  1.6170770e-05  1.9254367e-05  0.0000000e+00  1.6359701e-03
  2.8673417e-04  1.2576472e-02  4.8818262e-03  0.0000000e+00
  6.9917673e-03 -2.3809227e-03  1.4436159e-02  8.4229698e-03
  4.9327535e-04  3.1234471e-05 -2.6668012e-03 -1.9745575e-02
  7.9649091e-03  1.1248438e-02  6.7475131e-03  4.2266366e-03]
batch_normalization_5/gamma:0
(64,)
[1.0029095  1.0112361  1.         1.0061251  1.0080867  1.0039216
 1.         1.0021123  1.0017269  0.99612117 1.         1.0097386
 0.9979395  1.0061924  0.99823976 1.0050724  0.99515843 0.9967676
 1.0022995  1.0167925  1.0023923  1.0041167  1.0137216  1.0023054
 1.0111512  0.9969542  1.0163924  0.99887717 1.0039551  0.99887276
 1.         1.0079184  1.0050348  0.99795264 1.0097915  0.999973
 1.         0.99510294 1.0097476  1.0115274  0.9947472  0.9966225
 1.017248   0.9918435  1.0056424  0.9942416  1.         1.0048941
 1.0058771  1.0153829  1.0052763  1.         1.0035062  0.99881184
 1.0063901  0.99715495 1.0005296  0.9971056  1.000366   0.9965197
 1.005961   0.9983336  0.9941802  1.0166901 ]
batch_normalization_5/beta:0
(64,)
[ 9.85298422e-04  1.54101290e-02  0.00000000e+00  1.36484150e-02
  1.22688990e-02  7.55489524e-03  0.00000000e+00  1.35052307e-02
  7.21054804e-03 -4.19856422e-03  0.00000000e+00  1.59477256e-02
 -2.45927204e-03  1.12746730e-02  4.83784545e-03  9.92465019e-03
 -4.76709055e-03 -8.47294632e-06 -3.97179625e-04  2.03555897e-02
 -1.40254991e-03  8.03129934e-03  1.78546198e-02  5.30034117e-03
  1.71372686e-02 -4.24286630e-03  1.77999623e-02 -1.78351463e-03
  1.02977315e-02 -1.51794113e-03  0.00000000e+00  1.31727876e-02
  6.61123078e-03 -3.13890376e-03  3.20492731e-03  1.84294581e-02
  0.00000000e+00 -2.42527202e-03  1.49859386e-02  1.73289385e-02
 -5.09901997e-03 -2.08477420e-03  1.89639218e-02 -9.24522895e-03
  9.57668852e-03 -7.97864981e-03  0.00000000e+00  7.84837548e-03
  8.46854225e-03  1.75814312e-02  8.86916555e-03  0.00000000e+00
  8.19488522e-03 -1.49260031e-03  1.53183229e-02 -2.78418348e-03
 -5.42263297e-05 -1.91119127e-03 -2.21677544e-03 -5.31316083e-03
  1.14347190e-02  5.65696368e-03 -2.68799393e-03  1.86293535e-02]
lstm_10/lstm_cell_10/kernel:0
(64, 200)
[[ 0.05170395  0.12384601 -0.06833537 ...  0.11431051  0.0339394
  -0.12169343]
 [ 0.07630678  0.12574343  0.12839065 ... -0.12640415  0.11821076
   0.01658876]
 [ 0.04083087 -0.05133843  0.01424092 ... -0.08740705 -0.07555403
  -0.11316348]
 ...
 [ 0.08328799  0.02348769  0.14844692 ... -0.09477689  0.01355516
  -0.14275053]
 [ 0.05750006  0.00961734  0.05822147 ...  0.06391054  0.02153281
   0.07251853]
 [ 0.12604184 -0.12821817 -0.06322226 ...  0.08226264  0.0746379
  -0.00813589]]
lstm_10/lstm_cell_10/recurrent_kernel:0
(50, 200)
[[ 0.00799313  0.08952121 -0.01395307 ...  0.03287671  0.0889064
  -0.00889424]
 [-0.14605317 -0.07089853  0.10084734 ... -0.04284132  0.08262224
  -0.05036651]
 [ 0.09714878 -0.12734778 -0.04812659 ...  0.00733259  0.04296485
   0.0244783 ]
 ...
 [ 0.02028426  0.05818099 -0.0551028  ... -0.00797661 -0.07488455
   0.07039346]
 [ 0.03651965  0.02558972  0.00591743 ...  0.00796071  0.00221699
   0.00163698]
 [ 0.02787851  0.02916846 -0.00730378 ... -0.02623611 -0.08390238
   0.12455428]]
lstm_10/lstm_cell_10/bias:0
(200,)
[ 8.62308778e-03  9.21328459e-03  9.11385659e-03  6.96624117e-03
  7.20725534e-03  7.30061019e-03 -1.52678350e-02  1.16754388e-02
  3.25678993e-04 -5.88620361e-03  5.70594147e-03  3.92360147e-03
 -3.97264492e-03  1.23294173e-02 -5.87936770e-03  6.92376541e-03
  5.63979102e-03 -6.96226271e-05  5.97688602e-03 -3.22872167e-03
  7.60581391e-03 -3.29724303e-03 -1.36946095e-03 -6.78893551e-03
  6.06507470e-04  5.59214083e-03  1.14196846e-02  6.83629001e-03
  5.29929390e-03  1.12175930e-03  2.61131860e-03 -4.89892066e-03
  6.44240668e-03  1.51873869e-03  1.15111312e-02  6.75269635e-03
 -3.15632438e-03  9.50377248e-03 -2.37445766e-03  6.48607453e-03
  2.74320110e-03  1.38472030e-02  1.76937506e-02  1.71659477e-02
 -2.91726622e-03 -1.01548806e-03  1.09864930e-02  1.20088290e-02
  7.01632211e-03  9.74373147e-03  1.00279069e+00  1.00809014e+00
  1.00909388e+00  1.00536609e+00  1.00444651e+00  1.00597143e+00
  9.96407926e-01  1.00911319e+00  9.96785641e-01  9.93811607e-01
  1.00543714e+00  1.00213099e+00  9.96307790e-01  1.01021123e+00
  9.92960989e-01  1.00579560e+00  1.00408173e+00  9.98448491e-01
  1.00156593e+00  9.96846259e-01  1.00804698e+00  9.97830868e-01
  9.98886943e-01  9.93860424e-01  9.99885678e-01  1.00543904e+00
  1.00769424e+00  1.00441086e+00  1.00514555e+00  9.99612033e-01
  1.00197327e+00  9.94555712e-01  1.00888336e+00  9.97824430e-01
  1.01078093e+00  1.00735569e+00  9.96988416e-01  1.00806499e+00
  9.96490836e-01  1.00165415e+00  1.00004411e+00  1.01499403e+00
  1.01072383e+00  1.00820494e+00  9.94027495e-01  1.00470459e+00
  1.00834262e+00  1.00685406e+00  1.00742328e+00  1.00994813e+00
  1.87963042e-02  1.55980503e-02 -1.32369176e-02 -1.83491707e-02
  1.19625945e-02  1.21623827e-02 -8.86681862e-03 -1.59957986e-02
  1.02054970e-02  7.40875909e-03 -1.27081573e-02 -1.23021891e-02
 -1.03338202e-02  1.38119450e-02 -9.00096074e-03  1.33691272e-02
  1.17933014e-02  1.09137911e-02  1.60187390e-02  7.64268590e-03
  1.37359165e-02  6.60881866e-03  1.24753304e-02 -9.78480093e-03
 -8.64696037e-03  1.35625750e-02 -1.16241500e-02  1.14079872e-02
  1.32979602e-02 -1.30464900e-02 -5.45032974e-03 -1.07361833e-02
 -1.85251292e-02  1.37271686e-02 -1.49419112e-02  1.30790593e-02
 -7.81375915e-03  1.49548650e-02  6.25535334e-03  9.75095760e-03
  1.21260043e-02  1.93267688e-02 -1.75650548e-02  1.84608679e-02
 -1.05343834e-02 -1.30037591e-02  1.50451781e-02 -1.35343755e-02
 -1.40940137e-02 -1.64336246e-02  7.90492352e-03  6.36949344e-03
  9.94057395e-03  5.57128154e-03  7.71881547e-03  5.72578376e-03
 -8.54809210e-03  9.08638816e-03 -6.65029220e-04 -6.79541240e-03
  8.40580184e-03  2.57805968e-03 -3.50220664e-03  1.00010606e-02
 -6.31675543e-03  7.08512962e-03  5.07953810e-03  3.79064411e-04
  5.78746572e-03 -2.26723915e-03  6.88747596e-03 -3.18810809e-03
 -6.47885201e-04 -6.81618135e-03  5.52941114e-04  4.21374291e-03
  7.72448862e-03  1.41376874e-03  4.87832213e-03  1.12667831e-03
  2.52922485e-03 -4.94408514e-03  6.46025641e-03  5.30318939e-04
  9.96014383e-03  6.49092859e-03 -4.02402040e-03  9.67044104e-03
 -2.58250511e-03  4.43141302e-03  3.06638866e-03  1.41506335e-02
  1.24932406e-02  1.47012901e-02 -3.41508514e-03 -4.13014262e-04
  9.07838903e-03  7.51855271e-03  5.64154703e-03  7.25152949e-03]
lstm_11/lstm_cell_11/kernel:0
(50, 240)
[[ 0.00379722  0.06804047 -0.0321396  ...  0.1141696  -0.07966498
  -0.10280342]
 [-0.07713292 -0.13165733  0.01548809 ... -0.02657502 -0.01726044
  -0.12294935]
 [ 0.10068227 -0.01907161  0.00962893 ...  0.07474639 -0.13526188
  -0.09836186]
 ...
 [-0.1090629   0.02924529 -0.06076518 ...  0.04345726 -0.08367646
  -0.10993268]
 [-0.1103972   0.02977662  0.02664324 ... -0.12190784  0.11820087
   0.03645088]
 [ 0.03837245 -0.13526215  0.04877128 ...  0.12335448  0.1081472
   0.07845197]]
lstm_11/lstm_cell_11/recurrent_kernel:0
(60, 240)
[[-0.02847049 -0.05831877 -0.00526438 ...  0.10253903  0.03257769
  -0.0611436 ]
 [ 0.1546023   0.03546412  0.06563688 ... -0.00837831 -0.09612013
   0.05586118]
 [ 0.03527657 -0.03734241 -0.05467756 ... -0.11862359 -0.01253373
  -0.07020401]
 ...
 [-0.05177645 -0.0301831   0.07189797 ... -0.05360753 -0.10370527
   0.03666921]
 [-0.02739631  0.06707844  0.08564081 ...  0.00599295  0.06596666
  -0.00576751]
 [ 0.02417159  0.05459808  0.04217212 ...  0.10455949 -0.08686493
  -0.0929793 ]]
lstm_11/lstm_cell_11/bias:0
(240,)
[ 1.95823377e-03  7.01292045e-03  8.23302194e-03  7.97101110e-03
  1.64065994e-02  5.62753296e-03 -1.48944347e-03  1.01536363e-02
 -4.31935186e-04  5.34048770e-03  5.00021316e-03  1.94328837e-03
  8.38082749e-03  6.91166008e-03  5.53658465e-03  5.67483669e-03
  1.18866218e-02 -3.92003683e-03 -1.31468300e-03  1.09629193e-02
 -4.53149574e-03  8.94417334e-03  8.13318975e-03  9.45706293e-03
  1.28028635e-03  7.84233864e-03  7.70674367e-03  5.13230171e-03
  1.22705745e-02  8.54000449e-03  1.14238737e-02 -6.96190586e-03
  4.13221121e-03  6.45041186e-03  6.11868454e-03  7.28262775e-03
  1.52732013e-03  1.45228663e-02 -8.25765915e-03  1.34154651e-02
  5.00443671e-03  5.23745036e-03  7.88323674e-03  6.04474125e-03
 -6.97172666e-03  5.87278372e-03  9.09653027e-03  9.01070889e-03
  9.86378361e-03  5.90740889e-03  9.45580006e-03  3.44585744e-03
  4.99582617e-04  2.47628137e-04  7.70345284e-03  1.12130502e-02
  6.68928260e-03  7.08854338e-03  1.18728774e-02  6.69370731e-03
  1.00115681e+00  1.00589395e+00  1.00820613e+00  1.00705481e+00
  1.01661956e+00  1.00600326e+00  9.98352408e-01  1.00854027e+00
  9.99535918e-01  1.00648284e+00  1.00572884e+00  1.00344002e+00
  1.00921404e+00  1.00677323e+00  1.00487566e+00  1.00566983e+00
  1.01158762e+00  9.95938361e-01  9.98480976e-01  1.00951564e+00
  9.96498883e-01  1.00845575e+00  1.00751853e+00  1.00689304e+00
  1.00374806e+00  1.00549018e+00  1.00393200e+00  1.00442493e+00
  1.01093936e+00  1.00752807e+00  1.00995874e+00  9.93626952e-01
  1.00338614e+00  1.00579441e+00  1.00531781e+00  1.00671279e+00
  1.00131118e+00  1.01225972e+00  9.93745208e-01  1.01176977e+00
  1.00406730e+00  1.00717962e+00  1.00738418e+00  1.00715160e+00
  9.93441164e-01  1.00558579e+00  1.00797606e+00  1.00855279e+00
  1.00859213e+00  1.00394142e+00  1.00872922e+00  1.00277853e+00
  1.00069535e+00  9.99767363e-01  1.00769997e+00  1.01042616e+00
  1.00699818e+00  1.00746012e+00  1.01166022e+00  1.00585628e+00
 -1.06624709e-02  1.04918536e-02  1.20037897e-02  9.60772391e-03
 -2.08178181e-02 -1.11637861e-02  1.22584496e-02 -1.23458141e-02
  1.10169789e-02 -1.12176882e-02 -1.05903484e-02  1.12066017e-02
  1.18958252e-02  1.27120521e-02  1.01577025e-02  9.60385706e-03
 -1.24621661e-02  1.10109057e-02  1.09286811e-02  1.78004410e-02
  1.10227726e-02  1.06736589e-02  1.24304043e-02  1.11188777e-02
 -1.06917331e-02  1.26694152e-02  1.21197812e-02 -9.84634552e-03
 -1.24020176e-02  1.04198689e-02 -1.30723529e-02 -1.19620562e-02
  9.63860657e-03  1.22872079e-02  1.02361403e-02 -9.93338879e-03
 -1.05996272e-02  1.28565663e-02  1.14369011e-02  1.66559406e-02
 -1.05660455e-02 -1.08452495e-02 -9.64018609e-03  1.16131706e-02
  1.06370132e-02  1.09733110e-02 -1.04520433e-02  9.89346392e-03
  1.73093174e-02  1.04659563e-02 -6.85070828e-03  1.04464255e-02
  1.05441930e-02  1.05157886e-02  1.00403801e-02 -1.23768235e-02
  1.08513841e-02 -1.15164109e-02  1.59072410e-02 -1.09944660e-02
  1.70038827e-03  6.37856266e-03  8.42815079e-03  7.36575713e-03
  1.66933388e-02  5.16202906e-03 -1.59066799e-03  9.06624924e-03
 -1.48825537e-04  5.20684570e-03  4.62299073e-03  1.94425241e-03
  7.96336867e-03  6.64989464e-03  4.46696533e-03  5.10248030e-03
  1.28630381e-02 -4.07207478e-03 -1.66313944e-03  1.04037896e-02
 -4.57586162e-03  7.92384148e-03  7.71085033e-03  9.20460653e-03
  4.06212814e-04  6.79902080e-03  6.36724010e-03  4.09851735e-03
  1.23317065e-02  7.93649629e-03  9.46159288e-03 -6.72588358e-03
  3.29520181e-03  6.21099118e-03  6.35285350e-03  6.68343855e-03
  1.45926198e-03  1.42556159e-02 -8.06713104e-03  1.29079940e-02
  5.24969818e-03  4.84360009e-03  7.47527182e-03  6.05270267e-03
 -6.53796084e-03  5.25832828e-03  9.71314870e-03  8.12408235e-03
  1.00535341e-02  6.29458902e-03  1.05312588e-02  3.13058170e-03
 -1.37151757e-04 -8.84832916e-05  7.82093126e-03  1.03823151e-02
  6.35359110e-03  6.90198550e-03  1.14565166e-02  6.26067584e-03]
dense_10/kernel:0
(60, 1)
[[-0.20045598]
 [ 0.16618586]
 [ 0.09573127]
 [ 0.27508903]
 [-0.04095991]
 [-0.14893635]
 [ 0.09063976]
 [-0.09319291]
 [ 0.0670779 ]
 [-0.18750042]
 [-0.22661863]
 [ 0.13952646]
 [ 0.05729325]
 [ 0.03621453]
 [ 0.2358172 ]
 [ 0.29280016]
 [-0.11898851]
 [ 0.29332983]
 [ 0.17625992]
 [ 0.02099641]
 [ 0.276389  ]
 [ 0.18311596]
 [ 0.08577523]
 [ 0.16255519]
 [-0.13464603]
 [ 0.07024565]
 [ 0.09184201]
 [-0.26362815]
 [-0.09349865]
 [ 0.22886546]
 [-0.07030269]
 [-0.2855804 ]
 [ 0.2923407 ]
 [ 0.06747888]
 [ 0.29925025]
 [-0.25769565]
 [-0.2600386 ]
 [ 0.10945351]
 [ 0.2100607 ]
 [ 0.05049105]
 [-0.19681989]
 [-0.24818581]
 [-0.2919833 ]
 [ 0.08545161]
 [ 0.07103242]
 [ 0.23505543]
 [-0.16467355]
 [ 0.29004878]
 [ 0.03562506]
 [ 0.27915248]
 [-0.04318514]
 [ 0.29715016]
 [ 0.2439434 ]
 [ 0.26350656]
 [ 0.22939864]
 [-0.1088701 ]
 [ 0.2403742 ]
 [-0.06829648]
 [ 0.04532783]
 [-0.14850576]]
dense_10/bias:0
(1,)
[0.01127036]
