conv2d_16/kernel:0
(3, 3, 1, 64)
[[[[-0.09855307  0.01193985 -0.0736651   0.00956046 -0.04728885
     0.08891743 -0.03892183 -0.03859117 -0.05849646 -0.03064823
    -0.07731249  0.08641773  0.08594053  0.10249845  0.09164251
     0.07302184 -0.00707715  0.05481688  0.08897902 -0.06145314
     0.05803261  0.07532287  0.0092015   0.0456654  -0.03212594
     0.0607806  -0.02553789 -0.0538842  -0.03785279 -0.07069405
    -0.06978656  0.09877951 -0.04772008 -0.0128879   0.05441416
     0.05421118 -0.09038384 -0.06079039 -0.03182625 -0.07485092
    -0.04159319 -0.0316995  -0.09150255 -0.09667674  0.01574618
     0.02470682 -0.06895377 -0.06660268  0.02112757  0.00695533
    -0.0598198  -0.0035825  -0.0950828  -0.02719771 -0.04326537
     0.08252616 -0.02732094 -0.03488719 -0.04965536  0.02365854
    -0.0261258   0.07964423 -0.07795084  0.04919177]]

  [[ 0.09194719  0.06900454 -0.10033602 -0.02835822  0.05939062
    -0.02923767 -0.06246312  0.01506392  0.07639164  0.02416111
     0.05625494  0.08129536 -0.07098972  0.03198337  0.07599641
    -0.06170729 -0.04116778  0.03213794 -0.01572195 -0.00037646
     0.0782212  -0.03053447 -0.02813085 -0.02821808  0.01710013
    -0.05759517  0.00269345  0.04489939  0.08481419  0.07103048
    -0.05453973  0.10950139  0.03624118 -0.0756999  -0.09427202
    -0.0881203  -0.09273177  0.07996807  0.00879667  0.01589943
    -0.05910734  0.04409253  0.04545666  0.00018719  0.06744944
    -0.00428039  0.05191446 -0.01994346 -0.04285286 -0.01668051
     0.03291291  0.04183258  0.02699816  0.06427647 -0.0217632
     0.05661143  0.08576854 -0.06470122 -0.05232324 -0.03608285
     0.04649356 -0.03888132  0.08238005 -0.05891193]]

  [[-0.09840585 -0.0723872  -0.01953463  0.09504008  0.08090059
    -0.0990553  -0.0215222  -0.01981566  0.06941094 -0.06074514
     0.03355407 -0.0485849   0.05267467 -0.0656217  -0.09209749
    -0.09786139  0.05772033  0.00200346  0.05606861 -0.02234196
     0.08536878 -0.07654589  0.02556416  0.01270816  0.10352539
     0.0560556  -0.02796427 -0.09964957 -0.0824034   0.04234533
    -0.00997933 -0.05532157 -0.05730871 -0.06633954  0.02433456
     0.05326803  0.02390558  0.07298756  0.03364179  0.02328651
    -0.09465692 -0.08800124 -0.04228946  0.02681429  0.04113954
    -0.03819595 -0.07588162  0.00485134  0.06693098 -0.07701527
     0.02503979  0.10647722  0.0462639   0.08206595  0.09778941
    -0.00061868 -0.07780911 -0.13915293 -0.02214634  0.04296791
    -0.0050407   0.03337823 -0.07216258 -0.02519836]]]


 [[[ 0.09267921 -0.08173078 -0.05221267 -0.03070399 -0.04155611
    -0.04837409  0.03872033 -0.10170911  0.07213262 -0.03524353
     0.02647356  0.02080181 -0.01739851  0.02489949  0.09805813
     0.01575653 -0.05113302 -0.08874363 -0.01907858 -0.10771948
     0.0498809   0.0634271  -0.08481162 -0.09893604 -0.02310986
     0.03808837  0.02050249 -0.05683028  0.06188931  0.00193905
    -0.04803985 -0.08150623  0.01574282 -0.06880768 -0.08204728
     0.00424128 -0.0107161   0.03839415  0.02926944  0.0433876
    -0.04693474  0.06499897 -0.04259374  0.01815603 -0.11004269
    -0.04121048 -0.03574407  0.05393114 -0.06929143 -0.09857945
     0.01565861  0.09146577 -0.07409723  0.05672744  0.05385328
    -0.04475011 -0.00842197 -0.04100282  0.09085561 -0.0633669
    -0.08529074  0.07378662 -0.00843488 -0.08764609]]

  [[-0.04628052 -0.09593503  0.08655852 -0.08174918 -0.04994171
    -0.01991584  0.05441327 -0.08597344  0.05370396 -0.04230497
     0.05769044 -0.03429059  0.07994697  0.09275511  0.00073632
    -0.08022474  0.10262913  0.08407481  0.06678648 -0.00953833
    -0.08324236  0.01966394 -0.09752806 -0.05633448  0.09306084
    -0.06334125  0.07295345 -0.0727289  -0.0673651   0.02276431
     0.01788658 -0.057141    0.06571744 -0.0626018   0.053498
    -0.05123068  0.07268304 -0.03700275  0.00536955 -0.08464383
     0.05675264 -0.02331433 -0.01655257 -0.04479922  0.05338757
    -0.07160056 -0.08151481  0.08806425 -0.08408298 -0.03270064
     0.07592335  0.05930389  0.0940063  -0.02561819 -0.10136212
     0.01712858  0.09049217  0.10716616  0.02728887 -0.03997543
     0.0365948  -0.00205701  0.088197    0.03464242]]

  [[ 0.03721585  0.04469879 -0.08276249 -0.07357592  0.04965068
     0.03577907  0.09500937  0.00035347 -0.03150926 -0.00921082
     0.01030344  0.02273631 -0.02329086 -0.08539737 -0.06922875
    -0.01234113 -0.00951825 -0.02972842 -0.07727914  0.00168408
     0.06995691  0.04107837 -0.012584   -0.06909798 -0.01624111
     0.06137867  0.09238546 -0.05923538  0.01660215 -0.0748494
    -0.09993659  0.06418903  0.03736659 -0.08814    -0.04671756
     0.03645028  0.01234332  0.00255623  0.06685238  0.05917409
     0.04416784 -0.06927098 -0.00458237 -0.02128056  0.0165707
    -0.07719238 -0.01176525 -0.04864001  0.00181693  0.02253993
    -0.07152487 -0.04488836  0.04298333 -0.09157373 -0.08133804
    -0.01501829  0.02038235  0.01785045  0.09541304 -0.10009867
     0.03887378 -0.02846108  0.05872553  0.02385881]]]


 [[[-0.0907405   0.05175582 -0.02225236  0.04314363  0.08509881
     0.05480297 -0.03860213 -0.10451885  0.01944     0.08652158
    -0.00952512 -0.07864917 -0.05711995  0.02334035  0.01320046
     0.05180992  0.0605521   0.04514599 -0.0774142   0.04995475
    -0.00154328 -0.00301918  0.07845925 -0.06866249 -0.01585815
    -0.09212961  0.05555226  0.00081514  0.03737739  0.10053605
    -0.07867178  0.0300938   0.02085834 -0.02485976 -0.07847591
    -0.07178639  0.06556796  0.09081706 -0.07745358 -0.11086406
    -0.00073439 -0.008494   -0.01826132  0.00044587 -0.00283747
     0.00274958 -0.0388286   0.07201046  0.05086953 -0.09566849
     0.05830792 -0.03536021 -0.03934792  0.10912861  0.05161096
     0.06587625  0.09484316  0.10780725  0.09331028  0.07742153
     0.08719211 -0.04616317 -0.09370871  0.06705845]]

  [[-0.02755606 -0.05814611  0.06497298  0.00510187  0.04947872
     0.05561197  0.09417708  0.08909916 -0.06583468  0.06784246
     0.02822952 -0.00353068 -0.09682532 -0.00981715  0.05522387
    -0.02580481 -0.04763131  0.01299348  0.06974071  0.06040777
    -0.0167263  -0.06699377  0.05358882 -0.03319555 -0.07765061
     0.09482919 -0.03941692 -0.09451786 -0.07511179  0.10660381
    -0.02982008 -0.00598245  0.03465849  0.01720924 -0.03867543
    -0.08174095  0.06834463  0.06384062  0.06031154 -0.03496795
     0.07113923  0.01570867  0.00324308  0.05140733 -0.07747279
    -0.06999577  0.08218073 -0.01607133 -0.00188693 -0.06812064
    -0.07064397  0.01799696  0.01746625  0.0933382  -0.03743393
    -0.0490842   0.00146109  0.03636477  0.02519845 -0.10028569
    -0.0914887   0.05486862  0.02011543  0.00808733]]

  [[-0.09174172 -0.04545183 -0.05631523 -0.01809977 -0.09963985
    -0.08958377 -0.06886376  0.10588834  0.00256347 -0.09178503
     0.0372448  -0.0391739   0.07790814  0.0414303  -0.02238781
    -0.00453522  0.01165504  0.00708137  0.0875906   0.00233072
    -0.04750736  0.05885217  0.07610521 -0.03549146  0.07443912
     0.04750815 -0.02059818 -0.03803541 -0.01015168  0.07166845
    -0.01595362 -0.08175704 -0.05851661 -0.06793021  0.01914425
     0.01843799 -0.09526753  0.01637466 -0.06198325 -0.04012426
     0.06332009 -0.01617062 -0.03045903  0.06564405  0.02105693
    -0.07496669  0.08769687 -0.07525517  0.08118711  0.06355792
     0.02061174  0.10534856  0.06045475  0.02274691 -0.10470343
    -0.01390783  0.08080655 -0.09146467 -0.09280908  0.03501718
     0.01298736 -0.05190737  0.04456314 -0.08213456]]]]
conv2d_16/bias:0
(64,)
[-7.55892927e-03  7.89073482e-03 -3.29051493e-03  6.25026040e-03
  1.69108534e-05  1.04325637e-02  8.79478082e-03  1.05799651e-02
  7.78710423e-03  8.96363705e-03  3.74203577e-04 -2.95101316e-03
  8.00726656e-03 -1.52771804e-03 -1.62957783e-03 -1.08602205e-02
 -1.77789421e-03 -3.36604821e-03  8.84433612e-05  4.15122049e-04
 -1.01082083e-02 -7.83087045e-04  3.74811527e-04 -6.84194360e-03
 -6.18626829e-03 -1.15793832e-02  9.77359712e-03 -6.08711224e-03
 -1.02347638e-02 -2.40125926e-03 -1.89987026e-04  7.75729632e-03
  4.45885397e-03  0.00000000e+00 -2.79196422e-03 -2.87930900e-03
  5.25257224e-03  5.77676692e-04  6.18668320e-03 -1.10900204e-03
 -6.63086586e-03  1.13402838e-02 -4.82972711e-03 -2.50652642e-03
  3.31579871e-03 -5.97676029e-03  1.98662910e-03  7.67813530e-03
  6.54565170e-04 -3.44726164e-03  3.66630359e-03  1.13369692e-02
  2.12156260e-03 -3.53689800e-04 -6.59268349e-03  6.25683274e-03
  6.26649195e-03  1.14113502e-02 -3.46835633e-03 -3.85216507e-03
 -1.86405275e-02 -6.05842937e-03 -6.62570912e-03 -3.93741485e-03]
batch_normalization_20/gamma:0
(64,)
[0.99336046 0.9910051  0.9925551  1.0078589  0.9891495  0.99421316
 1.0005556  1.0149866  0.9909171  1.0113742  0.99285114 0.995023
 1.0006118  1.0010401  1.0073951  0.9933509  0.9895753  0.9939134
 1.0036608  0.99698085 1.007768   0.98997563 0.99187046 0.99355817
 0.9908708  1.0011841  0.99706155 0.9938998  0.9893351  1.0015898
 0.99813265 1.0025363  0.9883542  1.         0.9949489  0.9905082
 0.9860091  1.0131025  0.9985906  0.99510163 0.99162453 1.0089126
 0.99730945 0.99638885 1.0140693  0.99407476 0.99774724 1.0055566
 0.9916699  0.99343145 0.9950091  1.0056274  0.9951781  0.9962721
 0.9940638  0.98977154 0.9942898  1.0072628  1.0025114  0.9986055
 0.9977124  1.0065453  1.0018357  0.9945717 ]
batch_normalization_20/beta:0
(64,)
[-0.00755033  0.01032431 -0.00347421  0.06553812 -0.00713469  0.00369724
  0.01285445  0.01341098 -0.00263445  0.00977626 -0.01911077 -0.0053375
  0.00923465  0.00112875  0.00907077 -0.00949974 -0.00582481 -0.01632678
  0.01054334  0.00030394  0.00327905 -0.00838302 -0.00233146 -0.00683477
 -0.01070258 -0.0043247  -0.00120412 -0.00608422 -0.01036533 -0.00075287
  0.08787679  0.00806394  0.00078652  0.         -0.00361582 -0.00317625
  0.0011071   0.01106947  0.00442154  0.00101622 -0.00653845  0.0118081
 -0.00412137 -0.00113745  0.00642564 -0.00597456  0.00142157  0.00803916
 -0.00091736 -0.00345203  0.00177962  0.0076937  -0.00249576 -0.00690267
 -0.00670403 -0.0109827  -0.00749924  0.01250593 -0.00029334 -0.0077069
 -0.00840554  0.00580363 -0.00256351 -0.00460091]
conv2d_17/kernel:0
(3, 3, 64, 64)
[[[[ 0.00945649 -0.04516729  0.04551012 ... -0.06296163 -0.04269105
    -0.00359019]
   [ 0.02222387 -0.03146736 -0.07198064 ...  0.04716691 -0.02928054
     0.03412159]
   [-0.01273473  0.03689809  0.00982725 ... -0.02096959  0.01071716
     0.0563136 ]
   ...
   [ 0.01820793 -0.0574807  -0.00740076 ... -0.07183185 -0.07251198
    -0.0575504 ]
   [-0.0094774  -0.04173534 -0.01673975 ... -0.08043979 -0.04896868
    -0.01824419]
   [-0.01891992  0.02564667 -0.00677347 ... -0.05729779  0.05988519
    -0.04556473]]

  [[ 0.05594269 -0.04867621  0.02908265 ... -0.05360899  0.05136032
    -0.02290877]
   [-0.04067411  0.00997838  0.03817517 ...  0.03123269 -0.04884343
    -0.05507615]
   [-0.05072142  0.02752015  0.00173573 ... -0.06058189  0.01354286
    -0.03231917]
   ...
   [-0.06931023 -0.06087698 -0.00424149 ... -0.06128742 -0.01334171
     0.07773943]
   [ 0.0246139   0.07449788  0.04870168 ... -0.06925289  0.04268884
     0.02632038]
   [-0.03484071  0.04662513 -0.04545738 ...  0.05539929 -0.03931208
    -0.03917998]]

  [[ 0.06737302  0.02694743 -0.06984505 ... -0.03531336 -0.0301422
     0.0610341 ]
   [ 0.03760618 -0.01076579  0.04822268 ...  0.01460727  0.11304327
     0.0355678 ]
   [ 0.0623993   0.02402105 -0.06814492 ... -0.07696612 -0.00609756
    -0.03197497]
   ...
   [ 0.04388475  0.01177915  0.03829117 ...  0.0498978   0.03598551
     0.07178794]
   [ 0.02374279 -0.07089248 -0.05216113 ... -0.04806495 -0.03245353
    -0.00884782]
   [-0.02794454  0.00381144 -0.02762884 ... -0.00874171  0.05598276
    -0.00230649]]]


 [[[-0.02054976 -0.07080996  0.03997844 ... -0.04278228  0.04133352
     0.04877948]
   [-0.05947741 -0.02279375  0.03674848 ...  0.02370828 -0.04286191
    -0.07130424]
   [-0.05691124  0.03031644 -0.02041839 ...  0.00201402  0.02352777
     0.00894719]
   ...
   [ 0.02260502  0.00830438  0.06871485 ... -0.02673553  0.00401584
    -0.05771405]
   [ 0.02599964 -0.07220912 -0.04573959 ... -0.04419306  0.03768691
     0.01867094]
   [ 0.03042988  0.05463096 -0.01529855 ... -0.0374608  -0.00281479
    -0.05048296]]

  [[-0.04408662 -0.0136674   0.02430109 ... -0.00637257 -0.01420499
     0.01515452]
   [ 0.01984519 -0.04828071 -0.01075532 ...  0.00026725  0.07164973
     0.02971002]
   [-0.03447727 -0.06519309  0.02824589 ...  0.03029592  0.01158782
     0.04808627]
   ...
   [ 0.04820927  0.02679545  0.03317294 ... -0.06365843  0.06764282
    -0.00504224]
   [ 0.02831184 -0.03021882 -0.02270599 ... -0.05942523 -0.02586791
    -0.03397632]
   [ 0.06727012  0.0161582  -0.02525678 ...  0.06244862 -0.00991899
     0.02868677]]

  [[ 0.01632481  0.03252406  0.04834402 ...  0.05171382  0.06673826
     0.05479495]
   [-0.02880232  0.01615844 -0.0176944  ...  0.05321942  0.04588201
    -0.0012308 ]
   [-0.0069503  -0.05402566 -0.05883324 ... -0.01335162  0.03994739
    -0.03453422]
   ...
   [ 0.01000267 -0.03094821  0.00037498 ... -0.02008464  0.04057062
     0.04348562]
   [ 0.00529732 -0.06740009 -0.02149027 ...  0.02058662 -0.06213681
     0.04796905]
   [ 0.05570821  0.07292112  0.05951364 ... -0.04596418 -0.02722257
    -0.03299094]]]


 [[[ 0.03167745  0.03724487 -0.03242924 ...  0.04442504  0.07557115
     0.028304  ]
   [-0.03723369 -0.04272745  0.04477075 ... -0.00431682  0.03208239
    -0.06776459]
   [-0.05951079  0.00401466  0.06952686 ... -0.00226237 -0.00944846
     0.00276961]
   ...
   [-0.0129068  -0.02514555 -0.03908106 ... -0.0433042  -0.04991183
    -0.01961994]
   [ 0.03159348  0.02164434  0.07101563 ...  0.04774496 -0.05873276
     0.00497056]
   [-0.02724152 -0.04682577 -0.07189094 ... -0.0333511  -0.01660839
     0.05097838]]

  [[ 0.02119661  0.05262201  0.02592207 ... -0.02333668  0.06555718
    -0.07130825]
   [ 0.00496011 -0.06004608 -0.01697351 ... -0.029098   -0.02223622
     0.03941781]
   [ 0.04399368 -0.06169848 -0.01892959 ...  0.06387069 -0.04933088
    -0.04633139]
   ...
   [-0.04460078  0.04330354  0.05712155 ...  0.01671297  0.00019153
     0.0479163 ]
   [ 0.06390917  0.03324895 -0.07161869 ... -0.00251199  0.04406172
    -0.06743211]
   [-0.00962864  0.01675133 -0.05018853 ... -0.03973126 -0.00231707
    -0.05968772]]

  [[ 0.02198446  0.06496418 -0.03063097 ... -0.05710425 -0.00150712
    -0.05061882]
   [ 0.05073939 -0.03013386  0.0140945  ... -0.08070613  0.05532065
     0.01629001]
   [-0.04204779  0.05712298 -0.03035307 ... -0.04546842 -0.00165722
    -0.04498232]
   ...
   [-0.06341897 -0.05348857 -0.03707944 ... -0.04931493  0.05022332
    -0.02565888]
   [-0.04597484  0.05067513  0.01008773 ... -0.03932026  0.02543236
     0.04987307]
   [ 0.06439666 -0.05888586  0.06725244 ... -0.00234886 -0.00999439
    -0.01686984]]]]
conv2d_17/bias:0
(64,)
[-0.00228478  0.01399207  0.01012792  0.00634486  0.00943816  0.01490407
 -0.0002671   0.01800327  0.00726701  0.01663225  0.00831415  0.00096613
 -0.00574815 -0.00675185 -0.01116462  0.01237834  0.00100025  0.0043546
  0.00980006 -0.00580392  0.01491631  0.02927905  0.00960737  0.00549723
  0.01908391  0.02122464  0.00180773  0.01006194  0.00037217  0.01531154
  0.00349096  0.01527454  0.00403443  0.0074618   0.00547977 -0.00261749
  0.01027895  0.0004807   0.00966498  0.00171705  0.0135645   0.00405463
 -0.00131705 -0.00238105  0.01453379  0.00160367 -0.0096273   0.01265792
  0.00812775  0.01976912  0.00312983 -0.01219237  0.00141564 -0.00854701
  0.00406653 -0.0240788   0.00418819  0.00992822  0.00057538 -0.00327016
  0.005751   -0.00803451  0.00816926 -0.00977839]
batch_normalization_21/gamma:0
(64,)
[0.99750143 0.95230675 0.992446   0.9879557  0.9910536  0.98901737
 0.98863816 0.9907695  0.9815568  0.9823271  0.9823855  0.9962059
 0.9892722  0.9925259  0.99799806 0.9890069  0.9913361  0.99206907
 0.9902403  0.9916163  0.9899273  0.9816313  0.9915336  0.98970366
 0.9596378  0.9857513  0.988548   0.9862787  0.98975164 0.98278874
 0.99069834 0.9840899  0.98814106 0.965864   0.99420136 0.99038035
 0.98357123 0.980072   0.97316927 0.9909249  0.9836361  0.9869301
 0.9795653  0.9860572  0.9767112  0.9998053  0.9774922  0.99211204
 0.9916736  0.9821044  0.98988295 0.99053025 0.98415726 0.9972015
 0.99444896 0.98754776 0.97015554 0.986004   0.99396926 0.99014664
 0.9898425  0.990949   0.99061227 0.9901153 ]
batch_normalization_21/beta:0
(64,)
[-0.00341157 -0.0426842  -0.00737007 -0.01584472 -0.007393   -0.00986714
 -0.01219368 -0.00646716 -0.01695221 -0.01325735 -0.01907979 -0.00557691
 -0.00703665 -0.00654497 -0.00292126 -0.00938519 -0.007943   -0.00955982
 -0.00713879 -0.0093109  -0.00649585 -0.00883634 -0.00657635 -0.00988422
 -0.04706675 -0.0087571  -0.01309825 -0.01307932 -0.01275577 -0.01869832
 -0.01336413 -0.01178064 -0.02069557 -0.01725141 -0.00467793 -0.01151019
 -0.01647719 -0.02763527 -0.02799313 -0.01240842 -0.01285175 -0.02097325
 -0.01881225 -0.01677966 -0.02618191  0.00267564 -0.02027367 -0.00705969
 -0.00661653 -0.01944184 -0.00687074 -0.00926757 -0.02612481  0.04460826
 -0.00594099 -0.01727073 -0.0313581  -0.01372942 -0.00829523 -0.00712177
 -0.01159673 -0.0064083  -0.00588833 -0.01280481]
dense_32/kernel:0
(960, 128)
[[ 9.0449806e-03  1.9332798e-02  5.7572875e-02 ...  2.7299251e-02
   3.8354222e-02  2.1234149e-02]
 [-4.9162388e-02 -8.0564722e-02  4.0300302e-03 ... -3.8741007e-02
  -6.8687089e-03 -1.3840019e-02]
 [-9.8110140e-05  5.0983891e-02  5.6636296e-02 ...  4.2614590e-02
  -5.1233131e-02 -5.5841729e-02]
 ...
 [ 6.0066525e-02 -1.0755369e-02  4.3258436e-02 ... -6.1280467e-03
   8.2661916e-04  1.0505108e-02]
 [-4.6534717e-02  1.2336345e-02 -4.9067147e-02 ...  4.5188546e-02
  -6.5009125e-02 -5.1977031e-02]
 [ 6.6546492e-02  4.5719344e-02 -5.7585668e-02 ...  1.4284519e-02
   4.8207872e-02  5.6287389e-02]]
dense_32/bias:0
(128,)
[-0.00650523 -0.01257459 -0.00595121 -0.01332084 -0.00699918 -0.00903257
 -0.00900048 -0.00775147 -0.00548859 -0.00690912  0.00481083 -0.00855281
 -0.00724252 -0.00869119 -0.00520772 -0.00495385 -0.01498999 -0.00677393
 -0.0069486  -0.00711739 -0.00971919 -0.01023244  0.01587743 -0.00552674
  0.00067285 -0.01414186 -0.00814192  0.01539985 -0.01616445 -0.0132449
 -0.00601753 -0.00409472 -0.01015276 -0.00683589  0.00180883 -0.01261083
 -0.0335932  -0.00509768 -0.00108194 -0.00900795  0.0402235  -0.0057275
 -0.01447904 -0.00599895 -0.00831838 -0.00118149 -0.0048861  -0.0104392
 -0.00618257 -0.00578942 -0.00663455 -0.00972809 -0.00930528 -0.00744475
 -0.00500777 -0.00867362 -0.00979829 -0.01187802 -0.02250386 -0.00502021
 -0.00364117 -0.0053255  -0.00765311 -0.0053277  -0.00603413 -0.01077788
 -0.00563937 -0.00725555 -0.01362952 -0.01044078 -0.00778643 -0.00489057
 -0.00624197  0.00318935 -0.00741691 -0.00768686 -0.00716033  0.00602701
  0.02575212  0.00202399 -0.0146807  -0.00722325 -0.00482285 -0.01028081
 -0.00799138 -0.00431937 -0.00643979  0.02927086 -0.00351604 -0.01283497
 -0.00603498 -0.00803218 -0.00715899 -0.00513593 -0.00933138 -0.00682269
 -0.00732656 -0.00991752 -0.01199422 -0.00589675 -0.00735246 -0.00735397
 -0.01089125 -0.00589001 -0.00856955 -0.00955317 -0.01273619  0.02743121
 -0.01225183 -0.00451928  0.00305185 -0.00834165 -0.00658966  0.00807826
 -0.00600519 -0.00387721 -0.00645458 -0.00450512 -0.00743603 -0.00479732
 -0.00944921 -0.00417351 -0.01539637 -0.01139555 -0.01016536 -0.00483126
 -0.00624075 -0.01005084]
dense_33/kernel:0
(128, 60)
[[ 0.05679577  0.13679655  0.13419734 ...  0.14472464 -0.07821015
   0.13355513]
 [-0.10813344  0.06368148  0.03281045 ...  0.01296944  0.08689732
  -0.10954461]
 [ 0.02732036  0.07838134 -0.00551613 ...  0.04684534 -0.11607447
  -0.01862007]
 ...
 [-0.04220353  0.08070545  0.01784701 ...  0.17261332 -0.06163923
  -0.1294906 ]
 [ 0.04600813 -0.12472525  0.16921984 ...  0.05216557  0.1584193
  -0.15459596]
 [ 0.00997999 -0.04645097  0.05247728 ...  0.15274617 -0.1560133
   0.03971793]]
dense_33/bias:0
(60,)
[ 0.05432954 -0.08240883  0.23418196  0.05772302 -0.08091737 -0.08690898
  0.07773995  0.13493893 -0.07572728  0.04681065  0.10318252 -0.09616297
  0.06446975 -0.1067849   0.06027526 -0.07165103 -0.06443391 -0.06172375
  0.05762037  0.09506436 -0.05292661  0.0493142   0.06882115  0.07104862
  0.09973639  0.08539165  0.05918844 -0.08334666  0.08481272  0.05617424
  0.0599428   0.0856467   0.09003618  0.07292348  0.07795373 -0.08262853
  0.0774454  -0.06686467 -0.05934468  0.06753543 -0.08374445  0.07439524
 -0.07659036 -0.06988855  0.086372    0.08780639 -0.07447336  0.08121101
  0.08070861  0.04720927  0.05431273 -0.06877095  0.08792655 -0.07753266
  0.08668914 -0.12437475 -0.09485961  0.05830982 -0.07893313  0.17403516]
dense_34/kernel:0
(60, 1)
[[ 0.27540672]
 [-0.25198957]
 [ 0.01881237]
 [ 0.26011452]
 [-0.09576791]
 [-0.05127709]
 [ 0.06900986]
 [ 0.0216439 ]
 [-0.17831586]
 [ 0.26452315]
 [ 0.03474762]
 [-0.05331863]
 [ 0.22918071]
 [-0.05172801]
 [ 0.24716522]
 [-0.15920092]
 [-0.05338528]
 [-0.2911496 ]
 [ 0.22178371]
 [ 0.18727359]
 [-0.23727159]
 [ 0.26949665]
 [ 0.267519  ]
 [ 0.19788869]
 [ 0.06822166]
 [ 0.04916263]
 [ 0.26973307]
 [-0.2360886 ]
 [ 0.11128145]
 [ 0.24958827]
 [ 0.28978866]
 [ 0.01525386]
 [ 0.06151895]
 [ 0.06257697]
 [ 0.17348456]
 [-0.2094977 ]
 [ 0.0891212 ]
 [-0.2328086 ]
 [-0.16340087]
 [ 0.20110549]
 [-0.02161157]
 [ 0.09959233]
 [-0.14714254]
 [-0.23441257]
 [ 0.07671969]
 [ 0.04734759]
 [-0.24297869]
 [ 0.19909067]
 [ 0.06546717]
 [ 0.2639605 ]
 [ 0.22358672]
 [-0.15182233]
 [ 0.1848137 ]
 [-0.19742529]
 [ 0.05254691]
 [-0.03746472]
 [-0.03047344]
 [ 0.21757087]
 [-0.05022215]
 [ 0.02840185]]
dense_34/bias:0
(1,)
[0.10037974]
