conv1d_1/kernel:0
(1, 5, 64)
[[[-0.05113211 -0.15995857 -0.09787631  0.02041787 -0.19386059
   -0.04337012  0.17514211 -0.23203248 -0.14293887 -0.09549076
    0.20080607  0.05333095 -0.24379681 -0.08255772 -0.07530383
    0.16623808  0.17451224 -0.2491633   0.22709173 -0.00264407
   -0.07905006  0.04282372  0.04146111 -0.24200006 -0.1093343
   -0.00396955  0.16938609 -0.00659918  0.12071789 -0.3273201
    0.12478857 -0.1108745  -0.16457023 -0.03409067 -0.26900083
   -0.17402622 -0.15592682 -0.24154286  0.07438937 -0.034722
    0.2500238  -0.25811067 -0.0253364  -0.12890969 -0.12054285
   -0.24253316 -0.07501722  0.09916073 -0.19203968 -0.24588667
   -0.32356688  0.0248161  -0.10706104 -0.24224089  0.08805992
   -0.2082974   0.07090044 -0.02576426  0.0446825  -0.25806525
   -0.11086355 -0.04992299  0.07497328 -0.20968889]
  [ 0.2714345   0.25365806 -0.10959098 -0.10871731 -0.2063194
   -0.00146147  0.20893258 -0.22501442  0.26051486  0.25892743
   -0.24461901 -0.01740661 -0.2343121   0.14773962 -0.11449023
    0.04055985  0.17653243 -0.10576042 -0.22617239  0.25736362
   -0.09182913 -0.16484222  0.11063614 -0.24950115 -0.23194742
    0.07034504  0.06056147 -0.04582261  0.22995456  0.16754909
    0.15656438  0.26946455  0.13938308 -0.24103512 -0.03472435
    0.19178843  0.19283494  0.06369358 -0.24645545 -0.04912379
    0.19899392  0.28809345 -0.04113873 -0.04175755  0.09357979
    0.02513011  0.01237075 -0.2433367   0.27427858  0.00581899
   -0.10629779  0.19891793 -0.2693929   0.07007021 -0.0021367
   -0.30386466 -0.11200151  0.22800691  0.07452949  0.19589671
    0.05298735 -0.21587902 -0.04306708  0.1555096 ]
  [ 0.10854683  0.02482849  0.08059366 -0.2775349  -0.10147624
    0.09598663  0.15567623  0.1213358  -0.25309506  0.10636365
   -0.15337728  0.09190603 -0.0259746   0.2153431   0.04817787
   -0.10422459 -0.2804714  -0.05291308 -0.09320749  0.20279816
    0.0534342  -0.28705403  0.14100221  0.19301972  0.13357288
   -0.13202663 -0.143501    0.1243081  -0.07141569  0.2180551
   -0.20913321 -0.07005334  0.26914    -0.26764375 -0.26870456
    0.14810233 -0.2201023   0.02478903  0.03689289  0.01262227
   -0.26245645 -0.12559098  0.18849504 -0.20885983 -0.12742056
   -0.10591203  0.24599111  0.04423515 -0.26656327 -0.04867783
   -0.35689715 -0.21981992 -0.14413983 -0.0716615  -0.03745357
   -0.01351003  0.04224944 -0.10419756  0.00278    -0.10545997
    0.19872445 -0.03178361  0.03648563 -0.02977679]
  [ 0.13236776 -0.25517014  0.32929572 -0.24748078  0.11970925
    0.19815305  0.20428893  0.03534484  0.0424737   0.1274413
   -0.08490939  0.0826802  -0.2340345   0.01787417 -0.06668641
    0.23058945  0.28951818  0.20314664 -0.10906995 -0.23305269
    0.02571632  0.22298414 -0.20573243  0.17827228 -0.26607892
   -0.18647847  0.21080408 -0.06624847 -0.04314441  0.08672675
   -0.09016543 -0.10888034 -0.13933049 -0.12215549  0.08252025
   -0.16363691 -0.3005652  -0.08451544 -0.24622266 -0.18783854
   -0.24512053 -0.11248977  0.24801205 -0.06190707  0.12046202
    0.20474255 -0.08601026  0.1713384   0.19936298 -0.01213858
   -0.13285418 -0.10064323 -0.10757245 -0.13262528 -0.03147017
    0.25372565 -0.20713916  0.19964395  0.11597504 -0.03118408
   -0.16231163 -0.00279788 -0.13042746 -0.19063751]
  [-0.01473243 -0.11095233 -0.12334742  0.07783753 -0.10144185
   -0.23377769 -0.1859813  -0.10127375 -0.24445003 -0.13316505
    0.2110807  -0.02692062  0.12697783 -0.22808047  0.14388421
    0.05817722 -0.11153585  0.00913613  0.04920808 -0.32437974
    0.04807508 -0.0911157   0.23535389  0.17132093 -0.09561568
   -0.02401352  0.01383215 -0.11230129  0.13044532 -0.07855019
    0.10185096 -0.194502   -0.05506281  0.19434054  0.04026849
   -0.21630095  0.24699672  0.03564093 -0.18813066 -0.19575828
    0.20531045  0.00830212 -0.16795151 -0.09088889  0.1632284
   -0.05216004 -0.2515658   0.01318739 -0.19624978 -0.15012898
    0.1624399   0.08630327  0.03732163 -0.26705995 -0.03256077
    0.00165717 -0.02972347 -0.2376214  -0.10561427 -0.16855106
    0.05637887  0.24904528  0.09462866  0.22074787]]]
conv1d_1/bias:0
(64,)
[-0.08240727  0.         -0.03204859  0.          0.          0.09142495
 -0.0429334   0.          0.         -0.07697505 -0.02674171 -0.04482993
  0.01371426  0.05546258  0.00997987 -0.07075367 -0.03858365 -0.03766082
  0.0950336  -0.04594602  0.04447138 -0.02887065 -0.0561928   0.05527672
  0.          0.         -0.02119687 -0.00928159 -0.07459658  0.01928022
 -0.04559641  0.         -0.05801835  0.02215113  0.0022616  -0.01494662
  0.07210498 -0.00834655  0.          0.         -0.06165208  0.
  0.02179371  0.         -0.05537948  0.04107587 -0.03017176 -0.00423523
 -0.00846905  0.         -0.00854937 -0.02075229  0.          0.
 -0.02029595 -0.00116372  0.          0.06283516 -0.04289588  0.
 -0.0535096   0.01780537  0.00842061  0.03311546]
conv1d_2/kernel:0
(1, 5, 64)
[[[ 0.18771353  0.21382529 -0.12969252  0.26029724  0.12757915
   -0.21997581  0.24578768  0.20416367 -0.0899969  -0.17013247
   -0.20581138 -0.23431343  0.0807248  -0.19029014  0.24128535
    0.24880153 -0.04267943  0.08222044  0.01990575 -0.1661103
    0.01492021 -0.01837397  0.01980695 -0.00962387 -0.23738964
   -0.06724496  0.16576448  0.22486588 -0.05855645  0.16186321
   -0.17327005 -0.14585866 -0.2428835   0.00674211 -0.20898536
    0.0462787   0.20505917  0.07183715 -0.22440347  0.17252496
   -0.1835025   0.17538494 -0.16600592  0.23272674  0.2072453
   -0.10524958  0.07479025  0.20725857  0.01247619  0.28475016
   -0.12928078  0.24087021 -0.26474154 -0.01526549  0.10026127
   -0.2082108  -0.27051634 -0.2559486   0.19569394  0.27182007
    0.22165623  0.10524374 -0.22235939  0.03877443]
  [ 0.05001154 -0.05677417  0.17446074 -0.28489748 -0.24310642
    0.2469033  -0.10903038  0.2253875   0.27139187  0.23767385
    0.1109893  -0.05363932 -0.16599773 -0.21075897  0.13595651
   -0.16995257 -0.10058376  0.01989907 -0.03015655  0.25661585
    0.13819838 -0.23527493  0.08567586  0.20454036  0.27771434
   -0.07487834 -0.12330878 -0.22674972 -0.18780378  0.15654352
    0.21083663 -0.05714224 -0.05117897  0.24729596  0.26743796
    0.08452994 -0.10327733 -0.02688608  0.09613523  0.2233964
    0.2798493   0.22905208  0.01743323 -0.28571177  0.00691878
    0.03314916 -0.05145621 -0.08131655  0.23294103 -0.2412441
   -0.05747169 -0.19001324  0.11998542 -0.28527227 -0.19127789
    0.19392288 -0.01831943  0.16188377 -0.10842954 -0.00876886
   -0.00096047 -0.08357041 -0.08003275  0.10332828]
  [-0.10606652  0.18116456  0.15335608  0.07701491  0.05986026
    0.14307393 -0.20873342  0.09973852 -0.26001576  0.20575331
   -0.22827196 -0.0358471  -0.2803475   0.1659062   0.23592491
    0.1077135  -0.16530968  0.1426085  -0.01850197  0.26147583
    0.20033862  0.15913774  0.24422003  0.23060021 -0.16345078
    0.17642188 -0.22616497  0.1983159  -0.16448313 -0.06959085
   -0.19624795  0.24968709 -0.14133723 -0.0838028  -0.1638867
    0.2863204  -0.16650777  0.16256492  0.09081146 -0.26139492
   -0.06586747  0.25511473 -0.2321896   0.16922683  0.19073495
   -0.15628383  0.06221504  0.02168585 -0.17499015 -0.18057624
   -0.0976963   0.12349239  0.27180734 -0.0681109  -0.23398018
    0.16644722 -0.14647919  0.2241628   0.27190232  0.00563224
    0.22487947  0.19158262  0.08438003 -0.2494234 ]
  [ 0.18954302  0.20377487  0.23914665  0.09085622 -0.2698469
    0.04731075 -0.06384133  0.28943565 -0.05574301  0.16244474
   -0.17389353 -0.23667836  0.30055758 -0.1971021   0.08354425
   -0.23667254 -0.1858252  -0.06182472 -0.2601079   0.1370106
    0.23617941  0.28921032 -0.22097437  0.11754464  0.2715321
    0.08397829 -0.03350732 -0.14238311  0.09997315 -0.00493823
    0.26519957 -0.15316747  0.20648652 -0.04441961 -0.15744029
   -0.04432938 -0.08299768  0.24800566 -0.1233426  -0.03514058
   -0.10592201  0.10731053  0.25429875  0.14182314 -0.02357335
   -0.08685031  0.02800037 -0.00941671  0.20123114 -0.14472772
   -0.2804528   0.03565876  0.15998939  0.1923181   0.00812665
   -0.02202047 -0.07838324  0.07530648 -0.25144526 -0.22012031
    0.21927714 -0.26452532 -0.02143562  0.25918606]
  [ 0.00514279  0.19015388  0.04862446 -0.01714065 -0.03740788
    0.13139698 -0.18646982  0.02013757 -0.18608421 -0.09010362
   -0.17193404 -0.2736839  -0.13773136  0.2749667  -0.32313317
   -0.12379847 -0.1751953   0.05414622 -0.11973542 -0.135049
   -0.15291256  0.04225619 -0.07830168  0.04410941 -0.0590478
    0.24328554 -0.23017395 -0.21517193  0.22189723  0.17724974
    0.04182089  0.0065958   0.17429778  0.21373191  0.21785825
    0.02518746 -0.06466256 -0.09480883 -0.25522286 -0.1323646
   -0.07099275 -0.19864294  0.29209456 -0.27916908 -0.14631708
    0.1841727   0.25016966 -0.35813844 -0.05797225 -0.00715172
   -0.28423467 -0.25633055 -0.09578982  0.11945192 -0.17848006
    0.24013522 -0.16839568 -0.11530096 -0.08220722  0.06429033
   -0.04311958  0.22319612 -0.02499223  0.1483567 ]]]
conv1d_2/bias:0
(64,)
[-0.03448966 -0.02795174 -0.02848068 -0.00685543  0.         -0.04242614
  0.         -0.005484    0.         -0.01865518  0.          0.
  0.01098966 -0.01941166 -0.05022896 -0.00628093  0.         -0.05046034
  0.         -0.04043834 -0.02219668  0.0022489  -0.01386097 -0.01393755
  0.04731093 -0.06445889  0.          0.00556396 -0.00217702 -0.02178579
  0.01652544 -0.01397764  0.04275332 -0.03252377  0.0099995  -0.00438729
  0.         -0.06549367  0.         -0.01280353  0.         -0.05696853
  0.02990483 -0.00017953 -0.02834907  0.00283947 -0.01515752  0.04839291
 -0.01455163  0.          0.          0.00377717 -0.02870953  0.0297286
  0.         -0.0034448   0.         -0.00227813 -0.01703784 -0.00315161
  0.01308103 -0.01033871  0.          0.00366115]
conv1d/kernel:0
(1, 5, 64)
[[[ 0.10868429 -0.06420223 -0.21524765 -0.10688578 -0.07491787
   -0.1044734  -0.13371271  0.19523323  0.2549597   0.21345708
   -0.17414339 -0.23330805  0.00839466  0.23833506 -0.2748912
   -0.21690644  0.23890151  0.1289761  -0.16504604  0.01844543
   -0.2805912   0.10448539 -0.2224342   0.27607793  0.25880435
   -0.09846251 -0.11224693  0.06923813 -0.21530198  0.00079004
   -0.08498951  0.08613086  0.01584017 -0.28522044 -0.14996377
    0.05490341  0.2715251   0.17321905 -0.04902031 -0.17998391
   -0.095976    0.1124719   0.12051574  0.14850412 -0.16447951
    0.14906165 -0.17924437  0.12734342 -0.18910715  0.23692729
   -0.05064843  0.09680752 -0.13098678  0.2373536  -0.28961354
   -0.22443342 -0.2816371  -0.16004926  0.10797855 -0.16558722
    0.20738415  0.11444861 -0.1277847  -0.27282047]
  [-0.2704378  -0.09249294  0.17715845  0.18048406 -0.19389138
   -0.05484757  0.06821175  0.1621777   0.27180952  0.12536879
   -0.12779696 -0.11339299 -0.23717001  0.22087228 -0.02562571
    0.1225655  -0.22363837  0.11342143 -0.27604982  0.09844326
    0.2596719  -0.18478535 -0.19270405 -0.07785478 -0.05680199
   -0.1060369  -0.22510031  0.12780356  0.16383526 -0.01022469
   -0.32902917  0.0030264  -0.13664158 -0.20574944 -0.20181045
   -0.1259707   0.00482591 -0.09842554  0.16789842  0.29066336
   -0.26932445  0.03661103  0.03094799 -0.23320629 -0.16784793
    0.02910161 -0.23953056  0.24256252 -0.1117413   0.2536599
    0.09031677 -0.11813573  0.22160389  0.15035407 -0.16672558
   -0.19354406 -0.09598373  0.06336876  0.10270977 -0.07502664
    0.22718412  0.14596207 -0.11184189 -0.08950941]
  [ 0.20441222  0.12953837 -0.01051191 -0.24717756 -0.27921942
    0.20973557  0.04690372  0.23935884 -0.2756271  -0.15037994
    0.17394535  0.04683942  0.2152772  -0.22933674 -0.2916606
    0.21845926 -0.23629788 -0.26191133 -0.0272319   0.24722023
    0.09882603 -0.30029598  0.11103037 -0.2808913  -0.04943005
   -0.22366089  0.16534214 -0.00883815  0.09508404 -0.03137963
   -0.12163886 -0.03639203 -0.1759004   0.00427285 -0.2066862
    0.24099442 -0.07510403  0.1386454  -0.17601205 -0.08924344
    0.14705837  0.03643519  0.12475208 -0.11965001 -0.14966889
   -0.1977897   0.21107495  0.20414093 -0.2942425  -0.08999746
    0.2366176  -0.22172943 -0.06583212 -0.19725583 -0.09519415
    0.10482693 -0.04170126  0.1955522   0.00233261 -0.05407015
    0.07460311  0.20883068  0.22971441 -0.25388023]
  [ 0.10746609  0.19931436  0.1604048  -0.20462659 -0.08111954
   -0.06623726 -0.28359342  0.14611556  0.23624675 -0.14381188
   -0.00540988 -0.01295432 -0.03740022  0.06789983 -0.05417132
    0.12165245 -0.02222515  0.03039402 -0.15964852 -0.04246793
    0.16863708  0.22162399 -0.21695155  0.09904987  0.17125107
   -0.10542855  0.21374066 -0.2672202  -0.1342607  -0.2473376
   -0.19950438 -0.10889849 -0.21619076  0.15468204  0.21069601
    0.02407987 -0.15596147  0.23039797 -0.23361093 -0.06495377
   -0.03755805 -0.1176168   0.07735182 -0.03100822 -0.0380666
   -0.19175127  0.23310766  0.2389289  -0.21915191 -0.23596966
    0.03891366 -0.00647871  0.18132526 -0.10321294  0.19705471
   -0.24273409 -0.17400146  0.14391577  0.09020936 -0.18104886
    0.22302032  0.24835573 -0.2710518  -0.28610525]
  [-0.34110585 -0.31573576  0.09991039 -0.00146264 -0.2182463
    0.09533234  0.11929809  0.21960232 -0.24610856 -0.2897905
    0.09314271 -0.27410185 -0.03483161  0.21916337 -0.04266563
   -0.19029354  0.01352818 -0.0524577  -0.10051705 -0.05329727
   -0.16918553  0.15499738 -0.13811687 -0.09242194  0.07983526
   -0.23444384  0.12839194 -0.25582805  0.14560741  0.21867108
    0.11725213 -0.12602153 -0.1228665  -0.26995417  0.02932104
   -0.17422077  0.07470357 -0.28645873 -0.14517614 -0.11961646
   -0.11837865 -0.09000678  0.13229565  0.22065595 -0.05338763
   -0.26765004  0.16236638 -0.31208786 -0.05327809 -0.21689087
   -0.05258944  0.05887509 -0.3167279  -0.03454126  0.24170262
   -0.0120661   0.01305839  0.20518585  0.01118017  0.10236542
    0.21576022 -0.20913306  0.10806536 -0.10462382]]]
conv1d/bias:0
(64,)
[ 0.00077016 -0.00242699 -0.08279905  0.          0.         -0.0467596
  0.04081613 -0.0780344  -0.03946276  0.02610964 -0.02836334  0.
  0.         -0.10934249  0.          0.01295954 -0.00703648  0.03214613
  0.         -0.09775661 -0.02349309 -0.04865346  0.         -0.00805784
 -0.09386977  0.         -0.04704292  0.         -0.07348618 -0.03393755
  0.00900869  0.          0.          0.          0.00901524 -0.02746323
 -0.05911055 -0.04478214  0.          0.          0.         -0.04967382
 -0.03028362 -0.03756768  0.          0.         -0.07369843 -0.07681742
  0.         -0.06023545 -0.05188919 -0.00235391 -0.00347109 -0.03622191
  0.0434501   0.          0.         -0.11490002 -0.08728833  0.01029836
 -0.10497746 -0.08654798 -0.01222536  0.        ]
conv1d_3/kernel:0
(1, 5, 64)
[[[-0.1263746  -0.31163678  0.01837218  0.07734898  0.09866562
    0.05132797  0.2975102  -0.2985438  -0.14567594 -0.1488757
   -0.0008497   0.05430199 -0.12328172  0.10495317 -0.22083856
   -0.22943582  0.26561755  0.21429738 -0.00774626 -0.18852413
    0.1795023   0.22979966 -0.26115963  0.1451956   0.134644
   -0.2196908   0.11901599 -0.2706171  -0.21843289 -0.25521088
    0.10234088 -0.21700871  0.04150827 -0.16126843  0.16799547
   -0.2796676  -0.18361078 -0.05149408  0.11244944 -0.04593351
   -0.04661204 -0.15516546 -0.28297362 -0.11147942 -0.28447357
    0.17235379 -0.241836    0.1790649   0.14458805 -0.2342363
   -0.06734692 -0.23664698 -0.13735959 -0.00633497  0.06590525
    0.11039665  0.11977974  0.16704698  0.00248602  0.08460611
    0.19869684  0.22992608 -0.12779458 -0.286117  ]
  [-0.1909429  -0.29075727  0.02531844 -0.1464221  -0.10147461
   -0.00998611 -0.23882541 -0.14883712 -0.16734643 -0.02361944
   -0.17064878 -0.02644809 -0.05057441  0.00098037  0.25907692
    0.21884942 -0.27101228 -0.13676654 -0.14161824 -0.30976617
   -0.2907309  -0.03866993 -0.10423271 -0.18439098  0.218653
   -0.16829036 -0.05885573  0.02890214  0.25981563 -0.2924037
   -0.01617793 -0.28443027  0.06900652 -0.11335018 -0.24881698
    0.18143627  0.24816203 -0.2116753   0.13863137 -0.2654614
   -0.16330884 -0.11281867  0.20055406  0.07982476 -0.2507082
   -0.0753648  -0.11344129 -0.17451657  0.05087579  0.1579943
   -0.2929739   0.19705445  0.10899068 -0.05453613  0.10983968
   -0.12236726  0.02304609  0.13041258  0.19823453  0.02541051
    0.17388348  0.127302    0.15229452  0.07863492]
  [-0.17474993 -0.12499112 -0.07679833  0.18486011 -0.21169373
    0.09285998 -0.09926202 -0.14073348  0.00120196 -0.21324572
    0.11636825 -0.06560808  0.23869288  0.04349658  0.21721265
   -0.28406256 -0.07694921  0.17906016  0.06365683  0.07831637
    0.05144618 -0.04441231 -0.22072668  0.15756983  0.07945444
    0.07839185 -0.27103028 -0.10723814 -0.2900146   0.08229924
    0.08169398  0.22381115  0.08310041  0.04993272 -0.22112757
   -0.1647674  -0.216266   -0.06466854  0.2585666  -0.13637339
   -0.15814032 -0.14460512  0.0362963  -0.27821282 -0.03369314
    0.20365864  0.07080138 -0.12126834  0.22766958 -0.03273347
    0.04585189  0.10088599 -0.00137149  0.16520849 -0.29957902
   -0.13533452  0.11661824  0.18830281 -0.20771793  0.22239688
   -0.02607752 -0.13070676 -0.19874465 -0.1442526 ]
  [ 0.07364392  0.21242744 -0.26442906 -0.24408396  0.00109017
    0.1558482   0.16031669 -0.09222887 -0.07121141 -0.2807447
    0.2482972  -0.19708034 -0.18087596  0.03591239 -0.07151853
    0.21184176  0.02360284  0.23388454  0.21382664  0.15405852
   -0.10324817  0.1879241   0.03326443  0.200325   -0.21755141
    0.20593621 -0.25913763  0.03727669  0.04261839  0.15525155
    0.02485756 -0.04814006  0.10256707 -0.11357439 -0.00472217
    0.03054676  0.10528323 -0.19728538 -0.14345968  0.10123651
   -0.2420659  -0.21305421  0.1597592  -0.14824224  0.11956078
   -0.2934589   0.13771367  0.23650022  0.23425616  0.09854174
   -0.1646952  -0.02516209  0.07435627  0.23509337  0.17190851
    0.05696153  0.0550616  -0.04678911 -0.22924149  0.24320742
   -0.2930909  -0.26754168 -0.22023623 -0.13896476]
  [-0.17046836 -0.15533805 -0.26176432 -0.08444043  0.00817341
    0.03837298 -0.26798132  0.10350573 -0.24775188  0.00113937
   -0.31546095  0.13297753 -0.20690836 -0.24196473 -0.20516148
   -0.26084444 -0.08877064  0.08651242 -0.07681416 -0.06825442
    0.21785289 -0.28230733 -0.09907226  0.09210011  0.22589827
    0.14010397 -0.07632792 -0.15747818 -0.08442461  0.05071306
   -0.28529632 -0.26608488 -0.20485468  0.06630975  0.23537372
   -0.0210004   0.14806089 -0.01782089 -0.30154502 -0.04160967
   -0.14139403 -0.09822585 -0.13872711  0.13540699  0.23053436
    0.16382064 -0.18310176 -0.07097059  0.15124804 -0.11133127
   -0.09072275  0.18973865 -0.04858142 -0.05098692 -0.17065446
   -0.0567685   0.05284028 -0.23888978 -0.03887686 -0.21669836
    0.10637537 -0.09333096 -0.19945827  0.04879946]]]
conv1d_3/bias:0
(64,)
[ 0.         -0.021059    0.          0.          0.         -0.04304708
  0.01308874 -0.0146231   0.          0.         -0.01447611 -0.02701429
  0.          0.01498255 -0.03793904  0.          0.         -0.01584438
 -0.00238954 -0.03572545 -0.06710047 -0.03206909  0.         -0.03191464
 -0.02005324  0.02080636  0.          0.          0.         -0.08746125
  0.03278383  0.         -0.0117641   0.          0.06333018  0.02649444
 -0.03197926  0.         -0.03641717 -0.02911036  0.          0.
  0.02613171 -0.01804148 -0.00400466 -0.0401674   0.         -0.00774247
 -0.00400913  0.          0.         -0.00261367 -0.01734684 -0.05845237
 -0.00811971 -0.0053349  -0.08537294 -0.05991422  0.         -0.05352319
 -0.04569833 -0.02096618  0.          0.        ]
conv1d_4/kernel:0
(3, 64, 64)
[[[ 0.04826343  0.01386964 -0.10591176 ...  0.0184691  -0.05607816
    0.04595597]
  [-0.11821532 -0.01297522  0.09668544 ...  0.06401691 -0.0052723
   -0.08826503]
  [ 0.09675119 -0.01106284 -0.1044339  ... -0.07463527 -0.04898421
   -0.08813713]
  ...
  [ 0.12014191 -0.00172656  0.0921131  ... -0.00239718 -0.07854018
   -0.02574173]
  [-0.11641936 -0.09394575  0.02979823 ... -0.00388144 -0.07643473
   -0.07353359]
  [ 0.01928944  0.06103809  0.07800787 ... -0.10134605  0.09572332
    0.01263241]]

 [[-0.02526261 -0.02385333 -0.10734444 ... -0.12089106  0.09238799
    0.0843634 ]
  [-0.09504232 -0.0520997   0.02652937 ...  0.05773002  0.06719097
    0.10365459]
  [ 0.04534254  0.09441335 -0.07515665 ...  0.11003827 -0.10729553
   -0.03915485]
  ...
  [ 0.00560631 -0.13064866  0.05625206 ...  0.06879828  0.12897591
   -0.1020989 ]
  [ 0.07603829 -0.0135343  -0.09167388 ...  0.08187725 -0.10111833
   -0.08246273]
  [-0.02269939  0.10666919  0.03082295 ... -0.13004282  0.11438905
    0.05554058]]

 [[ 0.06396576  0.03469642  0.0015499  ... -0.1139979  -0.00052046
   -0.02395953]
  [-0.07238466 -0.05612969 -0.00757265 ...  0.07395706 -0.07123902
    0.06436151]
  [ 0.00551389 -0.04241939 -0.01566004 ... -0.02914618  0.08277959
   -0.12562163]
  ...
  [-0.07357999  0.10767934  0.03680539 ...  0.00041191  0.11929235
    0.04367441]
  [ 0.08357599 -0.09255499 -0.11850829 ...  0.0121379  -0.12186282
    0.07540262]
  [-0.07900358  0.00380278  0.09272444 ...  0.10442067  0.08558663
   -0.03819843]]]
conv1d_4/bias:0
(64,)
[-0.00022138 -0.03872987  0.02741593 -0.00558412  0.00464486 -0.02699979
  0.05151725 -0.00829547 -0.00827307 -0.02393685  0.         -0.01031878
 -0.02006016 -0.03039126 -0.01849095 -0.02040466  0.05595875 -0.01384593
  0.         -0.03125612 -0.02295423 -0.00882687 -0.0175611  -0.00397562
 -0.0060007  -0.0086171   0.         -0.00981811 -0.01166434 -0.01318276
 -0.00846933  0.0819381  -0.01312223 -0.02295068 -0.0115103  -0.00814454
 -0.0058295  -0.00960428 -0.03292029 -0.00982967 -0.01042641 -0.01515901
 -0.01983602 -0.02392857 -0.0043558   0.00029916  0.08576936 -0.01199958
 -0.01617931  0.08155879 -0.01104658 -0.00529589 -0.00815359 -0.00711971
 -0.00904327 -0.01009632 -0.0159102   0.05999244 -0.02563877 -0.02172053
 -0.01107968 -0.00699493 -0.01668582 -0.02311356]
conv1d_5/kernel:0
(5, 64, 64)
[[[ 0.01652924 -0.09103638 -0.05822669 ... -0.10058753  0.0528082
   -0.10594426]
  [-0.05717245 -0.01844132  0.02673042 ...  0.01271446 -0.04918341
    0.03554493]
  [-0.02396217 -0.00142878  0.02951518 ... -0.04634507  0.00410094
    0.04359598]
  ...
  [-0.00900873 -0.0156461  -0.06177076 ... -0.04829929 -0.05573816
    0.02794291]
  [-0.07630755  0.07174198  0.07717565 ...  0.0146568  -0.05036531
    0.05260029]
  [-0.02208827  0.03809564  0.07725984 ...  0.07231645  0.02530527
    0.07554271]]

 [[-0.06390078  0.01701819 -0.0633119  ...  0.00771516 -0.05043253
    0.05682142]
  [-0.06471477 -0.04192    -0.00149996 ...  0.00543824  0.02445951
   -0.02782052]
  [-0.00506676  0.06223722  0.01600872 ... -0.0914307   0.06148674
   -0.11104837]
  ...
  [-0.05636653  0.0150555  -0.04158749 ...  0.0781078   0.07536068
    0.00912292]
  [ 0.04444642  0.03595091  0.00329822 ...  0.0885818  -0.02606613
   -0.00167979]
  [ 0.00484126  0.02434022  0.04024261 ... -0.07029231  0.0563802
   -0.10122439]]

 [[-0.07735154 -0.07898686 -0.0253972  ... -0.0117062  -0.06459288
    0.07330212]
  [ 0.01019663  0.02855788  0.05757506 ...  0.00127387  0.03522163
    0.01737041]
  [-0.08559073 -0.08288184 -0.06509012 ...  0.06509646 -0.0768156
    0.07343638]
  ...
  [ 0.03131803  0.0356176  -0.03410929 ...  0.06701049 -0.0401609
    0.04541789]
  [-0.05469332 -0.01277001 -0.05163608 ... -0.07061876  0.07027644
    0.08969189]
  [-0.00511105 -0.02064747 -0.062423   ... -0.01753219 -0.04604273
   -0.11380748]]

 [[ 0.01703142 -0.03812931 -0.02715447 ... -0.04549674  0.08183897
    0.03560886]
  [ 0.06544805 -0.08408728  0.00670126 ...  0.0308618  -0.05033543
   -0.06563049]
  [-0.01637658 -0.0922797   0.00999719 ...  0.0318566   0.01782376
   -0.08356101]
  ...
  [ 0.06365611 -0.01517937  0.02938169 ...  0.0114431   0.00997128
    0.0239597 ]
  [-0.04142557 -0.04396519 -0.05429233 ...  0.09288725 -0.02160269
    0.05987471]
  [-0.06135334  0.02250764 -0.04346356 ... -0.06781282 -0.06580994
   -0.06158478]]

 [[-0.05077599  0.04140645 -0.04673998 ... -0.03692876 -0.00361143
    0.01298846]
  [ 0.03612478  0.06394628 -0.04581034 ...  0.02325681 -0.0273039
   -0.0133103 ]
  [-0.09680796 -0.01164066 -0.07961622 ... -0.08299895  0.00777141
    0.04449925]
  ...
  [ 0.02569437 -0.0421882   0.05767512 ... -0.06124387 -0.0297932
    0.05471419]
  [-0.0564575  -0.01828169  0.0576974  ... -0.09638748 -0.02278604
    0.07925586]
  [-0.02543102  0.08806887  0.06363913 ...  0.0548724   0.03417841
   -0.04149597]]]
conv1d_5/bias:0
(64,)
[-0.01360706  0.          0.          0.         -0.0065291  -0.00746297
 -0.00744657  0.         -0.01487184 -0.00374245  0.          0.01789187
 -0.01392326  0.         -0.00600007  0.         -0.00810371  0.
  0.         -0.00638623 -0.02405397 -0.00600362  0.         -0.0083046
  0.          0.02202716 -0.00717432 -0.00835101 -0.00228822 -0.00681297
  0.         -0.00735363 -0.03117539 -0.00626643 -0.0063232  -0.02908546
 -0.00824704 -0.01594426 -0.00225294 -0.00744288 -0.01284901  0.01487644
  0.          0.         -0.01245378 -0.01662597 -0.01031415 -0.00640128
 -0.00533773 -0.008614   -0.02623804 -0.0042785   0.02425035 -0.02872903
  0.          0.         -0.00326057 -0.00754391 -0.00574401 -0.00533134
 -0.0072658  -0.00777396 -0.01894318 -0.0256006 ]
dense/kernel:0
(640, 128)
[[-0.01530207 -0.00071593  0.03686101 ...  0.07541195 -0.00180665
  -0.05576885]
 [-0.04829847 -0.00285355  0.0515746  ...  0.08685973  0.0799383
  -0.10786005]
 [-0.08117765 -0.00568708  0.03162405 ...  0.00100655  0.01179432
  -0.04219064]
 ...
 [-0.02352342 -0.07798901 -0.0338683  ...  0.05325598  0.07174226
   0.03521295]
 [-0.05538649 -0.06687734  0.04971312 ...  0.04369998 -0.03090112
   0.0543356 ]
 [-0.07380956 -0.05642443  0.01944481 ...  0.03001492  0.05954669
   0.04142091]]
dense/bias:0
(128,)
[-0.00620335 -0.02701906 -0.00549222  0.03099902 -0.00350354 -0.02194294
 -0.0132655  -0.01864717  0.         -0.01812824 -0.04646106 -0.01831783
 -0.00726628  0.02653447 -0.00540076  0.04240716 -0.00838573 -0.01662993
  0.         -0.00771128  0.         -0.00649257 -0.00182126  0.
  0.01624268 -0.00467532  0.         -0.03578039  0.          0.02679628
 -0.01108178 -0.00509422 -0.00600034  0.01534055  0.02701833 -0.00694714
  0.04468808 -0.01201215 -0.00538335 -0.00461864 -0.02706588 -0.03826952
 -0.0219334  -0.00907374 -0.00708885 -0.00732137  0.05209388  0.
 -0.00742904 -0.04165474 -0.00759072 -0.00873197 -0.04293602 -0.0081489
 -0.01104622  0.         -0.00600545 -0.02938209 -0.03853734  0.
 -0.0381481   0.         -0.00603834  0.05176534 -0.00599523 -0.02913793
  0.         -0.00719671 -0.00600199  0.02016619 -0.00757998 -0.00592212
  0.         -0.00609678 -0.0124145  -0.00599463 -0.00609593 -0.02992903
  0.03073111  0.         -0.01755861 -0.00995607 -0.02439401 -0.03942699
 -0.05809757 -0.00776923 -0.00750819  0.         -0.00685866 -0.00753618
 -0.01381946 -0.030844   -0.04800658 -0.02986597 -0.02620902  0.
 -0.00669267 -0.02403803 -0.00598693 -0.03920321 -0.0095225  -0.02393064
 -0.00588569 -0.02689757  0.          0.         -0.0348583  -0.02895972
 -0.02379071 -0.00748344  0.          0.          0.04533337 -0.04389065
  0.          0.         -0.00031169 -0.00402317 -0.0083153  -0.0069773
 -0.0053305  -0.00913767  0.03090052 -0.00723959 -0.00648121 -0.03922978
 -0.01904816 -0.03642308]
dense_1/kernel:0
(128, 60)
[[-0.12844549 -0.02028578  0.01201684 ...  0.12856264 -0.06882784
   0.10048246]
 [ 0.10448423 -0.11004958  0.13457452 ... -0.04709315  0.16179216
   0.01285167]
 [ 0.07669693 -0.15050878 -0.03294161 ...  0.08561674 -0.11310933
   0.08727178]
 ...
 [-0.00105748  0.04846495  0.05287082 ...  0.05139936 -0.05765706
  -0.11597209]
 [-0.19966254  0.02049736  0.06497048 ...  0.04095244  0.1462041
   0.06066111]
 [ 0.00574015 -0.01041062 -0.07457095 ...  0.00705571  0.1429945
   0.11963276]]
dense_1/bias:0
(60,)
[-0.04193891  0.01059291  0.02819999 -0.07823841 -0.04963018  0.01918193
 -0.07105146  0.0205364  -0.03733755  0.0192613  -0.02220446  0.02772375
 -0.06405256  0.08297526  0.02525197 -0.05162337  0.02372063  0.03918967
 -0.04490522 -0.03287895 -0.02269769 -0.0476732  -0.02069538  0.00689751
  0.02396775 -0.05331406 -0.06594829  0.05407828 -0.06009451  0.03507881
  0.02642926 -0.04653439  0.0126589   0.01419953  0.03174981  0.0660165
 -0.01523331 -0.02679672  0.03211726  0.06403153  0.03472939  0.02472557
 -0.02992847 -0.02463045  0.01360496  0.03582372 -0.06780763 -0.05955937
 -0.03431092  0.10392758 -0.02783077  0.045399    0.04115532 -0.02347991
 -0.02275774 -0.06724294  0.08116276 -0.0681382   0.07628538  0.02212504]
dense_2/kernel:0
(60, 1)
[[-0.06625636]
 [ 0.20147732]
 [ 0.13192241]
 [-0.04264554]
 [-0.08350064]
 [ 0.16497807]
 [-0.04634578]
 [ 0.1938924 ]
 [-0.07625984]
 [ 0.17360848]
 [-0.20979178]
 [ 0.16768736]
 [-0.05886969]
 [ 0.04596546]
 [ 0.12081429]
 [-0.08677424]
 [ 0.19579245]
 [ 0.0864808 ]
 [-0.06488656]
 [-0.11171355]
 [-0.16886386]
 [-0.07363235]
 [-0.1706426 ]
 [ 0.23902562]
 [ 0.19877759]
 [-0.08806199]
 [-0.06758036]
 [ 0.09727704]
 [-0.0573298 ]
 [ 0.09889777]
 [ 0.13631411]
 [-0.04682208]
 [ 0.20906201]
 [ 0.24593063]
 [ 0.10103652]
 [ 0.05326309]
 [-0.17789575]
 [-0.16011599]
 [ 0.16853201]
 [ 0.05799703]
 [ 0.08586019]
 [ 0.17997847]
 [-0.10244495]
 [-0.14184237]
 [ 0.26027662]
 [ 0.1181792 ]
 [-0.04688226]
 [-0.08499318]
 [-0.10158508]
 [ 0.04395105]
 [-0.10837877]
 [ 0.09228043]
 [ 0.10920483]
 [-0.17523432]
 [-0.24272923]
 [-0.06038127]
 [ 0.04272751]
 [-0.05231003]
 [ 0.04143095]
 [ 0.17738068]]
dense_2/bias:0
(1,)
[0.20300941]
