lstm/lstm_cell/kernel:0
(4, 200)
[[-3.79248001e-02  1.15221091e-01  1.78305730e-02 -1.47819724e-02
  -2.83898991e-02 -5.43019250e-02  5.35932668e-02 -1.25398681e-01
  -1.62651911e-02 -8.40523690e-02 -1.10231927e-02 -1.13022670e-01
   1.45886496e-01  5.53119816e-02 -8.67863838e-03  1.84016168e-01
   9.10611153e-02  1.16266973e-01  2.11135317e-02  4.35234122e-02
   1.02946155e-01  1.35016903e-01 -7.87346736e-02 -6.57316074e-02
  -1.33292884e-01 -3.33179906e-02 -6.40483573e-02  5.57925515e-02
   8.62656236e-02  8.76725391e-02 -5.74659556e-02 -2.29832381e-02
  -1.34865329e-01  1.53522328e-01 -1.01545691e-01  1.50483102e-01
  -1.74607411e-01 -5.89181595e-02  1.90358553e-02  5.24086915e-02
  -6.90587908e-02  6.54209033e-02  1.57178238e-01  6.20248131e-02
   9.49567035e-02 -1.51790455e-01  1.69395566e-01  4.94028553e-02
  -1.44257382e-01 -6.65309280e-02  1.84226707e-01  1.37338176e-01
  -6.19417243e-02 -1.29438967e-01  3.67592983e-02 -9.16659757e-02
  -1.51885316e-01  1.76051185e-01 -1.55446708e-01  6.33057058e-02
   6.53960407e-02  3.95440422e-02  1.56670600e-01  1.22460939e-01
  -1.49517804e-01 -1.80271193e-02 -1.28450900e-01 -1.48644269e-01
  -3.07673886e-02  1.83135003e-01 -8.43832851e-04  7.27607310e-02
  -1.56382233e-01  1.64967179e-01 -1.35537267e-01  1.54783472e-01
   1.72910407e-01  1.16859056e-01 -3.37135680e-02 -1.62905470e-01
   2.20746826e-02 -5.24147041e-02  7.66616091e-02 -4.98636439e-02
  -2.28010826e-02  1.29797220e-01  1.14782840e-01  1.11943647e-01
   4.68322374e-02  4.31666821e-02  4.09610085e-02 -3.47615182e-02
  -3.56807522e-02 -2.23304145e-03  1.48623094e-01 -1.12959698e-01
   9.79098231e-02 -1.57805577e-01 -6.07379191e-02  7.22876713e-02
  -2.90204957e-02 -1.17089804e-02 -7.98112378e-02 -4.48712632e-02
  -1.25104114e-01 -1.50637120e-01 -1.17384650e-01 -2.36198641e-02
  -1.44972682e-01 -2.37449557e-02  9.04556438e-02  1.23951241e-01
  -1.69502720e-01  5.15849032e-02  9.43188965e-02  1.48200810e-01
  -9.46740583e-02 -1.18683025e-01 -1.57554865e-01 -1.09683000e-01
   1.12851173e-01 -1.54471084e-01 -1.43189937e-01  7.92974699e-03
   1.16388917e-01  1.38669878e-01  9.99776945e-02  1.03334494e-01
   1.39945492e-01  1.31344691e-01  8.43012035e-02  1.57309100e-02
  -1.62558213e-01  1.09600566e-01  1.24683864e-01  8.94738734e-02
  -5.07294666e-03 -1.74449742e-01 -8.29175636e-02  1.03895016e-01
   1.70103922e-01  1.11690328e-01  1.33547470e-01  1.34877995e-01
  -6.14220127e-02  1.35604531e-01 -3.03880237e-02  8.64605978e-02
  -3.59628536e-02  1.46949425e-01  1.60270438e-01 -1.70820113e-02
   9.00992081e-02  1.00520961e-01 -8.94084424e-02  5.20202070e-02
   1.13954000e-01 -9.60695669e-02  1.47161325e-02  1.37763649e-01
   4.03832607e-02  1.63825408e-01 -1.35684848e-01  1.62722483e-01
   1.35369599e-02  2.28957944e-02  7.35264868e-02 -1.28988981e-01
  -1.50726005e-01  6.74873665e-02  1.09039739e-01  5.46307676e-02
  -1.66536078e-01 -5.11654094e-02  1.21396855e-01  1.09267786e-01
  -6.73438236e-02 -1.19266711e-01  1.40353888e-01 -2.88727358e-02
   4.80184630e-02 -1.43532738e-01  1.74191967e-01  3.54968496e-02
  -7.83307031e-02 -9.40152183e-02 -1.83526110e-02 -1.18883714e-01
   9.83783379e-02 -5.45557365e-02 -6.29423885e-03  2.79787723e-02
   1.09742612e-01 -3.00320098e-04 -3.33780907e-02 -3.93343857e-03
  -1.75178982e-02 -1.40769914e-01  9.60977972e-02  6.59985766e-02]
 [-1.45966440e-01  1.17022535e-02 -1.55865207e-01 -6.34706393e-02
  -1.16150886e-01  1.34219885e-01 -2.40045767e-02  1.18609637e-01
  -3.24175530e-03 -1.54399320e-01  1.93803255e-02 -6.99699223e-02
   1.34481937e-01  1.03313267e-01  1.38167754e-01  9.46546346e-02
  -1.50295958e-01  9.53774005e-02 -5.65052889e-02  1.93620473e-01
  -1.76185311e-03  7.96041545e-03 -1.08245932e-01  1.48302063e-01
   1.41535163e-01 -9.33928490e-02  8.15770328e-02  9.05540735e-02
  -7.57274702e-02  1.54237121e-01  6.22594319e-02 -5.33887856e-02
  -1.05236851e-01  1.55350059e-01 -3.67093161e-02  2.08265763e-02
   3.70593257e-02  2.29728725e-02 -1.21143490e-01  7.82216489e-02
   1.56594932e-01  9.33353826e-02  1.47846580e-01  2.04884052e-01
   5.34436442e-02  3.70957181e-02 -1.35379598e-01  6.73425719e-02
  -6.93034753e-02 -4.73470017e-02 -7.34931603e-02  1.56150401e-01
  -1.00093335e-01 -1.60359487e-01  1.61864489e-01 -3.12223658e-03
   1.55929729e-01  1.03129745e-01  5.14333658e-02 -3.79002541e-02
  -1.21080384e-01 -1.44613340e-01  8.14565867e-02  5.56690879e-02
  -1.34611160e-01 -8.65580812e-02  1.06385075e-01 -4.67663333e-02
  -1.44203290e-01 -3.50154266e-02 -1.60583258e-01  1.06714517e-01
  -1.59189716e-01 -1.62645116e-01 -6.57482743e-02 -1.52231112e-01
   7.23883584e-02  1.46986932e-01  1.12781130e-01  5.13890907e-02
  -5.73909059e-02  9.09125954e-02 -1.32679921e-02  4.95047159e-02
   1.01491921e-01 -2.16933209e-02  7.84619600e-02  1.11495033e-01
   1.54984534e-01  1.53888300e-01 -1.51535243e-01 -1.37815878e-01
   1.25055879e-01  1.30220324e-01  1.66736737e-01  1.47461176e-01
   9.56527591e-02  1.49578452e-01  4.21288833e-02 -5.20943254e-02
   1.59657195e-01  7.77982408e-03 -1.30978033e-01  2.41120961e-02
  -1.49300382e-01 -1.02122068e-01 -3.76105085e-02  8.53977427e-02
  -1.17617570e-01  8.33640024e-02 -1.03578128e-01 -4.71614487e-02
  -1.86860207e-02 -5.68015277e-02  1.03025526e-01 -9.97182801e-02
  -1.47467643e-01 -4.05117981e-02 -1.65917188e-01  1.62501466e-02
  -1.55043975e-01  2.55764034e-02 -1.37020111e-01 -7.36638755e-02
   1.50359094e-01 -1.10333741e-01  1.14877567e-01 -7.45786279e-02
   7.03367032e-03  7.12137856e-03  6.14140853e-02  3.37243341e-02
  -1.60729945e-01 -3.45934369e-02  1.25152066e-01 -7.18954802e-02
  -1.52894706e-01  7.41410777e-02 -7.90774077e-02  1.02961153e-01
   7.17535838e-02 -1.05862096e-01  4.30151410e-02 -2.98851021e-02
  -7.83972442e-02  5.90155870e-02 -1.47051275e-01  1.52229950e-01
  -1.79250222e-02  3.62759978e-02  1.39013380e-01  1.32129997e-01
  -2.79956940e-03  9.72712934e-02 -3.71300876e-02  2.36176878e-01
  -9.41132009e-02 -1.11108154e-01  7.53840730e-02  1.57186568e-01
   7.20110014e-02  1.32869207e-03  1.59073219e-01  1.48060828e-01
   6.32406212e-03  2.70878058e-02  8.62426832e-02 -6.92269579e-02
   5.41557670e-02 -9.61842090e-02 -1.32815391e-02 -1.46831378e-01
  -9.81752127e-02 -8.16486776e-02 -7.68685862e-02  9.47255790e-02
   1.68051913e-01  3.98712978e-02  2.02085711e-02  5.36890030e-02
  -9.75030288e-02  4.59166579e-02  1.08278720e-02  3.84373404e-02
  -6.34352416e-02  5.55968471e-02 -1.20619975e-03  1.41810536e-01
  -6.26962334e-02 -2.42784265e-02 -1.13742076e-01 -7.06624761e-02
   1.72587484e-01  1.29833028e-01 -1.32917732e-01  4.38925847e-02
   1.78332150e-01  1.56641662e-01  1.32712319e-01 -4.57055457e-02]
 [-9.33018848e-02  1.65394731e-02 -6.83581457e-02 -1.38495594e-01
   3.19327693e-03  2.45794524e-02  1.62917390e-01  7.80699998e-02
  -1.17764443e-01  1.51043564e-01 -1.39978034e-02 -1.56119419e-02
   9.21756178e-02 -9.87623781e-02  1.40098497e-01 -5.63108809e-02
   1.60233334e-01  2.06027157e-03  1.48785770e-01  3.51456404e-02
  -1.28145769e-01  3.06269079e-02  9.10498351e-02  1.35330122e-03
  -7.78567344e-02 -7.28331283e-02  6.45924360e-02  8.53926614e-02
   1.09556481e-01 -1.72534212e-01 -1.55840740e-01  9.14535746e-02
   5.62034510e-02  1.08416378e-01  8.39037597e-02  3.73956142e-03
  -8.32464471e-02 -1.01277448e-01  6.52888119e-02  1.22467633e-02
  -1.20232575e-01 -6.68273643e-02 -7.69243762e-02  1.47280842e-01
  -9.47642103e-02  1.24556661e-01  4.87641953e-02 -1.01706505e-01
  -6.34899065e-02 -3.83141525e-02  1.84181816e-04  1.12018093e-01
   2.65674423e-02  1.14691049e-01  4.59385924e-02 -7.77004436e-02
   6.07858002e-02 -1.52345553e-01  1.08065031e-01  1.27505630e-01
  -1.46618307e-01  7.28869587e-02 -1.31274834e-01  1.02777734e-01
  -9.84351113e-02  8.08978360e-03  1.39218375e-01  1.03482246e-01
  -1.15745023e-01 -1.19159155e-01 -7.89019838e-02  1.52991414e-01
   1.01209648e-01  6.36863932e-02 -3.88301685e-02 -1.21217117e-01
   1.36651352e-01 -1.21620230e-01 -1.39727503e-01  5.13330996e-02
  -1.12911522e-01 -1.53981268e-01 -1.34008467e-01 -9.06740949e-02
  -3.52860764e-02 -1.42613798e-01 -1.28674448e-01  1.29904076e-01
   1.08094718e-02  3.57810222e-02 -1.26705002e-02  5.61841354e-02
   1.43565416e-01  1.96075603e-01 -2.03170665e-02  3.80799398e-02
  -2.42260844e-02 -4.98148240e-02  1.16781212e-01 -4.77430671e-02
   9.04839113e-02  1.19234502e-01 -6.15663938e-02  1.29548237e-01
  -8.38834941e-02  1.22877970e-01  4.21937108e-02  1.41085517e-02
  -9.10291523e-02  3.07906196e-02  8.31186399e-02  1.25836253e-01
   4.56635095e-02  1.12617247e-01  9.51472297e-02 -9.04791504e-02
  -3.55940051e-02 -1.21493429e-01  1.61645576e-01  1.53849319e-01
  -1.17679283e-01 -6.76206201e-02 -1.35619268e-01  3.69623341e-02
  -1.24366380e-01 -9.02872384e-02  9.53892395e-02  1.07806660e-01
  -1.20967723e-01  2.31361259e-02 -5.17392345e-02 -5.50438687e-02
   1.63917899e-01  1.50280893e-01  6.87389523e-02 -6.01183139e-02
   1.27895832e-01  9.31649879e-02  1.55091181e-01  4.70385924e-02
   5.99559620e-02 -1.68126434e-01 -1.21984102e-01 -1.58923462e-01
   2.01235954e-02  2.46162806e-02 -1.47717744e-01  4.15163636e-02
  -1.31175682e-01 -1.37604952e-01 -1.35909602e-01  1.76771462e-01
  -5.40910251e-02  1.41853243e-01  1.38110459e-01  7.11454079e-02
   3.21724801e-03 -8.98645376e-04 -1.45970881e-01  1.31041855e-01
   2.63385624e-02 -1.21156938e-01 -3.39404792e-02 -9.47140455e-02
  -8.24676380e-02  1.63903505e-01 -3.93629633e-03  1.75510183e-01
  -6.14522733e-02 -3.51890512e-02  9.72491875e-02 -6.04222491e-02
   1.28294662e-01 -1.25670228e-02 -1.01307221e-01 -1.62749961e-02
   6.94544688e-02 -6.09856360e-02  8.38340223e-02 -9.44784582e-02
  -1.49934739e-01 -1.77202951e-02 -8.56728107e-02  5.69846518e-02
  -2.59777885e-02  1.71201319e-01 -1.12035029e-01  6.01680167e-02
   1.44476354e-01  8.44238698e-02 -1.96449813e-02  3.33620571e-02
   4.71471623e-02  6.96459934e-02 -5.06249182e-02 -2.44859941e-02
  -8.32376927e-02  9.90957096e-02  1.12883233e-01  7.79781444e-03]
 [ 5.99806085e-02  8.61420296e-03  7.45443553e-02 -8.15320462e-02
  -7.40531385e-02  4.43394482e-02 -1.16856635e-01  3.80640104e-03
   1.74390264e-02 -1.20196424e-01  2.23499760e-02  2.16882508e-02
   1.12137772e-01  2.94379052e-02  1.54745862e-01  1.64014786e-01
   4.58834209e-02  5.15675619e-02  8.77083987e-02  2.44864379e-03
   6.61904886e-02 -1.09824918e-01  3.38522866e-02 -1.14176562e-02
   8.53031501e-02  1.25897020e-01 -1.37158027e-02  1.31200075e-01
   1.37403950e-01 -4.81745182e-03  9.38247144e-02  7.81297963e-03
   1.79837510e-01  1.39022887e-01 -7.89219886e-02  7.65088275e-02
   4.00176970e-03 -5.31311110e-02  2.66854092e-02  1.36391237e-01
   1.10347815e-01 -6.61985800e-02  1.41647458e-01 -3.05106808e-02
  -1.15502007e-01  9.06597003e-02 -1.36201531e-01  9.11960825e-02
  -1.49945691e-01 -2.27526501e-02  4.19598073e-02  1.33286551e-01
  -9.25878808e-03  1.42292857e-01 -7.17079863e-02  1.91854775e-01
  -8.10357556e-02 -1.10896826e-01  3.80782634e-02  1.54481485e-01
   8.44117180e-02  6.16215691e-02  1.63449526e-01  1.11524358e-01
  -9.86301452e-02  6.96797967e-02 -2.82758232e-02  1.54254019e-01
  -6.86723515e-02  6.44562989e-02  1.28308401e-01  1.36417717e-01
  -1.33908004e-01 -1.59226924e-01  5.46675213e-02  1.09063014e-01
   8.82713124e-03  6.81973100e-02 -9.34763253e-02 -8.27726163e-03
  -1.07168719e-01 -4.84411009e-02 -8.80771950e-02  2.76922081e-02
  -4.73898873e-02  2.36389302e-02 -1.72405485e-02  3.13324593e-02
  -8.70639458e-02  4.37928997e-02  8.75358433e-02  1.35304436e-01
   4.36538719e-02 -7.59496614e-02  1.16554543e-01  5.11108339e-02
   5.35212178e-03 -9.05129015e-02 -1.29292995e-01  7.78371021e-02
   1.56456187e-01 -2.77327131e-02  1.50171656e-03  7.74405524e-02
  -1.23939142e-01 -5.22357337e-02 -8.59419629e-02  1.44678369e-01
  -8.79257098e-02  1.67386055e-01 -2.03958005e-02  6.39517382e-02
  -3.72578613e-02  9.18990597e-02  2.31945403e-02 -8.21400657e-02
  -7.33896391e-03 -9.94002074e-02  8.26715771e-03  7.97059014e-02
  -3.45297568e-02 -7.15734586e-02 -9.25312862e-02  1.28340468e-01
  -9.08245295e-02  2.80283624e-03  5.87072000e-02  1.30340651e-01
   1.19322814e-01  3.02466135e-02 -4.33392674e-02 -1.22292906e-01
   9.20827240e-02 -8.57902542e-02  9.24485102e-02 -5.55845238e-02
  -1.09687135e-01  9.01810452e-03  4.42389064e-02  1.16032451e-01
  -1.17833391e-01 -1.22243308e-01 -9.81870666e-02 -6.44726902e-02
  -5.51186725e-02  1.48688525e-01  5.38452342e-02 -4.21013087e-02
  -1.61962360e-01 -1.67234719e-01  1.30793542e-01 -7.40464330e-02
  -1.17537901e-02  1.16741896e-01  8.86709169e-02  2.29844585e-01
   1.09108068e-01  1.78639293e-01 -3.99702564e-02  1.13837749e-01
   1.32789075e-01 -4.41124253e-02  8.05152394e-03  4.20039631e-02
   1.81945130e-01 -1.11114621e-01  1.34785846e-01 -1.54404745e-01
  -1.35149717e-01  1.97105363e-01 -1.15340371e-02 -1.21727698e-01
   1.40591666e-01  2.89453231e-02  4.81865555e-03  1.20895598e-02
   1.18145071e-01 -1.75074771e-01 -1.26969621e-01 -2.74755359e-02
  -7.99971223e-02 -7.13214800e-02  9.18864459e-02 -1.13853715e-01
  -1.23280041e-01  3.69523503e-02 -1.01634428e-01 -1.41660243e-01
   1.31643027e-01  5.88192157e-02  5.31690642e-02  2.50147674e-02
  -9.55458581e-02 -5.06753363e-02 -5.99690378e-02 -1.48561701e-01
   8.14809203e-02 -2.05817036e-02 -6.78675920e-02 -1.08047001e-01]]
lstm/lstm_cell/recurrent_kernel:0
(50, 200)
[[ 0.00385329  0.06595508 -0.1409409  ...  0.04259501 -0.04683006
  -0.04993417]
 [-0.06110965  0.05087829  0.00675313 ...  0.08372135 -0.04831149
   0.01162052]
 [-0.09385073  0.09470152 -0.09283577 ...  0.00857525  0.01607185
   0.00397326]
 ...
 [ 0.00737101  0.03463407  0.09021622 ... -0.07742845  0.00080906
  -0.00261725]
 [ 0.03564403  0.0222273   0.00457502 ... -0.1098737   0.08954167
   0.13243915]
 [-0.0134983   0.090873   -0.07878675 ... -0.11657924 -0.02478794
  -0.05457781]]
lstm/lstm_cell/bias:0
(200,)
[ 4.38153418e-03  7.88819860e-04  1.48615427e-03 -3.78249492e-03
 -7.50144105e-03  4.82967310e-02  1.36967329e-02  4.37192479e-03
  2.04304908e-03  8.52880906e-03 -9.22537688e-03  5.38404193e-03
  2.02816632e-03 -1.21887680e-03  1.94724631e-02 -1.16984395e-03
  1.04451207e-02 -6.18087174e-03  1.61891559e-03  2.33392585e-02
  1.16395978e-02  9.21452604e-03 -6.78467797e-03  1.08124036e-03
 -1.40848998e-02 -6.61210855e-03 -3.16044316e-03 -6.98499987e-03
 -1.32001489e-02 -1.21195931e-02 -1.80752110e-02  2.84743123e-03
 -6.69865357e-03  5.44866314e-03 -1.04757249e-02 -1.03311976e-02
  2.06770469e-03  1.74691845e-02  3.84807005e-03  1.51700003e-03
  8.88097286e-03  3.58132343e-03  4.33893874e-03  1.29457228e-02
 -1.39047322e-03 -6.46948349e-03  3.29974573e-05  1.53163192e-03
 -5.73242760e-05 -2.80813240e-02  9.89270210e-01  9.96409416e-01
  9.94719028e-01  9.95950043e-01  9.78324771e-01  9.91737545e-01
  9.95518863e-01  9.96927500e-01  9.86026347e-01  1.00227344e+00
  9.90633786e-01  9.95085955e-01  9.93239105e-01  9.92891252e-01
  1.00379121e+00  9.93894398e-01  1.00469196e+00  9.82718408e-01
  9.98573124e-01  9.96760011e-01  9.99293745e-01  1.00084054e+00
  9.90593255e-01  9.95605886e-01  9.86995399e-01  9.92571294e-01
  9.86688495e-01  9.92999136e-01  9.87532139e-01  9.87598956e-01
  9.82177258e-01  9.96375561e-01  9.87901092e-01  1.00205994e+00
  9.86052334e-01  9.83513474e-01  1.00186646e+00  1.01135147e+00
  9.99496698e-01  9.92453754e-01  1.00219083e+00  9.67694759e-01
  9.99667704e-01  9.98550236e-01  9.94392693e-01  9.86969531e-01
  9.84824240e-01  9.94480968e-01  9.93555844e-01  9.68913436e-01
 -5.63948378e-02 -1.18859438e-02  2.39749979e-02 -1.93853676e-02
  5.41919172e-02  3.47635671e-02  2.14546453e-02 -1.02045191e-02
  5.74876666e-02  3.24627827e-03 -2.09103022e-02 -3.73758599e-02
  2.21121144e-02 -2.18901355e-02 -4.00134027e-02  1.46772722e-02
  6.20063511e-04  6.36352152e-02  1.65969022e-02 -1.81047246e-02
  3.93809527e-02  2.87916232e-02  3.30421925e-02  7.77821476e-03
 -1.04852207e-02  8.32462404e-03 -4.87586148e-02 -3.42880166e-03
 -5.97127620e-03 -2.88127232e-02 -2.23007007e-03  2.02245787e-02
  4.08499204e-02 -1.19019132e-02 -4.20765579e-02  2.49162186e-02
  3.34018916e-02 -2.83656456e-02 -1.05637843e-02 -3.04869208e-02
 -2.11013053e-02  2.17229594e-02  6.46617915e-03  6.52422383e-03
  1.51063204e-02 -2.69663911e-02  2.70599686e-02 -3.17830667e-02
  2.75983922e-02  5.78694837e-03  8.01601564e-04  1.22110464e-03
  8.17151682e-04 -1.80664624e-03 -5.72184427e-03  3.15267071e-02
  1.22722089e-02  4.99695307e-03  2.30211695e-03  6.63915509e-03
 -9.19542927e-03  5.52773662e-03  7.02692010e-03 -1.40097877e-03
  1.79354493e-02  4.18182579e-04  1.10735027e-02 -4.03743004e-03
  3.45867290e-03  2.47401875e-02  1.11190658e-02  1.12654381e-02
 -3.99292354e-03  1.87068002e-03 -1.37676038e-02 -6.61715074e-03
 -2.43515288e-03 -7.55353272e-03 -1.33931935e-02 -1.18586766e-02
 -1.80675425e-02  2.72351853e-03 -8.63429252e-03  6.70901965e-03
 -2.95964838e-03 -9.79853515e-03  1.83829688e-03  1.50281889e-02
  3.70001676e-03  3.56558617e-03  1.02140987e-02  3.39005911e-03
  5.07252105e-03  1.69604607e-02  1.11270288e-03 -4.81891260e-03
 -7.75907887e-04  2.86014401e-03 -2.23272131e-03 -2.72071157e-02]
lstm_1/lstm_cell_1/kernel:0
(50, 240)
[[-0.1368778   0.03866635  0.15866156 ... -0.00704555  0.04533181
  -0.13383543]
 [ 0.10055611 -0.02574494  0.08527274 ...  0.07710512  0.05452023
   0.10042767]
 [ 0.02755427  0.04588914  0.08440918 ...  0.00147466 -0.05897355
  -0.11081991]
 ...
 [-0.08962066 -0.10703257  0.02951473 ...  0.02396794 -0.01867522
  -0.0565347 ]
 [-0.08552273 -0.1250604  -0.10914874 ... -0.02599195 -0.01667309
  -0.00430875]
 [ 0.09882339 -0.05360135  0.05195138 ...  0.02503758 -0.00721982
   0.08288148]]
lstm_1/lstm_cell_1/recurrent_kernel:0
(60, 240)
[[-0.04553398 -0.04440579 -0.17168072 ...  0.08953603 -0.05255368
   0.02025233]
 [ 0.03832534  0.05773169 -0.00707528 ...  0.11596633  0.0154013
   0.03516188]
 [ 0.03649669  0.01784632  0.03672379 ... -0.03229026  0.11137915
   0.04161416]
 ...
 [-0.08067539  0.01142609 -0.12420564 ...  0.0347096   0.04932245
   0.07911061]
 [ 0.09736234  0.01917823  0.06307294 ...  0.10960108 -0.0212786
  -0.09467427]
 [-0.01128367  0.00482063  0.1022499  ... -0.0723106  -0.11857606
   0.11590935]]
lstm_1/lstm_cell_1/bias:0
(240,)
[-5.37967961e-03  2.62198900e-03  2.94415411e-02  7.17545347e-03
 -1.26601476e-02  7.14805035e-04  9.10144020e-03  9.72701889e-03
 -6.02073502e-03 -2.39121336e-02  1.10058591e-03 -6.92226598e-03
  4.71109059e-04 -1.30086597e-02 -1.58118363e-02  1.45676630e-02
 -2.32871855e-03  1.47067662e-03 -1.83717795e-02  1.11616624e-03
  2.14726664e-03  4.38060984e-03 -1.47374514e-02 -1.67261008e-02
 -3.23190144e-03  6.10973279e-04  1.39810174e-04 -1.87687855e-02
 -1.38956215e-03 -1.02099469e-02 -2.39849882e-03 -1.83831658e-02
  1.61801744e-03 -1.26774386e-02 -1.04897870e-02 -1.49667282e-02
 -1.24480075e-03 -9.57996002e-04 -4.71672835e-03 -1.21123875e-02
 -1.34295626e-02 -1.52439978e-02 -7.06403516e-03  6.09758217e-03
 -1.23829087e-02  1.92254353e-02  1.07222032e-02  1.12645188e-02
 -8.56352691e-03 -2.53127459e-02  2.16668490e-02  4.36662603e-03
  4.54434892e-03 -6.40633795e-03  2.13299901e-03  1.57415979e-02
  1.07814523e-03  4.58280789e-03 -4.37204866e-03 -6.17746497e-03
  9.87912416e-01  1.00158334e+00  1.00560403e+00  1.00633419e+00
  9.85169709e-01  9.98286724e-01  1.00736594e+00  1.00424170e+00
  9.89617407e-01  9.81969893e-01  9.98877227e-01  9.94744897e-01
  9.99382317e-01  9.89695191e-01  9.87918675e-01  1.00900269e+00
  9.97777224e-01  9.99549389e-01  9.85832155e-01  1.00016797e+00
  1.00029099e+00  1.00401008e+00  9.82637405e-01  9.86398518e-01
  9.96020496e-01  9.99438286e-01  1.00114572e+00  9.84045148e-01
  1.00582397e+00  9.89920199e-01  9.92077112e-01  9.86110151e-01
  1.00414777e+00  9.86144781e-01  9.93857622e-01  9.83960509e-01
  9.99736667e-01  9.98729825e-01  9.95014548e-01  9.88670409e-01
  9.85801935e-01  9.80936110e-01  9.92754400e-01  1.00498092e+00
  9.88245904e-01  1.02000213e+00  1.00428784e+00  1.00898850e+00
  9.91662920e-01  9.82897282e-01  1.00199580e+00  1.00111032e+00
  1.00462568e+00  9.93899286e-01  1.00256908e+00  1.01500905e+00
  9.99890208e-01  1.00212193e+00  9.95208561e-01  9.93902266e-01
 -1.41038215e-02 -1.35739276e-03  7.47439731e-03  3.23180272e-03
  1.22995011e-03 -3.11165611e-04  1.32176199e-03 -7.55923754e-03
 -2.05758936e-03 -7.83714466e-03 -1.96558051e-02  9.11016832e-04
 -8.58248305e-03  5.43762790e-03 -1.93918962e-02  3.31187877e-03
  2.84279371e-03  8.23271461e-03 -3.63267353e-03  1.37751014e-03
  1.74417743e-03 -6.22449815e-03  4.65539237e-03  1.16434752e-03
 -3.45017551e-03  1.09312981e-02  1.17324200e-03  3.96206370e-03
  4.02056752e-03  6.81047421e-03  1.02771604e-02  2.35498045e-03
 -1.21691031e-03  3.46053299e-03 -5.20470366e-03  1.21697271e-02
 -1.14625471e-03 -2.12553442e-02  5.29632671e-03 -1.20770540e-02
 -8.11121799e-03 -2.73720268e-03  1.95470569e-03 -5.88725647e-03
 -1.57630667e-02  7.58224772e-03  6.73575839e-03  8.01734254e-03
  3.08694784e-03 -1.03087174e-02 -5.05949929e-03 -1.32104941e-02
  4.78368485e-03 -1.21351033e-02  6.24664314e-03  3.92884836e-02
 -1.70815159e-02 -2.56265746e-03  1.04890624e-02 -2.92815883e-02
 -6.77732611e-03  2.31460086e-03  2.25574318e-02  6.79417420e-03
 -1.25947455e-02  3.66820575e-04  7.64536858e-03  9.93472990e-03
 -5.93188917e-03 -2.27834247e-02 -4.79840487e-03 -6.43934682e-03
  5.10400685e-04 -1.28367273e-02 -1.49053996e-02  1.50247654e-02
 -2.10750010e-03  1.79714232e-03 -1.81304552e-02  1.04952988e-03
  1.69081043e-03  3.35315778e-03 -1.66088827e-02 -1.68362278e-02
 -3.19410255e-03  1.30126416e-03 -2.32155813e-04 -1.93124749e-02
 -1.39186787e-03 -9.99571569e-03 -4.30836761e-03 -1.81491505e-02
  9.19542683e-04 -1.26124574e-02 -1.18895685e-02 -1.59446560e-02
 -2.55715195e-03 -1.72404165e-03 -5.08968066e-03 -1.30891437e-02
 -1.40876565e-02 -1.36949699e-02 -7.04647228e-03  5.75642381e-03
 -1.12737613e-02  1.65521465e-02  1.08242501e-02  1.05471360e-02
 -8.42239521e-03 -2.48964988e-02  2.22577397e-02 -1.24954048e-03
  4.11708932e-03 -6.58940710e-03  7.28424639e-04  3.24524031e-03
 -6.35985169e-04  3.86595214e-03 -5.55702206e-03 -7.18076574e-03]
dense/kernel:0
(60, 1)
[[-0.11150178]
 [ 0.26147044]
 [ 0.11446793]
 [ 0.05616985]
 [ 0.26895314]
 [-0.23094362]
 [ 0.08870977]
 [ 0.12210333]
 [ 0.20763141]
 [ 0.23843884]
 [-0.05705011]
 [-0.2758617 ]
 [ 0.2202631 ]
 [ 0.29007724]
 [-0.22801329]
 [-0.1301678 ]
 [ 0.05558257]
 [-0.21800777]
 [-0.2920656 ]
 [-0.11171613]
 [ 0.1127343 ]
 [-0.1064029 ]
 [ 0.05829357]
 [ 0.1613276 ]
 [ 0.3020004 ]
 [-0.2990652 ]
 [ 0.1501375 ]
 [ 0.24294809]
 [ 0.1957979 ]
 [ 0.20318115]
 [ 0.06209563]
 [-0.2749414 ]
 [-0.20612775]
 [-0.03030443]
 [-0.12115849]
 [ 0.06222626]
 [ 0.08071446]
 [-0.05242804]
 [-0.22435334]
 [-0.04582081]
 [-0.10383546]
 [-0.19420908]
 [ 0.18118152]
 [ 0.16008468]
 [ 0.29954863]
 [ 0.12520069]
 [ 0.06750868]
 [ 0.05626148]
 [ 0.05474567]
 [-0.2384201 ]
 [-0.11915699]
 [-0.1765074 ]
 [ 0.08847817]
 [-0.09826308]
 [ 0.05939656]
 [ 0.04765807]
 [-0.0546159 ]
 [-0.23203565]
 [ 0.12424139]
 [-0.06931696]]
dense/bias:0
(1,)
[0.06437882]
