lstm/lstm_cell/kernel:0
(5, 200)
[[-9.81845660e-04 -1.19834907e-01  1.70347299e-02  7.19926357e-02
   9.92112458e-02  4.11018915e-02  2.71358620e-02 -8.57159495e-02
   1.84274465e-01 -1.14941880e-01  1.56986639e-01  1.12333491e-01
  -4.95779375e-03 -3.27183716e-02 -8.47953111e-02  1.35015696e-01
   4.37967554e-02  1.28649309e-01 -8.52415413e-02  3.22642550e-02
   6.37884215e-02 -1.28540909e-02  1.44971311e-01 -1.37508428e-02
  -1.04259998e-01 -8.34627971e-02  7.31714591e-02 -8.01118389e-02
  -6.33730739e-03  1.11722454e-01 -4.77516241e-02  1.82560310e-01
  -6.98697641e-02 -1.26993820e-01  1.53105140e-01  2.22121105e-02
   6.51043355e-02  1.13752456e-02  9.35137458e-03  8.28038976e-02
   6.65259510e-02  9.97706875e-02  4.02680039e-02  9.89762247e-02
   1.38530999e-01 -1.76632442e-02 -5.57711497e-02 -4.39777039e-02
  -1.18228838e-01 -7.49508142e-02 -1.20289259e-01  1.12343125e-01
  -7.43827224e-02  3.49252857e-02  1.22622587e-01  7.66033530e-02
   9.05951560e-02 -2.35133246e-02  6.51251376e-02 -6.74176216e-02
  -1.08542684e-02  1.37097850e-01 -1.03803433e-01  6.68112412e-02
  -1.74119342e-02  2.14090291e-02 -3.44556421e-02  7.10426196e-02
   7.96375796e-02  7.63409361e-02 -8.52975175e-02 -1.56708121e-01
  -4.91447523e-02 -6.31248727e-02  1.66812807e-01 -3.89273204e-02
  -9.95400548e-02  1.24017343e-01 -9.68569592e-02  7.78804645e-02
   7.87260011e-02 -1.25240490e-01  1.51106372e-01  5.63710602e-03
  -1.23718916e-03  9.53703932e-03  8.13121498e-02  1.24413751e-01
  -2.11555853e-01 -1.22182369e-01  7.66175538e-02 -1.53931350e-01
  -6.93512335e-02  1.38228804e-01  1.64977089e-01 -1.70436651e-01
  -5.20419404e-02  1.21106833e-01 -1.45747438e-01  1.14593014e-01
   1.39882058e-01  6.94373250e-02  7.48957461e-03  3.58793400e-02
  -4.79098521e-02 -1.41209856e-01  5.54026663e-02  1.54879570e-01
  -1.55703560e-01  8.06642398e-02 -1.09207273e-01  1.62996605e-01
   7.80180246e-02 -7.98653811e-02 -7.16236979e-02  4.63242568e-02
   1.41912535e-01  1.55517548e-01  4.75818217e-02 -1.58231869e-01
  -1.66777074e-01  1.74541473e-01 -1.40993834e-01  1.04448132e-01
  -9.88851041e-02 -1.17987983e-01  1.32329449e-01 -1.26579210e-01
   6.03622980e-02  4.19856086e-02  1.46712318e-01  4.79574390e-02
   1.04898855e-01 -9.88709256e-02 -4.22389209e-02 -8.17546472e-02
   1.32205963e-01 -9.50209126e-02  1.65542904e-02 -1.26464814e-01
  -1.12464406e-01  1.15527652e-01 -1.62269220e-01 -9.25582349e-02
   3.43482383e-02 -9.36584249e-02 -7.85050988e-02  6.97863623e-02
  -1.35216431e-03  1.07687861e-02  1.95889339e-01 -1.85931772e-02
   1.37351602e-01  4.53016907e-02  7.39395395e-02  1.69996619e-01
  -8.85371789e-02  1.82005152e-01  2.11359829e-01 -7.94245675e-02
  -4.61684652e-02  4.19981144e-02 -7.86895305e-02  2.27624606e-02
  -4.70116287e-02  7.51504451e-02 -2.51573604e-02 -6.40203878e-02
   2.69379467e-02 -5.71118295e-03  6.82550520e-02  1.42099857e-01
   1.59898326e-02  7.26135746e-02  4.50458974e-02  1.33592281e-02
   2.90864799e-02  1.55107215e-01 -3.53432633e-02  1.53796170e-02
   9.69640985e-02 -1.06952615e-01  2.03389123e-01  1.55657098e-01
   1.85068011e-01  5.61800450e-02  1.03963464e-01  6.93270639e-02
   1.69802636e-01 -1.66328270e-02  6.97789202e-03 -9.43223760e-03
   5.33434935e-02  2.12722883e-01 -1.10489637e-01 -5.31948805e-02
   1.21628746e-01  1.15780972e-01  1.42215610e-01 -9.31178853e-02]
 [ 2.03461330e-02 -1.10838994e-01  2.15859767e-02  7.92654827e-02
   1.26717791e-01 -7.20959110e-03 -7.27818236e-02  7.25240633e-02
  -5.47347218e-02  1.07990250e-01 -2.78186854e-02  2.13711664e-01
  -6.97810799e-02 -6.40539080e-03  1.32153168e-01 -1.29319131e-01
  -1.55183613e-01  1.54905006e-01  2.92784460e-02  1.32333994e-01
   4.76709753e-02 -1.16978116e-01  6.33099973e-02 -1.09266683e-01
  -2.93579511e-02  9.50610936e-02  1.55016765e-01  1.29060999e-01
  -1.31460413e-01 -6.15679137e-02  1.65960476e-01  7.13492408e-02
   1.96665347e-01  2.61322781e-02 -1.08683109e-01  1.59041330e-01
  -1.17052115e-01  7.75314355e-03 -4.88383956e-02  1.19070932e-01
   1.23400189e-01 -5.13118766e-02  6.82422593e-02  8.49770978e-02
   1.84246093e-01  1.32746309e-01  8.95851478e-02  1.18371904e-01
   1.18050627e-01  2.94011980e-02 -1.46621808e-01 -1.03907891e-01
   7.47413412e-02  2.79228222e-02  8.88162176e-04 -1.31044939e-01
  -2.11827960e-02 -8.49865898e-02 -1.19516186e-01  1.84879862e-02
   1.02544397e-01 -8.35143253e-02  1.46457464e-01  8.95538032e-02
   8.84520635e-02  1.27511010e-01 -3.29944417e-02  1.43519610e-01
  -3.25462893e-02  2.13408435e-04  1.80333987e-01  5.12869246e-02
   1.38933569e-01  6.89107925e-02  1.49704292e-01 -1.35807350e-01
  -1.07338861e-01  1.19455089e-03  1.56514704e-01 -1.24887973e-01
   5.90533130e-02 -1.99362845e-03 -8.05989131e-02 -8.98683593e-02
  -6.11617453e-02  2.17908155e-02  5.00718690e-02 -6.60666749e-02
   9.24143270e-02  8.50512162e-02 -2.09230441e-03  6.08392954e-02
   5.64545952e-02  1.68004438e-01 -7.46642500e-02 -4.48345058e-02
  -3.08397580e-02 -1.18735485e-01  7.04201534e-02  7.75249004e-02
  -4.64215577e-02 -1.54521242e-01  5.61140962e-02  6.16469160e-02
  -1.10285349e-01  8.77355486e-02 -2.64447648e-02 -1.36249512e-01
   1.39146805e-01  9.84690413e-02 -1.52341798e-01  1.58247165e-02
  -2.13617124e-02 -6.96758460e-03  9.66297612e-02  4.64483574e-02
   1.66751891e-01 -2.12381165e-02 -2.10518353e-02  9.40768719e-02
   9.73227713e-03 -7.61079742e-03 -1.20488489e-02 -2.03179512e-02
   1.88846171e-01 -9.59405825e-02 -8.28411132e-02  6.77393824e-02
   1.69983760e-01 -4.69253883e-02  4.81350571e-02  6.93157613e-02
   4.08102870e-02  9.54673067e-02 -7.63907135e-02 -5.16786836e-02
   1.33891171e-02 -1.55604348e-01  1.22965120e-01  6.40965626e-02
   1.55802667e-01  1.24603696e-01  1.18983835e-01  8.59531015e-02
   1.11775525e-01  1.17139108e-01 -1.27025589e-01 -1.42961353e-01
   1.63713023e-01 -8.81425589e-02 -4.51107658e-02  4.41044271e-02
  -1.63935676e-01  1.20294750e-01  4.59880568e-02  1.87165126e-01
  -5.23347929e-02 -7.18223155e-02  3.77786160e-02  1.90513730e-01
   1.41388819e-01 -4.91326349e-03 -5.58749326e-02  7.29542971e-02
   1.98576346e-01 -1.56397298e-01  1.48526177e-01 -1.03257120e-01
  -7.03920275e-02  3.48590722e-04 -1.10884070e-01  6.88830763e-02
   2.03906983e-01 -3.36394310e-02  2.60589123e-02  6.70627356e-02
  -8.54631960e-02 -4.35049497e-02  2.96760872e-02  8.99988115e-02
  -1.43213212e-01  4.00703363e-02 -6.96835890e-02  3.58442254e-02
  -1.31804738e-02 -2.61471942e-02  1.27714515e-01  9.21813846e-02
  -4.85188677e-04  1.11755421e-02  1.23573922e-01  1.49639964e-01
  -9.20809433e-02  2.02889647e-02 -1.25041872e-01  4.59583700e-02
   3.37842479e-02  2.12133348e-01 -1.18102044e-01 -1.55400857e-01]
 [-4.01423387e-02 -1.09992055e-02  1.41830090e-02  1.17308237e-01
   6.87236488e-02  1.16016613e-02  1.63565308e-01  1.65177554e-01
  -8.71795714e-02 -2.92929355e-02  1.95357829e-01  1.50079057e-02
  -1.39330849e-01  1.10213712e-01 -2.51124538e-02  1.02303505e-01
  -5.17562218e-03 -6.03026617e-03  1.49373963e-01 -6.40282109e-02
   2.97006238e-02  1.08411506e-01 -6.96004182e-02 -5.57693616e-02
   8.21463466e-02 -1.14908986e-01  7.40765780e-02 -4.77066189e-02
   1.92086831e-01  1.34802088e-01 -2.35809665e-02  2.66304165e-02
   1.96393758e-01  1.48213878e-01 -1.07891776e-01 -2.08313437e-03
  -2.99473363e-03 -1.12202816e-01  4.04221788e-02 -1.07904784e-01
   5.94034940e-02  1.43129617e-01  6.99376166e-02  7.96670020e-02
  -3.12722810e-02 -4.28279676e-02 -1.14844300e-01  1.42418578e-01
  -1.63614795e-01  1.58847809e-01 -3.84585299e-02 -5.98893166e-02
   9.78009850e-02  5.09305894e-02  5.93443066e-02  1.16907120e-01
   1.79601938e-01  1.88322514e-01  9.37478617e-02 -1.10045314e-01
  -1.29416781e-02  1.07643537e-01 -1.36536881e-01 -2.09122952e-02
   1.32077709e-01  1.39898919e-02 -5.19389510e-02  1.43845111e-01
  -3.29397507e-02 -1.45736530e-01 -1.39751226e-01 -7.85086825e-02
   1.53120980e-01 -4.40085158e-02 -1.70940876e-01 -9.50877815e-02
   1.33617759e-01  8.61494467e-02 -9.87948701e-02 -1.12217948e-01
  -7.76383728e-02  4.29857075e-02  1.47100240e-02  1.65671736e-01
  -6.15655966e-02  5.65537484e-03 -4.63018240e-03  2.02592164e-02
  -1.76546052e-01  1.25035241e-01  3.19904238e-02  1.01801068e-01
   1.26848862e-01  1.27020448e-01 -1.44686624e-01  1.04988791e-01
  -3.01168300e-02 -8.88154209e-02 -1.61311731e-01  8.80351216e-02
   3.11087701e-03  1.11381836e-01  1.20604329e-01  1.02309126e-03
  -4.44648750e-02 -1.42916396e-01 -5.53507879e-02  1.23117782e-01
   3.56170982e-02 -9.94737595e-02  5.07855006e-02 -1.15085840e-01
   1.56416774e-01  1.06215859e-02 -1.35979846e-01 -5.94188720e-02
  -5.71120717e-02 -6.25369558e-03 -9.60085634e-03 -1.28387645e-01
   2.19611041e-02 -1.34225875e-01  8.44732299e-02 -1.34295359e-01
   2.58110315e-02 -6.47943318e-02  3.09969969e-02  4.13126312e-02
  -1.80657767e-02 -1.97321493e-02 -1.09504815e-02 -2.16498170e-02
  -7.23774508e-02  8.44223201e-02 -3.95637639e-02  1.33959636e-01
  -5.64661063e-02  1.17077172e-01  1.02088721e-02 -1.63843274e-01
   3.03478409e-02 -1.32359102e-01  1.07383206e-01 -1.20341882e-01
   3.68505195e-02  3.33217345e-02 -1.38324693e-01  8.01460668e-02
   1.55036509e-01 -1.24923080e-01  1.77563652e-01 -6.18275329e-02
  -2.07491238e-02  2.72518452e-02  7.19775558e-02  8.65028054e-02
   1.95103496e-01 -5.37068881e-02  2.00222343e-01 -1.26996692e-02
  -1.02016233e-01 -1.11093797e-01 -9.85304192e-02  1.22113720e-01
  -1.18491657e-01 -2.12612674e-02  4.04835902e-02 -1.82369612e-02
  -1.16140820e-01  1.17443487e-01 -7.55087426e-03 -1.73030555e-01
   1.79875627e-01 -6.71825707e-02  1.59863825e-03 -3.14072892e-02
   4.05166857e-02 -5.53260669e-02  1.40507787e-01  1.55817166e-01
  -9.58202332e-02 -1.29485264e-01 -1.04938127e-01  1.53875593e-02
  -1.08745083e-01  9.56107304e-02 -1.00348800e-01  1.25383392e-01
   3.35491798e-03  1.90441132e-01  1.46457747e-01 -4.02998738e-02
  -1.37956608e-02  2.26028878e-02  1.75185189e-01  8.91923904e-02
  -6.67368472e-02  1.39741570e-01  1.57324687e-01 -9.34975743e-02]
 [ 9.54764988e-03  8.30011144e-02 -3.22726667e-02  1.55465767e-01
  -3.93781438e-02  1.08465575e-01  7.86049012e-03  1.40806660e-01
  -8.26535150e-02 -1.04764409e-01  1.67170987e-01  7.13013634e-02
  -7.01761767e-02  5.59568144e-02  6.46344498e-02 -1.58787012e-01
   1.44375056e-01 -3.27174156e-03  2.03263927e-02  1.26367107e-01
  -3.60059068e-02 -1.40063271e-01 -7.23666623e-02 -1.64652970e-02
  -5.13537526e-02 -1.09708257e-01 -1.72327403e-02  1.59212232e-01
   1.88236907e-01  5.88429272e-02  5.21977106e-03  1.12935960e-01
   1.52126417e-01  1.82782620e-01 -1.90094709e-02  7.62533173e-02
  -1.07966520e-01 -1.22998625e-01  1.59234375e-01 -9.25301537e-02
  -1.58148274e-01  1.56785488e-01 -9.19037387e-02  1.08474918e-01
  -4.59155999e-02  5.38955666e-02 -1.41562372e-01  1.16405293e-01
   5.90887405e-02 -9.72721949e-02  6.85170153e-03  9.15267766e-02
  -3.56574953e-02  1.03699423e-01  1.05573341e-01  1.47114724e-01
  -1.29787877e-01 -1.28858000e-01  1.25360787e-01 -1.34302244e-01
   1.57970682e-01  8.46455470e-02 -2.72066183e-02  3.02003287e-02
   7.51185119e-02 -1.01840451e-01  7.27019683e-02  1.30476564e-01
   7.38889202e-02  2.16126926e-02  1.39989018e-01 -1.53724059e-01
   1.38827488e-01 -7.41818324e-02  5.98508492e-02  1.79486692e-01
  -8.09066743e-03 -1.11391231e-01  8.96089897e-02 -1.11195944e-01
   9.98194888e-02 -4.75233272e-02 -1.32638782e-01  6.92179203e-02
   6.09439723e-02 -1.20867744e-01  2.44586263e-02  8.40723291e-02
  -2.39671052e-01  1.18225083e-01 -1.51499391e-01  2.14130804e-02
  -3.88134681e-02 -4.65715453e-02 -8.59899819e-03  5.06084636e-02
  -4.01146570e-03  8.53618160e-02  8.34671557e-02  3.80700231e-02
   1.13161623e-01  3.97176370e-02 -4.47168164e-02 -1.48859322e-01
   9.38880146e-02 -1.43545285e-01 -7.88690150e-02 -4.17122729e-02
  -1.39647707e-01  1.31724924e-01 -1.38464198e-01  1.56540275e-01
  -7.18625560e-02  7.83285499e-02 -1.31081909e-01 -1.07087582e-01
  -1.35763302e-01 -2.38902192e-03 -1.23516209e-01  8.69908482e-02
  -5.32786585e-02  5.42076416e-02 -7.40666986e-02 -7.86296874e-02
   6.50550649e-02  8.10927525e-02  1.05882987e-01 -1.44946780e-02
   5.32446317e-02  2.01675802e-01  9.67579931e-02 -5.06993197e-02
  -1.30626962e-01  9.60085168e-02  1.67149499e-01 -1.14613630e-01
   1.58696584e-02  7.65960440e-02  1.48671731e-01 -3.76246981e-02
  -8.96192417e-02  3.74444500e-02 -5.60868904e-02 -1.77480891e-01
   8.42204988e-02  3.70058566e-02  1.46611869e-01  1.53569654e-01
   3.68049704e-02 -3.33599187e-03 -7.22640678e-02  6.29894212e-02
  -1.70221165e-01  1.20956980e-01  1.18917912e-01 -1.07597463e-01
   6.76861778e-02  1.15892373e-01 -2.36891974e-02  1.75795540e-01
   4.95416485e-02  1.06843784e-01  1.75734907e-01  7.64755830e-02
  -4.59063984e-02 -9.91814733e-02 -1.11464947e-01 -2.01693773e-02
   4.28971201e-02 -1.38786495e-01  1.94985628e-01  1.09176502e-01
   2.14467812e-02  1.92232519e-01 -7.82520175e-02 -1.16474986e-01
   1.44286156e-01  2.62647006e-03  1.47904500e-01 -9.46105048e-02
  -1.41203925e-02 -5.36540933e-02  8.76441449e-02  1.55142337e-01
  -2.66350270e-03  2.19417423e-01 -6.62422553e-02  3.24638328e-03
   1.16756581e-01 -9.60276723e-02  1.93480834e-01  5.30955568e-02
   9.39747468e-02  5.89231737e-02  1.23166099e-01 -1.52551696e-01
  -1.05098918e-01  6.86971890e-03 -7.08747953e-02  1.04013130e-01]
 [ 1.88177064e-01 -1.48306504e-01 -1.69266369e-02  1.47560537e-01
  -6.02357127e-02  7.65803978e-02 -1.01825722e-01 -7.93790743e-02
  -8.57785121e-02  1.56838790e-01 -4.25980352e-02  3.05267405e-02
  -1.00611500e-01 -1.82404488e-01  1.32017434e-01  8.04729462e-02
   1.08686946e-01  1.03442818e-01 -9.69767943e-02 -1.45628117e-02
   2.79138833e-02  5.54634593e-02  1.32359669e-01  6.92714974e-02
  -1.30517423e-01 -9.08732563e-02 -8.08520913e-02 -7.31353909e-02
   1.94857806e-01  9.88379959e-03  3.09649501e-02 -7.34278858e-02
   1.38901807e-02  1.24192700e-01 -1.25292927e-01  5.04741864e-03
  -3.29994224e-02  1.01437986e-01  1.24112777e-02  1.91957235e-01
   2.81258263e-02  1.35258183e-01  3.71581912e-02  6.26032501e-02
  -4.21012156e-02 -9.96359512e-02 -8.23920816e-02  1.77714169e-01
  -5.36025390e-02 -2.17344258e-02 -1.45209968e-01  1.22198556e-02
   4.25894558e-02  1.39020216e-02 -3.07799298e-02 -1.05840847e-01
   5.22541925e-02 -4.01987769e-02 -4.62147081e-03  1.25902414e-01
  -1.72977284e-01 -1.65164426e-01 -1.62713185e-01  5.50136752e-02
   1.37764424e-01 -1.41193256e-01  2.13026311e-02  6.70207664e-02
  -1.08250314e-02  2.16214098e-02  1.42115742e-01  8.10948834e-02
   9.38093811e-02  1.28683336e-02  4.68862504e-02 -7.19938129e-02
  -3.98606732e-02 -1.16835363e-01 -1.34465158e-01 -6.14527054e-02
  -1.02192409e-01  9.38873831e-03  1.18802130e-01  1.72252636e-02
  -2.55984440e-02  6.19098321e-02 -1.09071814e-01  5.58352917e-02
   8.64427537e-02  9.50127691e-02  6.68897182e-02  8.48243684e-02
   2.77158991e-02 -1.11282460e-01  7.21260086e-02  9.89632383e-02
  -6.73534255e-03  2.77142469e-02  9.78489295e-02 -1.11328900e-01
   3.61898579e-02  7.66430870e-02 -2.20235977e-02  6.15243129e-02
  -1.04514390e-01  9.67329219e-02 -8.41130242e-02  9.18954983e-02
  -9.99504253e-02  5.35124391e-02  9.57806185e-02 -3.16205285e-02
   7.67742172e-02  8.74918550e-02 -2.49317344e-02 -8.23763832e-02
  -2.84518041e-02 -3.57576981e-02  8.97049159e-02 -2.27590613e-02
   5.97063713e-02 -1.02417015e-01 -9.18661654e-02 -7.36479759e-02
  -1.16970681e-01 -4.54653651e-02  1.95943806e-02 -7.43666012e-03
  -9.78693664e-02 -1.12817138e-01 -2.68166028e-02  9.60839838e-02
  -1.33013442e-01  1.24317575e-02 -1.20734818e-01 -9.14079398e-02
   1.19245671e-01 -4.72759157e-02 -9.88861397e-02  1.32400393e-01
  -1.00454129e-01  2.24537868e-02 -7.72564858e-02  1.06809303e-01
  -4.11403878e-03 -1.13652118e-01 -4.70832698e-02 -5.05103171e-02
  -1.51065931e-01  1.49924690e-02  1.68573394e-01  5.19466847e-02
   7.01530054e-02 -1.16915189e-01 -1.33121639e-01  7.04845265e-02
   1.32758200e-01  4.12441697e-03 -7.34014213e-02  3.03000566e-02
   9.35310870e-02  1.24030598e-01 -3.04518715e-02  5.05422913e-02
  -1.48084864e-01  6.79804059e-03 -4.95254360e-02  1.18809901e-01
  -1.23809360e-01 -6.50742650e-02  6.69414178e-02  3.08539625e-02
   1.04620419e-01 -8.36647004e-02  5.89637049e-02  8.02288577e-02
  -7.60362223e-02 -1.83727732e-03  1.05838619e-01  9.60255414e-02
   1.81909785e-01 -1.24235503e-01  3.87915261e-02  1.43740892e-01
   7.33483955e-02  3.94270867e-02 -8.20983127e-02 -1.33479580e-01
   8.40847343e-02 -9.10960659e-02  3.78193073e-02  1.59292161e-01
   9.15406421e-02  6.67006448e-02  3.08838766e-02  5.62083684e-02
   1.58907145e-01 -6.46194965e-02  2.36137621e-02 -1.13061167e-01]]
lstm/lstm_cell/recurrent_kernel:0
(50, 200)
[[-0.02172409  0.07392201 -0.17600547 ...  0.05068257  0.02403019
  -0.00868012]
 [ 0.05883366  0.0500486  -0.07239857 ... -0.01316333  0.13011703
   0.01980946]
 [ 0.07676741  0.06717521  0.00913862 ... -0.01657586 -0.1276723
   0.05669181]
 ...
 [ 0.07744009 -0.16280448 -0.0264553  ...  0.08915404 -0.01913749
  -0.13558115]
 [ 0.07090824  0.02896749  0.07163464 ... -0.16581516 -0.04193442
   0.03218831]
 [-0.04487941 -0.12846358  0.02859491 ...  0.11191759  0.05616805
  -0.12713872]]
lstm/lstm_cell/bias:0
(200,)
[ 6.22177497e-03 -9.65167535e-04  8.21002945e-03 -8.21357034e-03
 -2.15343680e-05  2.23745368e-02 -1.55689253e-03  2.56313151e-03
 -1.15718497e-02 -8.68021511e-03  1.62855238e-02  3.03503852e-02
 -7.98717979e-03 -1.19007379e-02  2.95579340e-03 -1.48769971e-02
  2.92908046e-02 -1.02635948e-02 -5.49711566e-03  1.49009377e-02
  1.37240579e-02 -1.43709555e-02  3.46633941e-02 -2.07185070e-03
  1.73409171e-02 -5.34005510e-03  3.74928029e-04  4.40779049e-03
  1.07347146e-02  1.32007571e-02  3.96938325e-04 -3.38731497e-03
 -6.17657462e-03  2.49361526e-02  3.00134206e-03  8.35839368e-04
  5.35565428e-03  3.18907737e-03  9.42510068e-02  2.75728665e-02
 -6.04968471e-03  6.37548626e-04 -6.49451977e-03  2.08219755e-02
  8.45260266e-03 -2.32034232e-02 -8.62324424e-03  3.39792743e-02
 -1.30769610e-02 -1.04538416e-02  9.86248076e-01  9.87744033e-01
  1.00531614e+00  9.89930212e-01  9.89029050e-01  9.61576819e-01
  9.85559464e-01  9.92706597e-01  9.56833601e-01  9.77057517e-01
  9.55983877e-01  9.53753412e-01  9.87863123e-01  9.87307370e-01
  9.74364638e-01  9.79913890e-01  1.02689993e+00  9.85548615e-01
  9.92766440e-01  1.00555229e+00  9.78158593e-01  9.81652915e-01
  9.71755326e-01  9.85707462e-01  9.87420499e-01  9.85768676e-01
  9.87985730e-01  9.75132287e-01  9.33552504e-01  9.97120321e-01
  9.81941640e-01  9.92034495e-01  9.73689854e-01  9.78505492e-01
  1.00761104e+00  9.82406914e-01  9.89009917e-01  1.00165725e+00
  9.13045943e-01  9.80197608e-01  9.72139478e-01  9.88569915e-01
  9.56672251e-01  9.75785851e-01  9.79745686e-01  9.75528359e-01
  9.84726191e-01  9.67318237e-01  9.47960436e-01  9.83564734e-01
 -8.24936181e-02 -4.10971604e-02 -5.21194376e-02 -2.05386207e-02
  7.53547773e-02  6.80669695e-02  5.73712811e-02 -5.13071455e-02
  7.42411166e-02 -7.32709169e-02  7.44194835e-02 -7.37132654e-02
 -5.23149148e-02 -1.49952160e-04  7.21255466e-02  3.15623879e-02
 -5.53168282e-02 -3.54744606e-02 -2.98615005e-02  5.51304631e-02
  3.92344035e-02  7.38166226e-03  9.37857479e-02  5.18771410e-02
 -8.05594865e-03  5.73046692e-02 -4.47100215e-02 -5.44141755e-02
 -5.75595163e-02  1.92068759e-02 -8.21395591e-02 -5.63967898e-02
  7.02275485e-02 -7.28836954e-02  6.23379946e-02  7.75529742e-02
 -9.45516378e-02  5.03278002e-02 -6.89989105e-02  3.97420861e-02
  4.60236110e-02 -5.08101359e-02  2.24451069e-02  4.91330959e-02
 -8.31750855e-02  1.07515883e-02  5.80355190e-02 -2.92680599e-02
 -5.23150936e-02  4.10607867e-02  3.94449290e-03 -2.19783862e-03
  8.42540897e-03 -8.70335009e-03  2.07955833e-03  2.18292028e-02
 -1.84667076e-03  3.79247870e-03 -1.66514497e-02 -8.08057562e-03
  1.92341208e-02  3.24147120e-02 -8.71511735e-03 -1.12314280e-02
  6.73622312e-03 -1.35076325e-02  2.81222612e-02 -1.00874258e-02
 -6.29255222e-03  1.26932804e-02  1.35291982e-02 -1.37331737e-02
  3.09052318e-02 -3.18041840e-03  1.66777764e-02 -5.47809806e-03
  2.66874046e-03  4.85203089e-03  1.17582893e-02  1.41390618e-02
  3.34145688e-03  3.12391715e-03 -2.73107784e-03  2.25463416e-02
  1.29020377e-03 -9.94753558e-04  5.01528196e-03  2.89535004e-04
  9.67896953e-02  2.90446319e-02 -8.20547249e-03  1.81066210e-03
 -6.09666528e-03  2.18689460e-02  7.85450358e-03 -2.27911044e-02
 -9.43756476e-03  3.62692140e-02 -1.54513121e-02 -8.92489031e-03]
lstm_1/lstm_cell_1/kernel:0
(50, 240)
[[-0.13049686 -0.04307441  0.04987894 ...  0.03542468  0.11874154
  -0.03014589]
 [-0.1543952   0.127705   -0.12834977 ... -0.09560919 -0.12078115
  -0.11013997]
 [ 0.07926683  0.05876015  0.0538534  ... -0.10774332  0.06027342
   0.02859272]
 ...
 [-0.12164793 -0.08593423 -0.05614398 ...  0.00984291  0.17022812
   0.07617723]
 [-0.14805429  0.04960022  0.15740831 ... -0.13193616 -0.04724341
   0.07578073]
 [-0.0055158  -0.03354704 -0.10313092 ... -0.11331979  0.04265456
  -0.11739136]]
lstm_1/lstm_cell_1/recurrent_kernel:0
(60, 240)
[[-0.04597668  0.04062181 -0.03402586 ...  0.01609597 -0.14665885
   0.11671288]
 [-0.12492548  0.08880804  0.02366246 ... -0.06940194  0.0351357
   0.06489115]
 [-0.14335212 -0.12951773 -0.05190515 ...  0.0289153  -0.03105141
   0.05243434]
 ...
 [ 0.00608542 -0.03245951 -0.08480877 ...  0.05853019  0.03724721
  -0.03267596]
 [ 0.03381049  0.10555144  0.05520299 ...  0.0683889  -0.01768641
   0.10313421]
 [ 0.03277098 -0.02442113 -0.09268768 ... -0.00354408 -0.08100152
  -0.00664298]]
lstm_1/lstm_cell_1/bias:0
(240,)
[-2.1054184e-02  5.6633307e-03  5.2537438e-03  3.5377133e-03
  2.3919478e-02 -1.7348466e-02 -3.3746040e-03 -7.2178491e-03
 -4.0079518e-03  1.2773040e-03 -3.9531919e-04 -1.3687982e-02
  1.0009381e-02  1.9196743e-02 -5.9778809e-05 -1.4295899e-02
 -6.8722493e-03 -1.6359175e-03  1.9245357e-03 -2.1346350e-06
  1.0832488e-02  7.0435554e-03 -2.9316003e-04  1.0499524e-02
  1.4343892e-02  3.0131854e-02  5.7363827e-02  2.9600855e-02
  1.0274708e-02 -1.5874396e-04  2.3038842e-02 -9.5246248e-03
 -3.5843663e-04  2.9973932e-02  8.5850660e-04  1.8580838e-03
  1.9417681e-02  1.1784597e-02 -3.0312728e-04 -6.3539669e-03
 -4.5162025e-03  3.7555222e-03 -2.8012620e-04  1.2406676e-02
 -1.9282568e-02  1.7170578e-03  2.4524326e-03 -1.3223519e-02
 -8.9204020e-04 -4.1304701e-03  3.8655761e-03 -7.0374075e-04
  6.7109154e-03  2.8668439e-03 -7.4356985e-03  2.0881582e-03
  1.1798066e-02 -4.8629134e-03  1.6985044e-02 -1.0134158e-02
  9.8189157e-01  9.9443305e-01  9.9822521e-01  1.0072557e+00
  1.0112685e+00  9.8369622e-01  9.8201716e-01  9.8898071e-01
  9.9580091e-01  9.9431109e-01  1.0015469e+00  9.7803229e-01
  1.0105695e+00  9.9622351e-01  9.8901975e-01  9.8465270e-01
  9.9803752e-01  9.9168682e-01  1.0034536e+00  1.0106832e+00
  9.9821198e-01  1.0030710e+00  1.0059619e+00  1.0010177e+00
  1.0025626e+00  1.0192788e+00  9.8055971e-01  1.0173054e+00
  1.0100619e+00  9.9880672e-01  9.9780273e-01  9.9160719e-01
  9.8396218e-01  1.0191784e+00  1.0068519e+00  9.8402113e-01
  9.9000192e-01  1.0014498e+00  1.0029687e+00  1.0082039e+00
  9.9934494e-01  9.8666775e-01  1.0008211e+00  1.0199370e+00
  9.7990209e-01  9.9949986e-01  9.8762780e-01  9.8717988e-01
  1.0113262e+00  9.9772722e-01  9.9041599e-01  9.9922591e-01
  1.0101719e+00  1.0169768e+00  9.9136066e-01  1.0003314e+00
  1.0045404e+00  9.8841900e-01  1.0079714e+00  9.8708141e-01
  3.4711475e-04 -1.6340949e-02 -4.3261563e-03 -6.4258059e-03
  1.2307046e-02  6.5429700e-03 -5.8109901e-05 -7.9915030e-03
  7.0975460e-03  4.5074122e-03  8.8242358e-03 -9.3910703e-03
 -2.1800706e-03 -7.3235626e-03 -1.8672444e-02 -1.6191715e-03
 -4.4745491e-03 -3.7258849e-03  2.0895341e-02 -7.4349376e-03
 -8.1590479e-03 -1.7997433e-02 -9.4193649e-03  3.6974391e-03
  1.9588998e-02  7.6594502e-03 -1.9550918e-02  1.7157054e-04
 -1.4222310e-02  2.7277467e-03  1.2648670e-02  9.2251552e-03
  2.6691849e-03  1.8343650e-02 -5.2635842e-03  1.2927301e-03
  2.1687604e-03 -1.0115596e-02 -5.1612677e-03 -7.2445585e-03
 -2.4657589e-03  6.8400218e-04 -2.2612247e-03  4.1577755e-03
  2.2166725e-03  2.1533737e-02  2.1396340e-03 -1.8282430e-03
  8.4499372e-03  6.5630521e-03 -1.5139589e-02  5.7853698e-03
 -1.3248903e-02  1.5663797e-02 -1.6325157e-03 -7.4730585e-03
 -3.2206937e-03  5.9283739e-03  1.4253355e-02 -4.6517565e-03
 -2.1424809e-02  5.2002366e-03  4.8785452e-03  2.9138424e-03
  2.6062384e-02 -1.8177606e-02 -4.6005454e-03 -7.3372503e-03
 -3.9550359e-03  1.8266990e-03 -1.1147649e-03 -1.3134976e-02
  7.9417992e-03  1.9314304e-02 -1.3302072e-03 -1.4487415e-02
 -7.1022259e-03 -1.0325192e-03 -2.3611716e-03  8.9357927e-04
  1.1484750e-02  5.3338865e-03 -2.4130204e-04  1.0206555e-02
  1.3702474e-02  2.8246723e-02  5.1144835e-02  2.9050414e-02
  7.8788176e-03  1.9897235e-04  2.3703160e-02 -9.9119246e-03
 -1.6232220e-03  2.6444180e-02  2.9835143e-04  3.0631446e-03
  2.1615788e-02  5.5943490e-03  4.1007815e-04 -7.2571561e-03
 -4.9479934e-03  1.5639522e-03 -7.3773769e-04  1.2085607e-02
 -1.9689539e-02  2.7018795e-03  2.9006307e-03 -1.2945150e-02
 -8.5370085e-04 -4.6305335e-03  3.3701323e-03 -5.8596896e-04
  6.3651651e-03  1.2335059e-03 -6.8160673e-03  1.7716654e-03
  1.2860264e-02 -5.5854912e-03  1.4155586e-02 -1.0452115e-02]
dense/kernel:0
(60, 20)
[[ 0.08216123 -0.03568463 -0.19096528 ... -0.14461792  0.13317564
  -0.11021803]
 [-0.17073932 -0.15150867  0.16194712 ... -0.10166753  0.10725481
  -0.09175023]
 [ 0.10169592 -0.21950355 -0.01293531 ...  0.19520256 -0.20283477
  -0.1005451 ]
 ...
 [-0.23414049 -0.15697646 -0.25636896 ...  0.06051837 -0.11696832
   0.07859275]
 [-0.02420745  0.26455748  0.20699061 ... -0.04002688  0.22695206
  -0.18207437]
 [-0.22672044 -0.02032481  0.03641763 ... -0.0238247   0.04421783
  -0.03185873]]
dense/bias:0
(20,)
[ 0.05072949 -0.05119545 -0.05113171  0.04959593  0.05045756 -0.05005018
  0.05070103 -0.05076511 -0.04489708  0.05210053 -0.05397325 -0.0504169
  0.05107235  0.04913633 -0.05049563  0.05120429 -0.05005404 -0.04986588
 -0.05202769 -0.13690707]
dense_1/kernel:0
(20, 1)
[[ 0.27170357]
 [-0.4804634 ]
 [-0.41032502]
 [ 0.4909236 ]
 [ 0.4076567 ]
 [-0.5050264 ]
 [ 0.25246912]
 [-0.52326673]
 [-0.15527748]
 [ 0.30058897]
 [-0.2295177 ]
 [-0.30245882]
 [ 0.34090286]
 [ 0.36036143]
 [-0.4265942 ]
 [ 0.19670753]
 [-0.31263924]
 [-0.38921624]
 [-0.11169277]
 [-0.05378282]]
dense_1/bias:0
(1,)
[0.05053943]
